-0.025246192,0.01192715,0.001541011,0.016033459,-0.03293597,-0.009281443,-0.030903375,-0.018457239,0.009065915,0.004457612,0.008797076,0.023478542,0.03240085,0.017613588,0.007829706,0.021811489,0.020615835,0.022613965,0.032894205,-0.003040072,-0.034246337,-0.020664642,-0.034021169,0.016909111,-0.021199722,0.008935288,0.024684314,0.024783406,0.027035315,-0.026247725,0.008978602,-0.020966858,-0.001673629,-0.012066063,-0.001720848,0.020448731,-0.008070927,0.017062079,0.017871037,0.019263169,-0.016397018,0.033093639,-0.01550615,0.011220954,-0.001640689,0.002395378,-0.028460797,0.024918264,0.002979715,-0.020864649,-0.023118416,0.019465638,-0.012077546,0.019459903,0.0189583,0.001456421,-0.008200675,0.030856822,0.024399344,0.000427454,0.00169205,-0.014902691,-0.005972199,-0.012323486,-0.022982959,0.026067197,-0.010523657,0.008175032,0.044949267,0.02987884,0.031025145,0.028732808,0.027731188,0.04888124,0.014378688,0.00017971,0.02449163,-0.005633618,-0.02336514,0.017815396,-0.028587604,0.031498309,0.018189564,0.00646434,-0.00482793,0.018403891,0.017380925,-0.01178836,-0.016162897,0.021529779,-0.000529077,0.019867418,-0.017899573,0.001244237,0.00517055,0.005918716,0.004623279,-0.00120492,0.014051535,0.040221095,0.030014856,0.021753935,-0.032320451,0.010307894,-0.001378116,-0.01209519,0.014178243,-0.041867658,0.015061313,-0.027704714,-0.033727743,0.02115142,0.005776551,-0.026094019,-0.003138636,0.022247117,-0.021848924,0.032345083,0.035790846,0.006601194,-0.032545909,-0.023098169,-0.016698333,-0.041739736,0.011197417,0.020941408,0.024286766,0.03297516,0.029959507,-0.040980134,0.005826309,0.039138038,0.046899945,0.041639265,0.024929747,-0.04587673,-0.033487614,-0.007955165,-0.02145553,-0.023405762,-0.020559818,0.018963605,-0.013441324,-0.02969382,-0.02046313,0.009828833,0.057895694,0.034092084,-0.019374236,-0.007693205,-0.009761344,-0.047795251,-0.051454753,-0.070938721,-0.046420816,0.064933978,0.025296535,-0.022676568,0.065199547,0.029386366,0.002966007,0.048723347,0.048602764,0.046995431,-0.028189156,-0.053670358,0.020894343,0.018271975,0.029811356,0.028631371,-0.028774705,-0.029435072,0.033297479,0.024917023,-0.029779384,0.008597867,-0.037027247,-0.003766642,0.034426954,-0.027460692,-0.02425261,-0.057109185,-0.058827303,-0.007762143,0.037600271,0.006950493,0.094456151,0.062638409,0.064448044,0.040265039,0.058009785,-0.005678523,-0.011242239,-0.039025109,-0.026489979,0.025272606,0.027573196,0.027876865,-0.002362494,0.029816486,0.018399805,0.066404738,0.012172417,0.039546091,-0.018025583,0.014147772,0.027109301,-0.025619837,0.016282436,-0.030866189,0.036583856,-0.004964532,-0.008722772,0.112251133,0.028856404,0.08540564,0.063483827,0.004595364,-0.015873017,-0.009048012,-0.070929147,-0.034222733,-0.032352328,0.029593093,-0.008629229,-0.026959229,0.021530168,-0.007340415,0.041438613,0.016591692,-0.031565946,0.004627559,-0.068426646,-0.011104611,-0.010430844,-0.028924096,-0.037835486,-0.045362294,-0.037323982,-0.02213631,0.03526438,0.14384523,0.051750585,0.075995669,0.046544824,-0.01397342,0.007768276,-0.093529664,-0.113029622,-0.020889789,0.016287316,0.019447273,-0.003721517,0.028438514,-0.02544375,0.030533405,0.033409834,-0.020579915,-0.007557345,0.063723311,0.022526795,0.008490551,0.002611298,-0.019238543,-0.100850798,-0.177349269,-0.109361112,0.022219222,0.072458871,0.067434311,0.012877613,-0.05037865,-0.019139377,-0.060507819,-0.002023033,-0.039930601,-0.091363408,-0.018783484,0.009540227,0.02677197,0.032661688,0.026951563,-0.005005424,0.02446652,-0.037061732,-0.083454996,-0.015372372,0.011056105,-0.000369946,-0.024844065,-0.038133629,-0.136887386,-0.283221722,-0.199984536,-0.01134221,0.167339996,0.173236489,0.135447428,0.002264326,-0.009442756,-0.014182565,-0.03585225,-0.080495909,-0.093186244,-0.074157186,-0.00814048,-0.003019837,-0.018952543,0.025854377,-0.028179076,0.001851956,0.019723974,-0.081160918,-0.110829696,-0.037856378,-0.060552049,-0.099564061,-0.085861988,-0.121972628,-0.266455263,-0.244040534,-0.056695487,0.189917922,0.168782726,0.07861615,-0.048071835,-0.051389076,-0.016455013,-0.06828358,-0.020270722,-0.046772245,-0.105142064,-0.047625571,-0.002803636,0.011894409,-0.006117643,-0.03380692,-0.006233351,0.007464644,-0.023071377,-0.059414469,-0.070197567,-0.123615786,-0.148108274,-0.094982937,-0.169107288,-0.214070827,-0.231480479,-0.061456412,0.041615088,0.181211546,0.073101759,-0.018210551,-0.102983236,-0.016550936,-0.060305294,-0.010319225,-0.008339914,-0.008356231,-0.038181551,-0.046881974,0.02625468,0.003295244,-0.010924176,0.032881852,0.029201243,0.032937534,0.006650981,-0.08732821,-0.103371799,-0.098391503,-0.209187344,-0.122132063,-0.128598809,-0.104650095,-0.07454852,0.059824999,0.091087222,0.157287911,-0.030684337,-0.012195603,0.015034995,0.017281119,0.007154512,0.022372315,0.017973669,-0.042841032,-0.028195744,0.03142599,0.034840796,-0.002912746,0.025949707,-0.025968753,-0.034440588,0.018275317,0.007589364,-0.04289005,-0.073779151,-0.072979644,-0.085098848,-0.087147549,0.022502365,-0.015376984,0.050648466,0.18140842,0.1627592,0.138877973,-0.041446261,-0.016827025,-0.006384661,-0.006840216,0.079800293,0.078778051,0.074526824,0.050395608,0.039365359,0.026106514,0.049687136,0.029998941,0.024180032,0.002418204,0.001032565,0.010990929,-0.011059432,-0.015172306,-0.010943818,-0.020184871,-0.019488433,-0.015777972,0.037266724,0.037109558,0.161610782,0.197144821,0.217955351,0.099733427,-0.037334044,-0.040755231,0.00143685,0.019287584,0.037496112,-0.00272174,0.063510977,0.043734353,0.060463537,0.031949535,0.028675316,0.011927411,0.005913746,0.008926526,-0.032579992,-0.003498138,0.017765556,0.012960506,0.073530696,0.036797497,0.100017279,0.072043389,0.114163168,0.07182464,0.116214156,0.13274622,0.169044629,0.071818411,-0.058544345,-0.014207265,-0.038922641,0.018348295,0.049322631,-0.038966201,0.041496959,0.002912025,0.071447685,0.05385267,0.025217272,0.02235451,0.025803098,-0.003804035,-0.034308039,0.003108466,0.02276451,0.024177998,0.052627452,0.051007926,0.086081229,0.092563964,0.072060481,0.088116743,0.150706336,0.151738897,0.140867919,0.088067614,-0.051096372,0.007717343,-0.009246225,0.033041678,-0.029173346,-0.072801419,-0.00449628,0.042533711,0.044006843,0.045728885,0.020042287,0.020860834,-0.025271473,0.031332515,-0.025126085,0.019406701,0.037635386,0.064707443,0.008795804,-0.004652138,0.014568728,0.094749928,0.074981071,0.049293689,0.003242727,0.054467276,0.087159194,0.016227122,0.001500196,-0.009137958,0.024053579,0.035645906,-0.013720331,-0.023430318,0.017194729,-0.019171998,0.017833486,0.040619075,0.032606196,0.032121535,-0.000897516,-0.02872674,-0.009783626,0.006728909,0.007641139,0.067240462,0.028756186,0.050185494,0.079267062,0.024277749,0.09442196,-0.076266289,0.012845656,0.030113105,0.071757674,0.094119638,0.091569111,0.097341545,0.025015594,0.033178467,0.008686395,-0.024277452,0.006724706,0.017436488,-0.009336157,0.03784078,0.017407531,0.009440144,0.018102288,0.001053132,0.014988373,0.003849289,0.036825206,0.070743941,0.005621496,0.056770388,0.064460225,0.06132387,0.015758451,-0.046855897,-0.013510483,0.004617725,0.029077973,0.070544846,0.049529795,0.091965206,0.091003604,0.015982848,0.025658438,0.012749336,0.031792734,-0.064991929,-0.050555043,0.003187165,0.016096994,0.023437131,-0.008805191,-0.028340247,-0.022124724,0.007320401,0.030621164,0.033741187,0.086859405,0.055476293,0.058033701,0.098470822,-0.063563466,0.003970129,-0.06643106,-0.000343299,0.013586489,0.064280279,0.025667405,0.007616729,0.040456899,-0.01168509,-0.001468522,0.021368535,-0.045426916,-0.090411812,-0.037178505,0.033406474,-0.000271204,0.018770421,0.007879791,0.023111481,0.016476557,-0.025737379,0.023497202,0.004652626,0.146717697,0.038030867,0.061968092,0.0251306,-0.020756291,-0.039697062,-0.074619763,-0.07613346,-0.035074688,-0.058426611,0.027636437,0.001200799,0.002172886,-0.027644625,-0.02642582,-0.027698044,-0.038938984,-0.054378234,-0.039494943,-0.020814558,0.011009364,0.01646392,-0.019579817,0.019010093,-0.007580515,0.024387693,-0.029966995,0.025912846,0.043158095,0.076432914,0.072443046,-0.060581636,-0.03587633,-0.003733782,0.01301648,0.029370142,0.022565924,-0.011378018,-0.032225881,0.006506009,-0.041182287,-0.072082028,-0.077792831,-0.065851189,-0.037772,-0.052122083,-0.008522371,0.008125928,-0.032275803,-0.027799213,-0.032502219,-0.013129801,0.010797329,0.016030662,-0.001959204,0.031242149,0.005541789,0.05003012,0.025483141,-0.031872835,0.013897263,-0.027527399,-0.029905645,-0.012813319,-0.016685026,0.011397625,-0.086076289,-0.040692437,-0.00198293,-0.090679854,-0.080424368,-0.003740533,-0.041520562,-0.021910079,-0.005011234,0.027366564,0.006264525,-0.019301854,0.031411853,-0.014991114,0.03457934,-0.017439755,0.027951542,-0.00580381,0.039882656,0.019667782,-0.018345859,-0.020358941,-0.018148273,0.01665609,0.025534078,0.011876736,-0.042032786,-0.103842609,-0.105189607,-0.044928316,-0.064390846,-0.058374107,-0.074894279,-0.048500713,-0.044596512,-0.017569095,0.026041903,-0.007817188,-0.015557101,0.020963077,0.005185314,-0.011326147,0.032956306,0.02838609,-0.025371056,0.028278833,-0.004895051,-0.004889083,-0.009616917,0.002253043,-0.014768501,0.005115541,0.006381567,-0.031992517,-0.027621957,-0.052354064,-0.039755743,-0.049004637,-0.022672772,-0.022557439,-0.05703431,-0.041205805,0.015868833,-0.000766168,0.020337677,-0.012731279,0.030168522,0.010203179,-0.011788338,-0.004502151,-0.035032824,-0.015686661,-0.017814731,0.030732851,0.00419545,0.033824235,-0.020230992,-0.019197444,0.008025548,0.032896943,0.027150337,0.022616878,0.00395023,0.004955416,-0.022330251,0.024311444,0.03612645,-0.027857445,0.015146713,-0.012279624,-0.011995546,-0.003260277,-0.01464727,0.03416742,-0.027438531,0.014745466,0.021407153
0.024610396,0.030428801,0.015445534,-0.015632635,0.032168839,0.022675086,-0.012309305,0.014906392,-0.021032531,0.014570761,-0.035346642,-0.003900606,-0.019769877,0.024603298,0.009429904,-0.005663658,0.021952763,0.024570059,-0.019279599,-0.006671498,-0.010746701,-0.027061064,0.014119767,-0.024334049,-0.035376307,-0.005782882,-0.01608268,0.009036217,0.025077756,-0.032635588,-0.030099832,-0.03200949,0.023431549,-0.027594727,-0.023501843,0.029958647,0.009941302,-0.025779698,0.020798309,-0.015848178,0.028304193,-0.010839541,0.015906362,0.002846159,0.021298112,0.0327558,-0.03103281,-0.008498077,-0.004626405,-0.019677682,0.030397106,0.005705797,0.002113998,-0.025615999,-0.017635653,-0.019347545,0.002344795,-0.001753263,0.001843535,0.004212861,0.00404139,-0.032668296,-0.022858623,0.012513568,0.001386634,0.01674756,-0.042537853,-0.028991381,-0.008009131,0.04504256,0.039831549,0.08513315,0.059881926,0.02554745,0.049236316,0.004225357,0.039221097,0.020951545,-0.030721685,-0.012078888,0.0164812,0.020761354,-0.013536721,-0.013759583,0.013767559,-0.012064798,0.008683679,0.014430915,-0.011923059,0.023995446,-0.026908431,0.021036139,0.004408301,-0.061118793,-0.061825495,-0.002649043,0.018939499,0.051791187,0.071254753,0.122702561,0.085145026,0.042609151,0.040993854,0.045308921,-0.007133507,0.006500748,-0.019284859,0.026240857,0.027817955,-0.026995916,-0.032103527,0.000689495,0.028243538,0.022267142,0.03305107,0.007200306,0.00215279,0.011488292,0.029221421,-0.035314575,-0.010650757,-0.01757101,-0.001262116,0.003057217,0.032299418,0.05955331,0.05692469,0.068572782,0.048322011,-0.02976191,0.007442432,0.002670867,0.037797362,0.022061784,-1.03E-05,0.028275041,0.023704305,0.000225788,-0.018466802,-0.006761929,0.008697409,0.006548248,0.027093098,-0.03064264,-0.034277104,0.019709045,0.009507375,0.042178452,-0.018979175,0.028245909,0.018907078,0.031255491,0.013140578,0.074537121,0.089625709,0.090426005,0.033814669,0.029446378,0.035685986,0.058048148,0.012354111,0.022573676,-0.052100178,0.015111879,0.016828224,0.008299655,0.006307861,-0.011259786,0.025351908,-0.031309426,0.00134609,0.020742912,-0.035038259,-0.014690722,0.023571642,-0.012178798,0.039153118,-0.032149971,-0.035418969,0.019014129,0.000412826,0.045616288,0.02185094,0.058500148,0.046772908,-0.016765425,0.035748195,-0.045985401,-0.043647986,-0.002557679,-0.074603982,-0.038210873,0.029341524,-0.006101941,-0.00386827,0.031049609,0.027554153,-0.028868854,0.037068814,-0.001095811,-0.035963546,-0.04053482,0.011534399,0.081855074,-0.041592535,0.053194437,-0.023795683,0.006734135,0.027233072,-0.01915049,0.014567862,0.064688608,0.00229937,-0.006497156,-0.027381558,-0.019748166,-0.01677384,-0.035669714,-0.054098856,-0.079524413,-0.039205827,0.019439342,0.030062297,0.025275549,-0.000970824,-0.016563276,0.022742093,0.046033036,-0.039632935,0.021576663,0.051654082,0.058604833,0.039834373,0.09140683,0.03998683,0.03428898,0.050072182,-0.031795859,0.016011314,0.045973357,-0.04200748,-0.111720771,-0.038672518,-0.081517249,-0.024498498,0.012121627,-0.049532849,-0.000448,0.030262033,0.035390686,0.0073549,0.014026986,-0.022788793,0.022703154,0.015157741,0.05254215,0.031429291,-0.006739624,0.027775418,0.072085723,0.125173017,0.067983016,0.086162798,0.150320366,0.109615423,0.104233965,0.020204892,-0.045940749,-0.153178856,-0.081354611,-0.029068228,-0.10514614,-0.051641606,0.018534303,-0.057063274,0.003644855,-0.018600561,0.021490218,-0.020338934,0.033223029,0.00760049,-0.012655456,-0.001677422,-0.000925606,0.037461355,0.007685402,-0.001081465,0.071281068,0.053341698,0.136321753,0.076382391,0.094755411,0.097577773,0.133639932,-0.008083716,-0.089851163,-0.092529006,-0.028654763,-0.07372205,-0.091564842,-0.061463505,0.008996043,0.012190435,-0.011481327,-0.064709954,-0.017520791,-0.020880897,0.028887408,-0.005257524,0.041321736,0.036859762,0.044587296,0.042979039,0.037058316,0.054939132,0.055178721,-0.009678318,0.024419012,0.088451579,0.056290228,0.067112856,0.007325632,-0.054206192,-0.018124182,0.023174001,0.024956688,-0.011952044,-0.074305624,-0.002576922,0.044229515,0.041410517,-0.034879256,-0.031038089,-0.036636695,-0.00286112,0.033227742,-0.029282821,-0.018744826,0.033172667,0.040581245,0.063504979,-0.01104293,0.078233555,0.017236602,0.074367322,0.016907517,0.072230488,0.101538114,-0.024060793,-0.087766029,-0.041520905,0.040056184,0.071200363,0.020074407,0.012077101,0.002379184,-0.002798049,0.050204936,0.060862374,0.039404806,-0.056163739,-0.03724461,-0.002483059,-0.001942263,0.013889271,-0.029940579,0.027799217,0.036691803,0.040121451,0.013666018,0.068045922,0.061218672,0.038263567,0.017783197,0.046832036,-0.006884382,-0.073814288,-0.16711615,-0.050069951,0.032351241,0.00267662,0.010341855,-0.037061926,-0.028904552,0.0490692,0.089985318,0.067698531,0.022306873,-0.012184778,-0.05817657,0.000520728,-0.034531597,0.013702746,0.015182506,0.033666898,0.015782697,0.06809815,0.052089807,0.014728776,0.034721546,0.063647933,0.085803986,0.063156083,-0.115100987,-0.133801579,-0.122747704,-0.032800954,0.000523787,0.009430233,-0.028887995,-0.056315031,0.034096919,0.120586164,0.11572919,0.114078656,0.063217692,-0.047711689,-0.034404311,-0.0105959,0.01940212,-0.031177372,-0.019964809,0.021528084,-0.002736848,-0.018041326,0.04158501,0.071089715,0.110936187,0.037694551,0.009082269,0.02760214,-0.099225402,-0.104559302,-0.104174532,-0.03247929,0.004902575,-0.031779416,-0.003398601,0.032138955,0.007771691,0.106956795,0.15062207,0.103966974,0.091418892,-0.050185777,-0.086876258,0.005543133,0.027798278,0.026351389,-0.032983303,-0.014021913,0.002851525,-0.004004518,0.055644814,0.090428159,0.128100693,0.17225644,0.060259812,-0.008448677,-0.08304543,-0.074560925,-0.138302252,-0.077580698,0.02998933,-0.071232706,-0.016050834,-0.000919827,0.066152275,0.027086649,0.025744308,0.044875365,-0.00174763,-0.024327645,-0.072061166,-0.003875736,-0.03164456,-0.003155749,0.015914937,0.032955404,-0.028304303,-0.00452242,0.043803904,0.078318715,0.104780562,0.100741997,0.047189139,0.007695026,-0.102402873,-0.095125154,-0.220109895,0.045446925,0.06883534,0.001186343,0.034987479,0.10112007,0.015566369,0.044333655,0.009447038,-0.003544236,-0.027180536,-0.03332587,-0.082892343,-0.003890897,0.017540438,0.034077212,0.018565722,0.011048726,-0.022820432,-0.003393444,-0.034396257,0.001369925,0.020344896,0.057797384,0.099252567,-0.005511308,-0.083881438,-0.217431977,-0.146374479,0.11230538,0.109125867,0.046335001,0.118615277,0.105122618,0.083732001,0.080263093,0.084181137,0.01241333,-0.039493687,-0.041935127,-0.02993889,-0.017163899,0.012746325,-0.002448238,-0.020083915,0.034866713,0.000172323,0.004580474,-0.034275647,-0.019026447,0.069694869,0.097312257,0.066175483,-0.021958599,-0.057674993,-0.16290468,-0.139096037,0.154319212,0.19316335,0.116315424,0.041587722,0.075048439,0.095255367,0.055393085,-0.026352026,-0.012512216,-0.085168481,0.010966145,0.013584698,-0.019430308,0.012101184,-0.005953636,0.027732668,-0.039764892,-0.031393085,-0.060299028,-0.059117325,0.032536924,0.023230335,0.039580002,0.093197748,-0.070057988,-0.084162667,-0.12665078,-0.054916937,0.193036214,0.17061384,0.18189311,0.173150137,0.172581583,0.12561895,0.029258726,-0.018317616,0.012144923,-0.032105513,0.049504172,0.009388737,0.001411351,0.004256096,-0.013040626,-0.022952624,0.008148861,-0.014167037,0.004536877,0.014266039,-0.018806439,0.003448656,0.043929659,-0.02638917,-0.018338792,-0.047124792,-0.007975795,0.024976073,0.128347903,0.199644253,0.221056789,0.116888553,0.094387807,0.036814708,0.092898495,0.005413222,-0.018548688,-0.040907178,-0.021263804,0.015689723,0.029225852,-0.032569639,-0.032106325,0.021759355,0.016485075,-0.030291919,-0.004751224,-0.012460236,-0.068839706,-0.116115525,-0.065417461,-0.093460031,-0.028135577,-0.083506078,-0.048410628,0.044705011,0.16973348,0.162024349,0.153614536,0.096427888,0.061005026,0.033370011,0.039244529,-0.030032257,-0.034501474,-0.058822379,-0.015040857,0.01570834,-0.013405612,-0.012994687,-0.030341098,-0.00439813,-0.009886355,-0.034297124,-0.029228166,-0.010899057,-0.078260817,-0.16141437,-0.211788401,-0.140395865,-0.080370605,-0.110836595,0.008909796,0.030576205,0.135785207,0.149596661,0.075221956,0.089018211,0.00043101,0.012599031,-0.06365981,-0.034199975,-0.098705985,-0.073887743,-0.037716016,-0.025805261,0.020389086,-0.030239817,-0.002959061,-0.034405731,-0.034461487,-0.003168875,-0.027589297,-0.015061883,-0.071734756,-0.070084929,-0.128018171,-0.116602533,-0.057443637,-0.022834528,0.017388944,0.024499075,-0.043986149,0.074264012,0.050862215,0.086644091,0.012091472,-0.024136769,-0.042529702,-0.006246161,-0.016216781,-0.039235428,-0.044054683,-0.044034377,0.034512047,-0.019207593,-0.026732139,0.018950455,-0.030473594,0.020020109,-0.002811254,-0.042683456,-0.034586806,-0.061525863,-0.033396591,-0.013489586,-0.007620769,0.002240882,0.038005799,-0.009797728,0.039754637,0.068644956,0.062366299,0.044774801,0.041840196,0.025558619,-0.020942613,0.021355934,0.014875228,0.010320184,0.027014175,0.003122765,-0.024057277,-0.009695914,0.031525943,-0.033721652,-0.008719129,-0.029893992,0.008400443,0.008023364,-0.037023887,-0.016584236,-0.008351242,0.017946064,0.006606343,0.026790705,-0.003280863,0.033856444,0.076383509,0.062506184,0.077409208,0.015145609,0.070953779,0.039825812,-0.001628502,0.023186497,0.004172259,0.018179918,0.027208786,-0.014807872,0.027735356,0.006019548,-0.015071431,-0.011667805,0.02805623,-0.022201493,0.016639605,0.000300491,-0.004062145,-0.024199549,0.018741064,0.001057877,-0.004297364,0.011111417,0.03454002,0.042701691,0.009843316,0.038204893,0.024845785,0.018481713,0.000779852,-0.016652767,0.008426652,0.002264838,0.026916016,-0.015294952,0.00474437,-0.007510645,0.015029527,-0.001226075
-0.00632338,-0.026937328,-0.005364226,0.022968318,-0.007238047,-0.020836674,0.024411589,-0.003658872,-0.015537003,0.032366607,0.02510519,-0.029226746,-0.027536592,-0.025778752,-0.02387212,-0.030556215,0.031214159,-0.022948701,0.026698455,-0.023795415,0.028553631,0.012245089,0.031072084,0.035616498,0.001087721,0.026954662,0.004107956,0.022103481,0.006078888,-0.00734316,-0.003521882,-0.034328837,-0.005705313,-0.012733587,0.004499318,-0.035680942,-0.028172223,-0.014532246,-0.024892993,-0.026471863,-0.021239009,-0.015575971,-0.020560121,0.014646477,0.028267568,-0.009376691,-0.02734765,0.014604292,-0.006612847,0.031320442,-0.00203373,0.022340098,-0.026889373,0.013212297,-0.034172125,-0.034060851,-0.012692997,0.013857041,-0.024018472,-0.010354482,0.006879406,-0.026482614,0.007537296,-0.007503662,-0.008074501,-0.032669019,0.003488892,0.007261137,-0.061957855,-0.008220075,-0.043421883,0.020234697,-0.008546905,0.014689179,-0.037300292,-0.05444796,-0.022752598,-0.025760114,0.013534904,0.011365252,0.024443701,0.007199187,0.012970682,0.032918986,0.025155861,0.024438433,0.023704635,-0.028367041,0.003306751,0.036855251,0.02580739,-0.012468609,-0.00745283,-0.041847453,-0.03662001,0.033764146,-0.024561014,-0.056593977,-0.017950142,-0.039882783,0.03907093,-0.014272344,-0.009708196,-0.012645747,-0.00124762,-0.051050197,0.016000096,-0.035286095,0.024271391,0.004839771,0.022200363,-0.003396209,-0.014544172,0.011719063,0.034433249,0.030514056,-0.01982294,0.014856035,-0.011085913,-0.014773956,-0.000980132,0.02201326,0.007960127,-0.039545827,0.023651371,0.01009792,-0.050837792,-0.045205727,0.01763387,-0.029109536,0.019157752,-0.01276881,-0.022990134,-0.050804418,0.006731398,-0.044686813,-0.00879585,0.016354572,-0.004199838,0.032002959,0.024204239,0.024422769,-0.00282486,-0.018856551,0.044469234,0.058288135,0.041652631,0.04641705,0.030440193,-0.008744041,-0.000407862,0.013482232,0.029629217,0.002502499,0.044012025,0.086586922,0.03743783,-0.030214729,0.022637753,0.002998979,0.011116215,-0.001857686,-0.017611438,-0.041812588,0.015581763,-0.041438166,0.00248213,-0.00493782,0.007339735,0.028535429,0.027868057,0.027929513,0.01819347,0.058106519,0.079304323,0.028418437,0.045150958,0.03573313,0.014430979,0.012377404,0.025934555,0.034737509,-0.008734724,0.01287617,0.068809792,0.049818832,0.021482188,-0.009400898,-0.029158531,0.026616892,-0.046286125,-0.050580133,-0.036695361,0.009688475,-0.01121172,-0.031581618,-0.00267963,0.022079831,-0.004202182,0.037879147,0.069190219,0.064515963,0.047269128,0.005989202,0.010968016,0.033245739,-0.064625174,-0.001188303,0.035142839,0.08337488,-0.009809142,0.070474125,0.027980682,0.046599686,0.025358323,0.040546436,0.004014977,0.002201252,-0.052450784,-0.053346742,-0.053896882,-0.049223155,0.02798732,0.004414862,-0.009246982,0.029564414,0.031769726,0.030018834,0.06049446,0.112378716,-0.016671587,0.012079095,-0.054098397,0.007621895,0.040775716,-0.002312013,0.026250793,0.074064404,0.055759612,0.060593616,0.016357359,0.007860917,0.023636876,0.004540666,-0.077815458,-0.096143879,-0.073948137,-0.148233116,-0.076484822,-0.055787828,0.018073447,0.016759902,-0.022593986,-0.000600158,0.029416084,0.0466046,0.080842644,0.055368997,-0.015693884,-0.060942397,-0.069360837,-0.034054894,-0.004465606,-0.013378716,0.07778275,0.06878332,0.076397851,0.124196075,0.037167668,0.068140157,0.050048653,0.023702312,0.000635284,-0.119829185,-0.130507797,-0.166563183,-0.161694676,-0.115046263,-0.026722366,0.036805831,0.028869277,0.030667534,0.032567594,0.037026457,-0.021518597,-0.051421378,-0.107218541,-0.104087807,-0.096708722,-0.073577411,-0.017773004,0.000891968,0.069754966,0.051168323,0.006270776,0.11054346,0.093729891,0.096950255,0.052434612,0.094915979,-0.023389138,-0.104217246,-0.068687364,-0.125434443,-0.192406371,-0.04872768,0.01612867,-0.030619405,0.017798908,-0.000975339,0.001810812,-0.0101706,-0.048864577,-0.091218933,-0.120197669,-0.082883522,-0.051371269,-0.015006355,0.050890658,0.063724793,0.095041469,0.002705344,0.025149047,0.16772002,0.106317997,0.11168211,0.061030898,-0.00074495,-0.024993263,-0.068442106,-0.067305364,-0.185996115,-0.142028466,-0.032735668,-0.028909015,-0.012071275,-0.018997999,-0.028378079,-0.005083638,-0.009344269,-0.003198021,-0.07139352,-0.07935553,0.002095266,0.011296442,0.037141129,0.022069043,0.061362222,0.089976735,0.025076386,0.080024131,0.182164028,0.172020659,0.084118232,0.083260082,-0.007205229,-0.057396419,-0.090209983,-0.031061107,-0.11043825,-0.035453826,-0.008319835,0.019678304,-0.001496658,0.015107713,-0.019334286,0.017357673,-0.017371381,-0.015126129,-0.022731973,-0.063366629,-0.040566958,0.04779854,0.020845216,0.06284178,-0.01963849,0.01371925,0.031529788,0.075546816,0.125949785,0.171102256,0.180262089,0.138267145,-0.085210115,-0.063865535,-0.0511522,-0.047413763,-0.079209216,-0.013945423,0.036157861,0.016652612,0.037179738,0.021311088,0.034164924,0.022297287,-0.011393921,0.010601101,0.013600242,-0.043188468,-0.016147964,0.069574051,0.030996379,-0.026792111,-0.027925491,0.039818391,0.049049266,0.053650364,0.13948524,0.213056624,0.192993388,0.081383184,-0.012499464,-0.052473836,-0.037074894,0.002194977,-0.038161304,-0.04133397,0.050271392,-0.018965812,0.030365955,-0.01922914,-0.016529212,-0.013261989,0.035112362,0.017873401,0.01394621,-0.025627946,-0.018480109,0.066592589,0.051165476,-0.024057295,0.017365599,0.03793985,0.035385624,0.09842474,0.198363751,0.198249444,0.143778563,-0.075043827,-0.025426853,-0.051190093,-0.012560308,0.026316887,0.000511003,-0.018680632,0.047119368,0.03896885,0.024661478,-0.003319,0.020131035,0.02242749,0.01196882,-0.005788941,0.025809985,0.039198797,0.096516199,0.043162189,0.045007922,-0.018613439,-0.027067007,0.069612034,0.096950293,0.114908203,0.150366217,0.164931953,0.068780825,-0.067340523,-0.053926226,0.015694864,0.060233813,0.015194222,0.02374967,0.026876815,-0.000858938,0.009799394,0.014389444,0.032301847,0.012872195,0.026535716,0.041278198,0.051552452,-0.007918668,-0.016113585,0.026060024,0.043449305,-0.045938879,-0.080221079,-0.084447987,0.066419967,0.122390315,0.086925313,0.046568613,-0.021687388,-0.118454091,-0.09220998,-0.066978492,-0.042585604,0.046015393,-0.005535956,0.01045633,0.015085258,-0.002577516,-0.016380055,0.001079442,0.002552861,0.03242803,0.012983565,0.015840303,0.032637253,-0.03526352,-0.040941194,0.008622402,0.007216822,-0.051439114,-0.114432633,-0.062228516,-0.040215395,0.031461041,0.019218372,-0.038630288,-0.067581981,-0.07736434,-0.083998807,-0.001141198,-0.007692626,0.07724718,0.019328244,-0.030970544,-0.044644386,0.030185238,-0.027391247,-0.026998822,-0.01157448,0.001141832,-0.026172992,0.066925302,0.016322313,-5.13E-05,-0.035491571,-0.047928244,-0.059140343,-0.048837658,-0.10893593,-0.14143616,-0.186204597,-0.037361313,-0.043272838,-0.096064046,-0.066166729,-0.037912022,-0.028418897,-0.023569992,0.029022697,0.033379741,-0.05501622,-0.051569488,-0.052806847,-0.011953659,-0.017079726,0.024162764,-0.006610785,-0.002147934,-0.023162493,0.017588748,0.021372959,-0.070181541,-0.044587668,-0.025167391,-0.069301397,-0.044219438,-0.116430685,-0.084486641,-0.143344045,-0.111404672,-0.033894144,-0.078771971,-0.040204909,-0.046787981,-0.006219456,-0.031287368,0.059817854,0.059372611,-0.011278453,-0.064854793,0.01102686,-0.039718855,0.008847342,-0.016959021,-0.003180404,0.020173699,0.025279829,0.021142328,0.007580267,-0.059358921,-0.087801628,-0.086734943,-0.010526691,-0.022519838,-0.068028152,-0.02941817,-0.038803909,-0.079498835,-0.074032255,-0.063310087,-0.038160838,0.000544804,-0.01445538,0.048574015,-0.023248727,0.032762811,-0.055751815,-0.032982726,-0.019128758,0.012163765,0.011960709,0.014820942,0.005288446,0.034609832,-0.007836632,0.035431266,-0.007655401,-0.060223628,-0.04904807,-0.059467122,-0.054615229,-0.029073222,0.002389211,0.014806727,-0.015154622,-0.035788622,-0.036193486,-0.024292894,-0.035009306,-0.01225486,0.022496391,0.025306405,0.03098508,-0.009634243,0.031651914,-0.025674777,-0.031137526,0.012371565,-0.007678242,0.012452183,-0.029768506,-0.015910204,0.033613592,-0.000870852,0.002240327,0.004648218,-0.047440045,0.024407148,-0.015417635,-0.058856636,-0.014933367,0.009364044,-0.053765036,0.003627038,-0.016532807,-0.001284581,-0.003919203,-0.015446243,0.034229197,0.068524897,-0.018003633,0.027407542,-0.003195238,-0.034205135,-0.024012191,0.015815109,-0.010357904,0.026128072,-0.015401015,0.015736766,-0.023818526,0.008035609,0.021742662,-0.002761817,0.079408251,0.027061306,0.0153022,-0.046752639,-0.014650663,0.001472184,-0.081278779,-0.008143602,-0.00478588,-0.049431387,-0.040534686,0.000565899,-0.001076676,0.000859355,-0.028420337,0.04724111,0.037940659,-0.005405565,0.001147616,-0.027793536,0.022095734,-0.015809171,-0.029512368,0.027871076,0.023507634,-0.037444666,-0.016264141,0.066666931,0.018437658,0.033034682,0.05578633,-0.012148029,0.028533034,0.031283829,-0.019692989,0.031729218,0.014387701,-0.0191301,-0.041376051,-0.020754877,-0.064261161,-0.078954734,-0.024920477,-0.009922358,-0.033411529,-0.00129507,-0.031137543,0.000355752,0.034413874,0.00476424,0.006728441,-0.029930601,-0.00781152,-0.003038011,-0.000278949,-0.017322874,0.006459545,0.029163335,-0.019603211,0.003015186,0.024497582,-0.031107098,-0.046515513,-0.001453069,-0.024065396,0.002903905,-0.045725428,-0.036963657,0.009625331,-0.042923667,-0.029670088,0.017811976,-0.01609713,-0.01719599,0.030748913,-0.007342621,0.006245278,0.008371677,-0.034435298,-0.031182583,0.020780563,-0.004886078,-0.030061657,-0.027650088,0.006625195,-0.030399818,-0.012263045,0.003038491,-0.032392446,0.028345948,-0.006523505,-0.003939868,-0.022538425,-0.032273207,-0.017713359,0.034360033,-0.018995149,0.023094187,0.02913164,-0.016254941,-0.006176867,-0.020094536,0.009796586,-0.022467256,-0.023861814,-0.01375851
-0.005942583,-0.000791602,0.003318999,-0.023838913,0.007447347,0.023501299,0.025748152,0.031453375,-0.000809912,0.017702099,0.007679515,0.003168147,0.033881236,-0.009258009,0.027656162,-0.031776033,-0.020529505,-0.009143054,-0.001422677,-0.001550611,-0.015017536,-0.016406886,0.00276788,0.003627051,0.01735463,-0.01456451,0.016883336,-0.026081078,-0.002031058,0.032514993,-0.024657123,-0.024102625,-0.019786417,0.008422761,-0.036209963,-0.00581693,-0.00469218,-0.034296058,-0.007791205,0.030403426,-0.041027077,-0.005701931,0.001841973,0.010331467,-0.035465106,0.021967294,-0.018333575,-0.027967704,-0.038082045,-0.003767274,0.030168727,0.019224843,-0.026050203,-0.015715579,-0.005647196,-0.010054724,0.006066725,0.011070378,-0.023235936,-0.017643817,0.025006501,0.024631109,0.024128128,-0.03314491,0.01056552,0.008443957,-0.054171924,-0.059808359,-0.05106613,-0.019530745,-0.073812306,-0.018477509,-0.02693326,-0.008778231,0.004635354,-0.028512551,-0.040862873,-0.050034348,-0.010235211,-0.040669721,-0.03095354,0.030168507,0.030073818,-0.030826323,0.028113771,-0.000204168,0.032012839,-0.029646734,-0.00206506,0.002229688,-0.028377701,0.017456377,-0.026953634,-0.028883686,-0.036227163,-0.02840442,-0.015977824,-0.040418029,0.006430163,0.020631891,-0.040861685,0.033620749,-0.011724757,0.002980261,0.005858649,0.029794199,-0.000132264,-0.012069343,0.015338309,-0.011904603,-0.016386744,-0.014629701,-0.018693546,-0.026010431,-0.008527441,-0.006581597,-0.017068796,-0.02903476,0.001125336,0.022006638,-0.036575016,0.010731621,0.012496939,0.017565509,0.005803488,-0.055996723,-0.010965161,0.030044004,0.031203318,0.027626863,0.032858022,0.01968367,0.01650908,0.008302063,0.022640135,0.015426418,0.055878334,0.053016078,0.01824533,0.015156219,0.020395659,-0.009641521,0.025627295,0.017939733,-0.028082803,-0.018237438,0.006443668,-0.014706778,0.017049793,0.073684372,0.066316381,0.064863592,0.011403874,0.037540063,0.042151503,0.050267216,0.029554147,0.028949335,-0.011390578,0.007713857,-0.026160398,-0.017668927,-0.018106168,0.013260323,0.042384639,0.020129224,-0.027488513,-0.024373248,0.001113661,-0.002886958,-0.027037913,0.027335465,0.03334105,0.002235172,0.018438833,0.051821958,0.036604226,0.055560734,0.056559604,0.068475671,0.07148058,0.056223717,0.085652553,0.085675217,0.023681846,0.087994657,8.80E-05,0.10208787,0.037506826,0.024131536,0.037911404,0.00738845,0.000733008,0.004720792,0.031788245,0.031045262,0.018071877,0.005611184,-0.009856424,-0.001985893,0.02876978,0.041926667,0.031660601,0.012164146,0.11405877,0.059735164,0.082740232,0.072831288,0.051673502,0.071760401,0.025085667,0.108307704,0.060910463,0.08065474,0.077067807,0.055787843,0.014168953,0.020030569,0.029924622,0.048292775,0.037592806,0.021834809,-0.005969327,-0.02296599,0.020885225,-0.034540948,-0.009287236,-0.008972818,-0.001880445,0.060612082,0.077790357,0.036251415,0.021801,0.069313534,0.034842052,0.075319745,0.065371439,-0.001646665,0.042445458,0.040097319,0.114567429,0.065875418,0.120251119,0.073969297,0.057776514,0.055252593,0.078154005,0.070487529,0.123910785,0.05650929,0.007495191,0.015376663,-0.035336923,0.020961456,0.016853506,0.021135876,-0.00078901,0.068027541,0.015999256,0.037354171,-0.00229392,0.041906144,0.00685644,0.037418023,0.044862885,0.007098395,0.012100762,0.012855764,0.056344919,0.085783854,0.044875741,0.072434016,0.100985691,0.025093982,0.04932683,0.080109321,0.067155443,0.06855841,0.029534267,0.022848681,-0.003336729,0.002377355,0.018989554,-0.020518871,0.004698858,0.01786001,-0.022432074,-0.000119561,0.02565442,0.03424339,-0.003971157,-0.029524246,0.033298295,-0.009328885,0.007875203,0.006339225,0.002700804,0.020338859,0.060818534,0.054950263,0.077776097,0.006581224,0.050015051,0.055215362,0.079362608,0.035979878,0.048569627,0.023200601,-0.011713014,-0.007983027,0.034492388,0.036564339,-0.014410703,0.00774059,0.028177878,0.036988936,0.041220155,0.056567043,0.059282761,0.012451578,-0.015279174,-0.018394904,0.039513662,-0.04849834,-0.056795817,0.022627398,-0.025602156,-0.010110825,-0.008540043,-0.033454541,0.011762409,-0.025080325,0.022284135,0.031471658,-0.002520778,-0.021640524,-0.032455094,-0.020341558,0.008571763,-0.017715884,0.026097838,0.030906273,-0.004995001,0.035162386,0.006336404,-0.039035376,-0.006074374,0.010334154,-0.021263203,0.01029169,-0.028093901,-0.027778493,-0.064782873,-0.049315572,0.045110229,0.03774374,-0.008719341,-0.053809643,-0.0353438,-0.064842217,-0.068159774,0.00865084,0.02934492,-0.017888732,-0.023763269,0.034122024,-0.001948503,-0.035980858,0.030950604,-0.01385179,0.007565908,0.030294273,-0.02151287,-0.032955166,-0.025763333,0.003658515,-0.00650446,-0.038653757,-0.049634874,0.012483284,-0.022356581,-0.010916503,0.082888357,0.065013103,0.0133049,-0.011273756,-0.033966664,-0.059607979,-0.029133609,0.020246327,0.032563575,0.025282636,0.033722967,-0.005541526,-0.019186046,0.025049727,0.006199095,0.022581898,-0.00548321,-0.032505728,0.002842947,-0.042774286,-0.029093923,-0.046652243,0.023368753,-0.024659928,0.00280381,-0.039873522,-0.045749277,0.069462888,0.12500757,0.056944523,0.056006443,0.01820549,-0.000908943,-0.036952879,-0.028384794,-0.013235657,0.00203566,-0.006521348,-0.014065243,0.036187325,-0.005776905,-0.024370527,-0.008849896,0.007742727,0.024327349,-0.005682508,-0.011853511,-0.0400136,-0.004051315,-0.025467098,0.004627,-0.048207644,-0.078362294,-0.022312399,-0.057727091,0.037283372,0.091837406,0.05894345,0.033161156,-0.003363313,0.051531125,0.004634508,0.011089079,0.008716141,-0.009413993,0.027724462,0.032925107,0.002201822,-0.034105558,-0.009666442,0.030695176,-0.050190173,-0.012711534,-0.021552496,-0.005366866,-0.011416967,0.046667941,-0.022432482,0.058786016,-0.033458933,-0.042436812,0.002622021,-0.010133377,0.124784485,0.079982474,0.070107795,0.060607031,0.02981583,-0.017364005,-0.009608455,-0.001272929,-0.026283488,-0.02213099,-0.037423097,0.012316633,0.031173596,0.013183856,0.025548303,0.009671707,-0.017633986,-0.018771136,-0.008041376,0.020294633,0.06357795,-0.00431597,0.046314757,0.009548715,-0.006140199,-0.05482835,-0.00936655,0.04823783,0.122992322,0.023378339,0.039672073,0.064551659,-0.007639641,-0.027617583,0.016454382,-0.028196447,-0.058351435,-0.021009687,0.02784151,-0.009177285,-0.019769244,-0.02845188,-0.005934912,0.040409189,0.021905785,0.063094698,0.035808183,-0.008709956,-0.002453462,0.023997365,0.037703581,-0.039821889,-0.024134887,-0.031996794,-0.00316013,0.050724443,0.030928999,-0.005243394,0.025075715,0.029702878,-0.017643917,-0.006671893,-0.026440766,-0.029385678,-0.024642184,0.015465089,-0.024993807,0.02427081,0.000162003,-0.026878919,-0.00227716,-0.009909662,0.075274549,0.04672591,0.007607494,0.040273033,-0.01769902,0.042238079,0.007912345,-0.033434525,-0.060495172,-0.014815625,-0.000400235,-0.029785553,-0.013955479,-0.047416348,-0.007882993,-0.044276629,-0.01155791,-0.042503774,-0.029751306,-0.027507717,-0.0299979,-0.01174435,-0.026039788,-0.032488085,-0.016489929,-0.033511229,0.015654199,0.02061088,0.048072036,0.048463501,-0.007300789,0.027675498,0.02179249,-0.032194477,-0.036561389,0.009622934,0.057231724,0.009094007,0.008707019,-0.03502398,-0.046115093,-0.102950923,-0.064561583,-0.047463909,-0.061094854,-0.006607375,-0.003673049,-0.003127433,-0.034395549,-0.033164345,0.023724183,-0.001773175,0.025899647,-0.01158389,0.016370948,-0.016123002,-0.036722396,-0.030766902,-0.00798021,-0.050651129,-0.03854489,-0.031518396,0.0690457,0.035408959,0.054241281,0.027151695,0.00962634,0.017984269,-0.025747769,-0.078890398,-0.102594718,-0.061822098,-0.069734007,-0.044313613,-0.007639725,-0.050608333,0.024381379,-0.032152064,-0.013814331,-0.021220723,0.026893975,-0.000432984,0.005307051,-0.015796887,-0.097952232,-0.040580373,0.030519558,-0.00058623,0.007899492,-0.005336481,0.061699599,0.064707272,0.059601214,0.08669176,0.044142529,0.030941421,-0.003372995,-0.041938338,-0.011876131,-0.080045357,-0.030097192,0.033943351,0.006522524,0.010602063,-0.010117079,-0.00453317,0.02525747,0.003727995,0.028617118,-0.010860609,0.026809618,-0.016942246,-0.006841122,0.011534961,0.044383444,0.023041857,-0.013843792,0.079656996,0.071176417,0.021530207,0.010036741,0.057684559,0.062903225,0.046913181,-0.010134581,-0.029055761,0.007721527,-0.013641877,0.019670637,-0.020425869,0.008968118,0.01768617,0.019578433,-0.015177657,-0.016609559,0.033855248,0.027667608,0.006600884,-0.009778357,-0.011556624,0.018596787,0.033952583,0.066252381,0.066485003,0.064554788,0.080285512,0.093954049,0.109054938,0.132739246,0.066300184,0.048795383,0.062739819,0.035563216,0.008610838,-0.029002419,-0.009871321,0.004738238,-0.006991474,0.038149647,-0.015038216,-0.036154393,-0.008555017,0.031641107,0.00159185,-0.023872355,-0.020433409,0.026510291,-0.002714994,0.014758699,-0.020318348,0.047215614,0.025237525,0.08074417,0.073154815,0.126315057,0.074508071,0.086277202,0.088062793,0.096316911,0.106007665,0.053501669,0.034419417,0.027770266,0.013488179,-0.027316267,0.003618512,0.006643583,0.032095689,-0.007596302,0.019985799,-0.019597003,-0.003178813,0.028881516,0.024021082,-0.000675267,-0.003418969,0.011582038,0.00317935,0.008298378,0.00034571,-0.001701579,0.009758053,0.03692342,0.007930831,0.008799933,0.060731597,0.032290369,0.044545211,0.054611295,0.018357027,-0.024556248,0.009673517,-0.029147407,0.031554971,-0.001993782,-0.021755582,-0.004740579,0.018753879,0.02418419,0.02630724,-0.00735922,-0.006588863,0.035114799,0.022698298,0.007560418,0.020253291,0.010622621,0.03075085,-0.007738749,0.014522441,-0.014121331,-0.015439445,-0.007226965,0.026233265,0.019888626,0.023699541,0.015805615,-0.004100929,-0.008987613,-0.00492106,-0.005195073,0.030096766,0.015777547,-0.026143041,0.016266033,0.030228328,0.014991917
-0.019896023,-0.007031428,0.001312401,0.017798129,-0.017220099,0.004771736,-0.023946941,-0.016696969,0.035308961,-0.02685073,0.024845347,-0.024040446,0.012499107,-0.006326431,0.013723865,0.008104062,-0.03546482,-0.018000608,0.011686143,-0.031674564,-0.025203118,-0.014299171,-0.005423317,-0.033255544,0.028394576,0.012232061,-0.029591251,0.031787317,-0.022839956,0.001624223,0.014370829,0.001979139,0.012264416,-0.024808843,0.016134463,-0.010331333,-0.021827331,-0.016762331,0.018248195,0.029932404,0.020584557,0.008740487,-0.014663818,-0.021190904,-0.007996807,-0.00935583,-0.011544793,0.040609729,-0.028709468,-0.026718607,0.031703919,0.0376883,-0.018734192,0.015788272,-0.001470417,-0.003441993,0.003829118,-0.011359632,0.022999652,0.02896378,0.014590068,-0.003563912,0.0287764,0.050574157,0.023217654,0.033647995,0.049581684,0.088455103,0.086913206,0.048256364,0.044881713,0.062330555,0.02617141,0.048016254,0.015139787,0.050755002,0.022439957,0.033060763,0.02454241,0.031880058,-0.006467273,-0.001662259,-0.009652615,0.029494587,-0.031153804,0.02531004,7.90E-05,0.02851323,-0.020934468,0.014758794,0.007002466,0.041368831,0.02766313,0.084198363,0.06160656,0.065476216,0.055232413,0.057767633,0.029533679,-0.024008062,0.033602599,0.015864175,0.009138824,0.008806844,0.021688381,0.054533288,0.037396144,0.031904858,0.00788324,-0.001006972,0.018069409,-0.008933378,0.030958068,-0.001446242,0.024555005,-0.02006338,-0.028596632,-0.020349577,0.00719697,-0.030874379,0.010309054,0.049083967,0.055983402,0.007003077,0.017232096,0.032075647,0.039332259,-0.026695713,0.004038615,0.05904001,0.014624408,-0.00588745,0.039185181,-0.033045404,-0.038459498,0.011188881,-0.022674475,-0.031837322,0.003857327,0.006560999,0.015941232,-0.001522552,0.006674098,-0.037752993,-0.037115663,-0.06731692,-0.094048396,-0.020158039,0.001735631,-0.049108788,0.007094271,-0.02168089,-0.047215801,-0.050826181,0.023234433,0.012673468,0.042334698,0.054490793,0.092629023,0.089619912,0.069253512,0.073517866,-0.01443087,0.0041468,-0.012506352,-0.038513012,-0.014625518,-0.024395633,-0.009825306,0.023833267,0.014765975,0.017960252,-0.007962814,-0.042281397,-0.065252587,-0.058694538,-0.060735703,-0.055642266,-0.049505912,-0.069973975,-0.030317618,-0.101858959,-0.04784609,0.010835749,0.05030359,0.012804904,-0.043324381,0.019611821,-0.000328697,0.00190645,-0.031979002,0.011724099,0.042100053,0.023587352,-0.040145986,0.030731417,-0.004188652,0.012977699,0.000468892,-0.013813096,-0.026063258,-0.017267728,-0.056575302,-0.071141362,-0.007413669,-0.024854112,-0.00109137,0.022532394,-0.046840545,0.010599072,0.018145874,0.069346085,-0.010056708,-0.022981109,0.024368858,-0.020018773,-0.051926821,0.066924147,-0.011920454,-0.004838941,0.004431816,-0.009193657,-0.025573982,0.01979658,-0.00148968,0.00717013,-0.013815432,-0.061560601,-0.075513929,-0.021910787,0.009456663,-0.032276172,-0.001909117,0.073422141,0.050575532,0.00283576,-0.02140661,0.056295715,-0.003327214,-0.009892487,-0.056623928,-0.007623306,-0.039078396,-0.018917412,-0.003911957,0.006960295,-0.054056499,-0.063643962,-0.031243771,0.007245116,-0.013626056,0.002601641,0.0169193,-0.040242948,-0.04686664,-0.009546451,-0.033223603,-0.060957029,-0.064279541,0.008128431,0.035418522,0.023900658,0.080218114,0.072527863,0.042687923,0.010288737,0.022032555,-0.026036272,-0.031718835,-0.042047173,-0.021101758,-0.00606156,-0.001003766,0.012060683,-0.070879161,-0.051456939,-0.05489099,-0.025591621,-0.012016639,-0.033851076,-0.024244884,0.013403814,-0.026365969,-0.071184658,-0.040398836,-0.000425969,-0.009606045,0.006264059,0.098199032,0.11042282,0.060707718,0.091877207,0.081647739,0.005599197,0.02582033,0.018905181,-0.076801158,-0.006329538,0.00680836,-0.027562143,-0.085656963,-0.065643772,-0.060606387,-0.054871779,-0.021919167,-0.106579222,-0.04748527,0.004074391,0.003460297,-0.024951423,-0.029754456,-0.057917435,-0.042876415,0.007832241,0.017548827,0.046524398,0.026761971,0.043880455,0.045891739,0.032949384,0.041245159,0.002528769,-0.025442131,-0.017993286,0.015604053,-0.105969548,-0.010225356,0.014992708,-0.056088902,-0.027236359,-0.05607485,0.007467665,0.023335181,-0.05678593,-0.005571129,0.024378013,0.018581115,-0.013814058,-0.040376049,-0.039343115,-0.068829119,-0.021516168,-0.044532023,-0.036244106,0.005489464,0.013416169,0.045240581,0.079840437,0.091550916,0.063024476,-0.007323508,-0.009341496,0.009804492,0.073044807,-0.044326078,0.016405929,-0.009612862,0.068438344,0.026706435,0.07411436,0.133131564,-0.042229053,-0.024898816,-0.009653024,0.023057474,0.017180052,-0.024512134,-0.025328143,-0.083537139,-0.007703139,0.03607098,-0.014281089,0.043598779,0.100163125,0.061110947,0.034204479,0.061258104,0.079661816,0.070633076,0.131395981,0.094014153,0.042089012,-0.031962965,-0.005376564,-0.045569085,0.019158835,0.08099854,0.115243427,0.084656328,0.001030113,-0.020193392,0.015657179,0.026185295,0.011537408,-0.026766974,-0.010580757,-0.06734518,0.023513507,0.033685558,0.021793034,0.029452467,0.099951982,0.050280713,0.091026299,0.011294333,0.132054135,0.155625984,0.150919631,0.139075145,0.078537114,-0.006721011,-0.054998487,-0.030603992,-0.023269396,-0.018357128,0.027402416,0.05027983,-0.01003304,0.021037417,-0.026605826,0.030425416,-0.004428367,0.027666552,0.044347014,-0.043142959,-0.019359941,-0.044337556,0.025939858,0.093025774,0.064022005,0.057798613,0.104190327,0.071880005,0.133626699,0.234715417,0.094459474,0.173792571,0.001736942,-0.022431117,-0.035667162,-0.091517925,-0.030802304,-0.067222342,-0.0641675,0.040556587,0.066077702,-0.011749146,0.024708655,0.012617452,-0.029437905,-0.033947829,0.009667569,-0.034123793,0.01393901,0.02988958,0.019871669,0.099212572,0.102301314,0.118134685,0.156740487,0.077849053,0.102988549,0.154464364,0.163776755,0.152152464,0.074165255,-0.0244317,-0.044935253,-0.036269758,-0.020983415,-0.064471386,-0.021078188,0.038187936,0.061382432,0.031416047,0.012212601,0.024733327,0.010442539,0.025522022,-0.039799698,-0.035550188,-0.000495968,0.030567614,0.025623983,0.065927073,0.16653873,0.164273426,0.183189094,0.044926085,0.066107385,0.13883321,0.133577228,0.10502328,0.038846396,-0.023390649,-0.06273526,-0.027203595,-0.026108546,-0.027495971,-0.028509639,0.023263864,0.051782966,-0.026979499,-0.002276494,-0.024906231,0.023905784,0.013070211,0.000699436,0.01750261,-0.02786715,0.012797314,0.081238613,0.029995063,0.116346464,0.002222276,-0.008231529,0.144675493,0.139218152,0.121355504,0.073664531,0.088856123,0.045719735,0.036253639,0.016478086,-0.012955891,-0.029950785,-0.022637837,0.016614391,0.009964693,0.040902149,0.026447223,-0.022969542,-0.009030651,-0.006305344,0.00951976,-0.046518564,-0.008512456,-0.058192231,0.0009415,0.034117732,0.001808334,0.068218365,0.058597002,0.051158682,0.059559114,0.120713212,0.099245459,0.168987662,0.126352176,0.072622679,0.049562573,-0.026314907,-0.001335267,-0.02230935,0.040253595,0.058145877,0.016148727,0.03927125,-0.021111213,-0.032268118,-0.018449316,0.01780051,0.013734357,0.020302756,0.012405751,-0.046034124,-0.02273266,0.031655282,-0.01229196,0.069608092,0.112032376,0.089828067,0.125045359,0.091121554,0.125573635,0.151336223,0.093350217,0.063309774,0.115267262,0.025446974,0.038315464,0.019504042,0.047261417,0.008729276,-0.004739411,0.017055094,0.017273346,0.032730285,0.005644056,-0.002849014,0.00426387,0.037965804,0.055908903,0.032708842,-0.01701686,0.049764924,0.065254189,0.107095793,0.108346313,0.116183959,0.090204082,0.106120884,0.183855742,0.147878155,0.053419985,0.137880221,0.095421143,0.025738476,0.067491002,0.008494105,0.063568018,0.007670943,-0.024644298,0.020358939,-0.016146632,0.019388799,0.00349493,-0.029907426,-0.028639577,0.002622382,0.01979633,-0.001934672,-0.025573401,-0.024313612,-0.020928029,0.057301916,0.08197441,0.072925828,0.049788147,0.08356902,0.057379972,0.088331506,0.021121647,0.038921103,0.011866743,0.010857599,0.034809925,0.07006117,0.020757718,-0.035325319,-0.007446677,0.034588866,-0.010479839,0.023015473,-0.011860738,0.020522803,0.028094746,0.005448596,-0.018609449,-0.050163541,-0.061452027,-0.062812939,0.014127224,-0.022176076,-0.04112009,-0.034015309,0.066980891,0.018174894,0.045636602,0.013195226,0.052289724,-0.018511854,0.050902124,0.0779332,0.081751212,0.084808268,0.025403218,0.019833738,-0.01487771,-0.007466709,-0.02080291,-0.028468098,0.026153613,0.017813534,-0.025726531,-0.046587724,-0.047193661,-0.113278523,-0.131570786,-0.136634767,-0.061686467,-0.06984213,-0.077466726,-0.077351958,-0.011040491,-0.024568297,0.038173899,0.020779924,0.031396642,-0.044656876,0.078402281,0.07024841,0.039726831,-0.00454421,0.009198594,0.041443616,0.015226838,0.017419495,0.011066972,-0.023667077,-0.021051561,0.004711539,0.025565267,-0.032812797,-0.024324577,-0.066609718,-0.064092532,-0.078672364,-0.120058805,-0.158093974,-0.097917512,-0.104284354,-0.135068938,-0.095867343,-0.079019211,-0.06142715,-0.0303322,-0.042826053,-0.04613008,-0.077891342,-0.014092839,-0.052709684,0.009054294,0.01864166,0.029442251,0.014851052,-0.02943749,-0.020378795,0.031562168,-0.016145311,-0.032680355,-0.005777881,-0.001420861,0.001770133,0.015608519,-0.017864363,-0.026978726,-0.03649373,-0.041541215,-0.031804953,-0.054338142,-0.076675355,-0.087191969,-0.100391135,-0.052001197,-0.085687853,-0.055329941,-0.024263289,-0.006178861,-0.006388326,0.01532266,-0.014091704,0.003847926,-0.033555519,-0.022072606,-0.02077039,0.011024948,-0.004314087,0.000400934,-0.002560038,0.01189349,-0.002847183,-0.006828479,-0.00941781,-0.00928472,0.01482451,-0.007140982,-0.004877418,-0.02550846,-0.01382412,0.010156614,-0.024924956,-0.017018737,-0.045754794,0.020497177,-0.033579502,0.024646489,-0.001656623,-0.009322764,0.020901812,-0.014310969,0.008093912,-0.01272689,-0.003539909
0.014925975,-0.031453278,0.000357576,-0.000506211,0.003157061,-0.025203923,-0.000424713,0.005958486,0.003584307,-0.008757405,-0.017123103,0.002281088,0.017200056,-0.005754489,-0.026032276,-0.001040841,-0.006882016,-0.020193949,0.022974778,0.007386789,0.010267481,0.007528607,0.013861276,0.030689266,0.014006294,0.002236672,0.027512062,-0.00730342,0.031822745,-0.022011677,0.033257823,-0.03216042,-0.003530377,0.028567048,-0.024529593,0.023024231,0.008432265,0.006169606,-0.001542191,0.014745071,-0.007649587,-0.019309819,0.029776616,0.005192616,-0.005506054,0.00313396,-0.013723376,-0.00575341,0.004289178,0.016164333,0.016633136,0.004309649,-0.013578683,0.010728467,-0.01647919,0.035207015,0.000114676,0.004586283,-0.004724854,-0.029799009,-0.022596709,0.032421011,-0.01200004,0.022603326,-0.006562577,-0.044639345,-0.022621257,0.004923374,-0.04566624,-0.054038648,-0.008938415,-0.032424826,-0.073309302,-0.024648339,-0.015583934,0.002763108,0.031924125,0.017654385,-0.03483009,-0.036666535,0.003290293,0.013672363,0.024490569,-0.019012719,-0.01906665,0.001718394,-0.004567384,-0.026366388,0.034785666,0.006607505,-0.026095979,-0.011403712,-0.009769932,-0.033494234,-0.091529936,-0.051250018,-0.055606414,-0.110141315,-0.044122715,-0.035703406,-0.023969831,0.005325204,0.027355311,0.024682011,0.059174929,0.058780637,0.016079189,0.046972342,0.004350733,0.013657426,-0.013799854,0.014725402,0.018775046,0.01579388,-0.020476149,-0.026279058,-0.022338174,-0.027651126,0.000309028,-0.038106412,-0.078742601,-0.111458652,-0.091117665,-0.04445881,-0.038075991,-0.072877429,-0.035288047,-0.040638261,0.008609734,-0.044062458,0.001919096,0.027868284,0.026111418,0.11849957,0.066526078,0.068490811,0.032777071,0.018397167,-0.00683708,-0.025645785,0.025582109,-0.000330247,0.011031134,-0.013057132,-0.002958137,-0.016028024,-0.032513119,0.003611149,-0.071351409,-0.000973947,-0.061164912,-0.016745443,0.009902423,-0.027278906,-0.033427183,0.053627763,-0.002247378,0.05006526,-0.008430792,0.050441578,0.038314618,0.008671566,-0.007062229,0.092795499,0.048538584,0.048337366,0.005773395,-0.02950138,-0.026586615,0.017789464,-0.014044156,0.025091833,0.014016868,0.001780463,-0.002984783,-0.009315445,-0.044235189,0.000412477,-0.054426309,-0.022744481,-0.020610111,-0.00119534,0.014076818,0.033698037,0.045376547,0.123658739,0.043007478,0.076296523,0.064528994,-0.044822473,0.022135679,0.098652333,0.102005541,0.071920305,0.02475654,0.036355462,-0.011381713,-0.000712443,-0.011445681,-0.014836196,-0.024130832,-0.063807517,-0.038131818,-0.012993204,-0.034503009,-0.00099949,-0.031551961,-0.004582532,-0.025325928,-0.045346808,-0.026411446,0.09204606,0.031353019,0.109863251,0.020372609,0.03746165,0.078281105,0.027284304,0.006663608,0.101189233,0.121553451,0.07586024,0.013744044,-0.008801217,0.024033096,0.032665607,0.008387407,0.006541324,-0.040940478,-0.050125696,-0.008389493,-0.030098051,-0.014050664,0.009243055,-0.032760151,-0.049678296,0.000248561,-0.029945748,-0.057199392,0.000439686,-0.017701564,-0.020700552,0.081501447,0.026574511,0.067461625,0.090094507,-0.007207603,0.060983155,0.16047211,0.106606409,0.010433557,0.003368863,0.029247204,0.02944473,0.018347226,-0.019087994,-0.051408432,-0.064214021,0.009433488,-0.000689942,0.070309706,0.025896162,-0.0664417,-0.011261307,-0.099709935,-0.057237186,-0.020525485,-0.068876892,-0.025729612,0.035183035,0.027358996,0.041753627,0.041370094,0.078529172,0.029306974,0.047886733,0.084916547,0.048014753,-0.012190598,-0.026064331,0.006817436,-0.001930222,0.007417595,0.013064149,0.017861994,-0.062107671,-0.077273928,0.013868233,0.016532261,0.007017563,-0.049644392,-0.116650656,-0.097885109,-0.080884904,-0.063373528,-0.07209146,-0.029379878,-0.065973766,-0.01705694,0.02148978,0.061245013,0.015059368,-0.004597202,0.007908503,0.072764866,0.050203674,0.011873926,0.01798648,0.008142698,0.026990898,-0.038092822,-0.020369008,-0.025049997,0.01238313,-0.034541253,0.042712398,0.072726026,0.052607968,0.022426095,-0.033312883,0.069273017,0.061420936,0.097853489,0.094837353,0.028756883,0.078183115,0.05994131,0.045094129,0.003326705,-0.047953859,-0.035430964,0.008401886,-0.023459291,0.032343198,-0.007941626,-0.021697761,0.020222798,-0.017943725,-0.012166,0.033401426,0.043784712,0.028578293,-0.013487294,0.071252167,0.005128781,0.050924234,0.057866085,0.164507881,0.157140896,0.201610014,0.100316748,0.143750563,0.122639403,0.049024731,0.06495811,0.071707539,0.089665875,-0.025966082,-0.041946195,-0.028354542,-0.028168138,-0.036271241,-0.034265868,-0.015798006,-0.007045617,-0.007941604,-0.007312847,-0.003547179,0.041759942,0.070252426,0.02698,0.08152806,0.043644339,0.05167073,0.149804443,0.159207255,0.130323887,0.082025573,0.113328554,0.168921366,0.102990054,0.07154274,0.070099533,0.100296877,0.134942591,-0.027950397,-0.023617245,-0.05875469,-0.119499519,-0.079964459,-0.036838476,0.027720911,-0.031168925,0.027827829,-0.000304288,0.045448456,0.097165868,0.056616146,0.028891942,0.008563221,0.077150911,0.135210067,0.086233735,0.081646115,0.130497515,0.087621748,0.061169595,0.100782014,0.100701123,0.075341247,0.067973182,0.109260984,0.06120576,-2.36E-05,-0.053489204,-0.098946936,-0.097827397,-0.0318968,-0.021630704,-0.007135652,-0.035260469,0.017357264,0.010414606,0.047965311,0.047505263,-0.022185296,0.05218523,-0.02735908,0.074581333,0.054016758,0.093959622,0.144584894,0.097133391,0.058512796,0.052472733,0.040609341,0.104469486,0.100280248,0.081898056,0.101761356,0.023047447,-0.027310004,-0.000494733,-0.040525436,-0.111577824,-0.052882247,-0.002979952,-0.002303712,-0.004734577,-0.014437133,0.01291997,-0.011659577,0.022695053,-0.02143999,-0.028739512,-0.034324937,0.055746529,0.019509975,0.032382607,0.026868291,0.067397773,0.03908116,0.020973209,0.026260493,0.042832874,0.029888047,0.10616757,0.01484467,0.021689666,-0.10918165,-0.069796249,-0.077974766,-0.135086924,-0.125388846,-0.060374536,0.017475715,-0.01352332,0.028019359,-0.005746486,-0.008966118,-0.040881339,-0.013227709,-0.053541213,0.003012095,-0.050606448,-0.011753161,-0.072601922,-0.051141176,-0.034312837,0.028880445,0.02698769,-0.011802788,0.020273296,0.08842013,0.120477803,0.044825945,0.016218752,-0.012891071,-0.055967677,-0.040130507,-0.121001437,-0.100228131,-0.062114209,-0.000237793,0.027424423,-0.030063434,0.019883083,-0.043164521,-0.04955605,-0.059321992,-0.008028742,-0.054937553,-0.121519543,-0.163667157,-0.168062359,-0.026617974,-0.0036779,0.022925124,-0.019486923,-0.01767149,0.044684023,0.009719028,0.036395494,-0.013304489,0.032631893,-0.067099012,-0.103610158,-0.167165369,-0.106166214,-0.068798281,-0.036023717,0.012238654,0.012074373,0.034212053,0.026278224,0.008535174,-0.049896121,0.008638273,0.028232152,-0.070966899,-0.103718825,-0.091155253,-0.093513988,-0.055866383,-0.039101619,-0.04723607,-0.005792898,-0.017742069,0.043868262,0.007945622,0.008072698,0.017831473,-0.024117192,-0.061115991,-0.136573747,-0.168748811,-0.121941395,-0.063207731,-0.006909936,-0.013213309,0.001660593,-0.016901443,0.000188188,-0.058030844,-0.058632363,-0.049165584,-0.024808325,-0.052978553,-0.04727342,-0.066790268,-0.117802925,-0.055385731,-0.060868036,-0.029560668,0.051045932,0.009717115,0.034056775,0.027527295,0.003839556,-0.057489369,-0.110319853,-0.04909873,-0.075475067,-0.143401757,-0.059054676,-0.028564056,-0.015481284,0.01309583,0.018693123,-0.011861747,-0.013969509,-0.035984866,-0.047170814,-0.028217442,-0.012890653,-0.019834079,0.047254775,-0.001293133,-0.057575446,-0.028216563,0.034681018,-0.038467787,-0.055888493,-0.008348516,-0.026201213,-0.02000683,-0.031866688,-0.08821582,-0.008965336,-0.041585844,-0.060329959,-0.061134133,-0.080109552,-0.020213112,-0.008271335,-0.013254455,-0.00575432,0.016772185,0.010179012,-0.033618115,-0.038258795,-0.071807429,-0.030081797,0.009757541,-0.030724226,-0.033676084,0.028230418,0.081308417,0.068002813,0.022962805,-0.002427942,0.03510676,-0.026525753,-0.012596098,-0.016301831,-0.014350878,-0.049956117,0.018341586,0.010571887,-0.008185755,-0.040085942,0.020409185,-0.023416514,-0.014743983,0.00025272,-0.024423063,0.022557374,0.030518986,-0.007474162,-0.013370424,-0.029696867,0.000271422,0.067488991,0.004457258,0.053672384,0.012972708,-0.025758795,0.026587281,0.009656345,0.06934049,0.044601351,0.030096991,-0.00192441,-0.027749537,-0.021887377,-0.007487082,-0.052636422,-0.026199652,-0.013489778,-0.038987532,-0.027186686,0.019196391,0.013542138,-0.029161174,-0.010874459,0.029910631,-0.016488727,0.059632067,0.057704989,0.09414354,0.073285066,0.077828467,0.133836403,0.084706046,0.05063957,0.069597147,0.01601908,0.004117833,0.069862597,0.016052136,-0.032890711,0.00870108,-0.001679338,0.020768108,0.012504281,0.037027739,-0.02347994,-0.028707273,0.009058407,0.00942573,-0.017696738,0.030613426,-0.020954307,0.028880388,0.014034705,-0.002953293,0.006284308,0.035213225,0.064803436,0.049730636,0.084634967,0.103588022,0.018236358,0.025541395,0.037585508,0.010191174,0.025512286,0.027773269,0.044192221,0.056446746,0.049267508,0.04809935,0.015585339,0.015341228,-0.006725702,-0.021234283,-0.014033356,0.024365932,0.004573215,0.004783295,-0.030688096,-0.032335397,0.027759274,-0.009325051,0.000283471,0.010641982,0.03065447,0.002657165,0.048522323,-0.003039378,0.037009642,0.002921552,0.035188094,-0.001887335,0.014906124,0.029842347,-0.010362548,0.004570136,-0.023354886,0.018549904,0.008768179,0.008952729,-0.000420099,0.016993837,-0.008139819,0.029584896,-0.024201594,-0.034792718,0.018130776,-0.021896094,0.00723612,-0.009286604,-0.034030758,-0.023860527,-0.022198549,0.033010069,-0.02875117,-0.005818008,-0.009935307,0.007757922,0.031270932,0.03073008,0.00316792,0.032154329,-0.007141488,0.006935512,-0.002275511,0.019907473,0.007640825,-0.007710219,-0.021936486,0.032145951,0.021747719,0.008116033
-0.021281973,0.019433927,0.003089931,-0.003572099,0.015873447,-0.030151304,0.024312343,0.022594642,-0.008265538,-0.015225995,-0.011706829,-0.023029963,0.018088831,-0.005216208,-0.020962281,-0.012838446,-0.024763484,0.022273928,-0.004990127,-0.029850693,0.00505485,-0.030256685,1.84E-05,0.001614846,0.017762367,-0.015129913,-0.000413664,0.014591899,-0.024578799,-0.002977867,0.020701256,0.017773286,-0.016688621,-0.034223307,0.005278879,-0.01902478,0.036980025,-0.005031092,0.007835358,0.02760266,0.026176162,0.021491988,-0.019961335,0.010141109,0.022635942,-0.020587714,0.03382989,0.00634682,-0.018379528,-0.010911911,-0.024538375,-0.006982136,-0.02514457,0.021138385,-0.02800994,0.032306243,0.018080916,0.01118641,-0.020922255,0.021051276,0.021898065,-0.021873262,-0.012310944,0.033160817,-0.007828571,0.040216483,0.041685343,0.068599038,0.014942276,0.03339215,0.027763641,0.051920138,0.015090314,-0.003524507,0.004695482,0.01228211,-0.01031819,-0.013008589,0.036344849,-0.027419666,0.008071989,0.031112369,-0.012484258,-0.0245967,0.021055903,-0.015445812,0.023186704,-0.031500801,-0.014239598,-0.009721827,0.044247091,0.023442093,0.07311099,0.062193543,0.07257621,0.057424642,0.064838588,0.085603096,0.064629555,0.08249227,0.043090113,-0.002903446,0.045311529,0.045054775,0.012170785,-0.01791757,-0.022502417,0.034331888,0.029361214,-0.005187226,0.009843266,0.035158571,-0.027590744,0.014929797,0.031757209,0.009950554,0.00590268,0.012140164,0.007523165,0.009616932,0.070254721,0.054311343,0.019519117,0.055256844,0.046187572,0.026071267,-0.000352836,-0.038596358,-0.021604247,-0.040892076,0.007170198,-0.013659231,-0.022391353,-0.054921221,-0.063309811,-0.015695101,-0.012114554,0.018831894,-0.02349373,0.026944472,-0.021412186,-0.009244001,0.008473603,0.030114766,0.011462661,-0.001161133,0.041346505,0.031018173,-0.015422637,-0.027472692,0.036330905,-0.026311953,-0.01808396,-0.026885107,-0.00208211,0.043428846,-0.004366661,0.003286815,0.008791874,0.058595899,-0.00024301,-0.034865476,-0.055069715,-0.016038956,0.004087119,0.018570371,-0.024606861,0.025197295,-2.52E-05,-0.005249617,0.018231573,0.038188983,0.032113846,-0.013044771,-0.021113276,0.015674643,-0.018370433,0.015736258,0.023374828,0.026488744,0.029809438,0.008308666,0.020520853,0.058063067,0.02491454,-0.001840548,0.022022281,-0.079142123,-0.017299103,-0.077681005,-0.090039521,-0.034701049,-0.024085544,-0.029103702,0.027821483,0.007251936,0.030802416,0.008360653,0.01708081,-0.027496105,0.002785194,-0.021016829,-0.034602333,-0.02952987,0.022952341,-0.021983406,0.027190754,0.0748173,0.001094023,0.004232398,0.038040347,0.053200729,-0.007656722,-0.06721276,-0.088994622,-0.05117023,-0.00738226,-0.000596521,-0.02169067,-0.085116953,-0.076362424,-0.017066728,-0.029824659,-0.019177487,-0.017070623,-0.023579435,-0.040779561,-0.006829407,0.045758616,-0.027479824,-0.017477723,0.028711818,0.009389997,-0.001161326,0.09908317,0.000456773,-0.009491317,0.016721098,0.021075848,0.003302002,-0.017387507,0.002219068,-0.056087375,-0.059729293,-1.10E-05,0.00607341,-0.046637461,-0.083229184,-0.080381133,-0.080468416,-0.001762656,-0.018249935,-0.031516038,0.00790245,-0.035856213,-0.002301015,0.004167795,-0.044916179,0.01355239,0.046984248,0.032938797,0.070972979,0.044454817,0.021624871,-0.040318996,-0.015468051,-0.0083294,0.021994617,-0.023904631,-0.054858662,-0.081333369,-0.055364564,-0.021843011,-0.040815901,-0.030882249,-0.097168691,-0.114747852,-0.0831227,-0.000263899,-0.006493172,-0.024111122,0.03171882,-0.006947802,-0.020574465,0.021809191,-0.016339974,0.058651865,0.052242398,0.057844657,0.04819978,0.001900651,0.02725997,-0.075645387,-0.046422444,-0.016275736,-0.020935422,0.007233473,-0.043364178,-0.046734553,-0.008292783,0.036593422,-0.000496891,-0.046208389,-0.007135308,-0.098999381,-0.020207638,-0.037343293,-0.026620837,-0.002910018,0.026651742,0.029547695,-0.023461567,0.015384815,0.040371362,0.012132172,0.030523246,0.057308491,0.08742138,0.008323828,-0.032838471,-0.020416124,-0.002255622,-0.006036358,-0.030616803,-0.020976469,-0.001140569,-0.013109792,0.078771532,0.073467091,0.048113339,0.031846963,-0.011177808,-0.026426304,-0.002972568,-0.003748104,0.031404439,-0.011273938,-0.000547522,0.022348916,0.021669017,0.001132297,0.026665263,0.038955055,-0.002663704,0.056608669,0.037864227,-0.010157618,-0.042132393,-0.019125355,-0.018304793,0.057356644,-0.001592124,0.045773748,-0.003128243,0.015492218,0.063532263,0.020458935,0.097702868,0.069418982,0.0784114,0.067872539,-0.009910229,-0.027186299,-0.0211097,-0.003351197,-0.021485208,-0.015400937,0.015003668,0.006251894,0.02637882,0.054941401,0.027248634,-0.00409429,-0.005498774,0.030525083,-0.010153537,-0.07016813,0.041139722,0.055328049,0.070303924,0.057269003,0.007535149,-0.01427674,0.097290009,0.028372183,0.08652088,0.085206032,0.107592091,0.021179872,0.003094212,-0.033931967,0.036561325,0.013300741,0.023025438,-0.029111588,0.014912838,-0.017473971,0.004201539,-0.001993959,0.024305828,0.029950289,0.020852646,0.024829762,0.015460961,0.023046765,0.05998075,0.058949351,0.074211925,0.039804757,-0.018022373,0.033654992,0.081302993,0.068469189,0.101987354,0.089448608,0.034010194,0.050067622,-0.015961898,-0.026144411,0.005328202,0.030023128,0.00501579,-0.005843468,0.034781914,-0.023655277,0.054424912,0.048604771,-0.007989787,0.003282362,-0.009145005,0.002109623,0.02712016,0.073351733,0.131815434,0.111128993,0.059920076,0.00239709,0.00235643,0.030112348,0.110194795,0.07567966,0.061375793,0.066708773,-0.007128801,0.060099054,0.046213515,9.20E-05,-0.025206106,-0.029157868,0.021996969,-0.021110952,-0.004049408,-0.022629954,0.007949129,-0.028710259,-0.045838516,-0.081692792,-0.017946096,-0.025858952,0.069180213,0.047486532,0.138663128,0.093563795,-0.049930077,0.03221437,0.03627735,0.101121813,0.095059417,0.049332842,0.060160924,0.068182833,0.044044644,0.007585842,0.043678239,-0.01204413,0.032993633,0.006576929,0.004392362,0.02527868,-0.010346013,0.01854144,-0.041294951,-0.007305766,-0.048780855,-0.042885501,-0.051894147,0.038651712,0.107767649,0.058582917,0.058838703,0.063173003,-0.039055105,0.012637272,0.042473309,0.073924564,0.063998535,0.032796327,-0.003424793,0.052862834,0.000890569,0.017979627,0.036516216,0.034645166,0.016078742,0.027795779,0.027324077,-0.024365781,-0.022885369,-0.016542889,-0.067394152,-0.038275495,-0.026015015,-0.032874607,0.027834669,0.038209669,0.074842088,0.134866014,0.057080846,0.043451369,0.018384125,0.029890966,0.087950453,0.108553648,0.096632451,0.038991358,0.049682289,0.058835972,-0.000345891,0.003962993,0.033179704,-0.023267537,-0.027944384,-0.014980444,0.011868218,0.012612127,-0.037962899,-0.043522768,-0.068911768,-0.041569386,0.002936282,-0.022649221,0.046125874,0.078341089,0.111843362,0.114521824,0.098757572,0.035850104,0.045041453,0.046375357,0.04709556,0.082190163,0.020929936,0.049254823,0.021913806,0.046296652,0.021584893,0.043600488,0.01802757,-0.028401123,0.032282718,0.000773396,0.015007653,0.029818807,0.020646445,-0.005627131,-0.036800057,-0.007544406,0.055865511,0.018138383,0.068431042,0.093218423,0.057037879,0.088415824,0.002849513,0.028166883,0.038727358,0.005913883,0.01956542,0.053796355,0.091962904,0.062942766,0.066690221,0.004453317,0.057083812,0.015687818,0.04378102,-0.010848862,0.025981922,0.014182194,0.034398146,0.029951788,-0.020016544,-0.01866906,0.012879421,-0.006426868,0.031058755,0.061410703,0.091975786,0.091789216,0.070436485,0.054886203,0.066340469,0.00792672,0.004061016,0.056754582,0.03481023,0.043787133,0.029782981,0.044741154,-0.002961165,0.034670778,-0.00214428,-0.018874126,0.02263589,-0.027076628,-0.006908242,-0.031216512,-0.021211935,0.023584753,-0.017522909,-0.006556942,0.051924914,0.026369827,-0.040358312,0.017182222,0.02739661,0.000906894,-0.008495501,0.006659677,0.049149472,-0.00213479,0.036788374,-0.009902059,0.013664553,0.041673105,0.005383825,0.084683321,0.007548934,0.02792169,-0.005988148,0.012385342,0.024295336,0.028341323,0.00033055,-0.005242804,0.031633507,0.024852702,0.015484854,-0.026052805,-0.015711425,-0.009481471,0.006633298,0.008861026,-0.000535282,-0.053054515,-0.038914274,-0.030775927,-0.036308274,-0.009177356,-0.025234731,-0.059589919,-0.016439162,0.026154006,-0.003526112,0.041096147,0.007480678,0.033189323,-0.032582864,-0.023531552,-0.014314813,0.020903815,0.035693001,0.032608572,0.035687197,-0.015051651,-0.006475986,-0.013622576,0.005811642,0.013169684,-0.001042356,-0.018300168,-0.025296558,-0.030436831,-0.019185551,-0.001734854,-0.065123111,-0.032854494,0.003639076,-0.022914918,0.025167538,0.007039243,-0.02519021,0.000825936,-0.004368419,-0.019447869,-0.026491933,-0.006365119,0.001432275,0.008674597,0.010714408,0.022071484,0.031049084,0.031982496,0.005654464,0.014849698,-0.012812831,-0.010889394,0.036982816,0.008617729,-0.028288491,0.004039637,0.001338967,-0.016799258,-0.055499554,-0.056096893,-0.070882097,-0.071321353,-0.010458977,-0.04061415,-0.011360385,0.040535972,0.001756646,-0.028958721,-0.033837453,-0.016754553,-0.000962137,0.01057604,-0.00590877,-0.021688603,-0.010723578,0.035430063,-0.024228996,-0.025822856,0.041251265,0.017504953,0.01962422,0.038385797,0.027660852,0.03468021,-0.001714145,0.033126175,0.020872708,0.008286504,0.000747869,0.016389737,0.019337725,-0.007433125,-0.023358393,0.037288174,0.009555981,-0.03009879,0.015475223,-0.035283327,-0.0209998,0.032025602,0.035539869,-0.022237774,0.020897362,0.022913083,-0.025357792,-0.026526613,-0.004017232,-0.000749173,0.016053203,0.020696033,0.021942517,0.013120631,0.010982436,-0.023394447,-0.023825105,-0.005161977,0.020033594,0.004655318,0.024977148,-0.027699318,-0.010852192,-0.016670361,0.008960315,0.009840288,0.017899798,-0.006065944,-0.011611385,-0.01269321,-0.015770799
0.016675323,-0.008903341,0.003550682,-0.021765783,-0.021727145,0.009039626,-0.005396694,-0.02803597,-0.028606893,0.009560145,0.006974317,-0.021321395,-0.027041955,-0.027115224,3.46E-05,-0.006502733,0.009098023,0.006623257,-0.001228578,0.015508361,-0.028493712,0.025400274,-0.003126409,-0.020648366,0.024141964,-0.000383284,-0.03336909,4.95E-05,0.004725222,-0.02692451,-0.009591363,-0.022560811,0.015660692,0.019515006,0.033819925,-0.011723835,-0.007237158,0.01188471,-0.017203223,0.031007191,-0.004539427,0.032735649,-0.027680742,-0.036402747,0.02674133,-0.011959122,0.024032278,-0.005507167,0.011588008,0.00367968,0.026114397,-0.009025567,-0.016231388,-0.022313306,-0.026707426,-0.013913091,0.021924511,0.01905062,0.002355432,0.002783589,0.002072723,0.022372672,-0.025261873,0.001478589,-0.009495756,0.009165343,0.055742815,0.0450227,0.034858916,0.005139862,-0.003551872,0.007600587,-0.017600553,0.043425471,0.007887335,-0.002580225,0.038482033,0.02069037,-0.016496303,-0.016164588,-0.012370772,0.022805201,-0.016853593,0.019707829,0.018994048,0.010858826,0.008193533,-0.02610686,-0.014700767,0.021913592,-0.030024529,0.01886257,-0.003459851,0.012344739,0.060855296,0.07946793,0.005652816,0.001465127,-0.001619908,-0.025135662,-0.013902491,0.046073705,-0.006122899,-0.025112551,-0.043211944,-0.015992703,0.034495067,0.042218585,-0.021111514,0.003429885,0.023828814,-0.03004124,0.027865496,-0.010713593,0.009291884,-0.033973377,-0.003297856,-0.029383678,-0.030619424,-0.023105197,-0.003823363,0.016824694,0.033833098,0.081059806,0.042855047,0.05624545,0.086106472,0.021859176,0.009396842,0.068307735,0.003304896,-0.002259209,0.007386682,-0.004218928,-0.041273169,0.025544798,0.007590224,0.005513981,-0.02622751,0.020476572,-0.016579714,-0.027791858,-0.022005344,-0.038021777,-0.015872113,-0.033434406,-0.027997963,0.018067935,0.01468232,0.024994161,0.042081106,0.068155654,0.083529204,0.033024687,0.025995944,0.001596404,0.019076617,0.002091946,0.012255128,0.002257105,0.045665935,0.024227533,-0.038423672,-0.000269911,0.028043317,-0.007891103,0.020646665,-0.01667718,-0.010002231,-0.027507128,0.021335583,-0.010651971,0.020837141,-0.017933503,-0.033569712,0.035172127,0.055387281,0.039043099,-0.001551704,-0.028246779,0.062656574,0.023583692,0.021467078,-0.003094788,-0.031467173,0.017987313,-0.086013034,0.023832174,-0.036076088,-0.057542726,0.023440285,0.010068282,-0.017449597,0.013910544,0.015866725,0.025146404,-0.024251319,-0.013393383,-0.014274653,-0.019922711,-0.008924314,0.003596717,0.057741459,0.087968275,0.091535792,0.059392661,0.020350106,0.052634113,-0.012643525,-0.000890713,-0.085166581,-0.012532549,-0.001416091,-0.01146954,0.026155623,-0.022503685,-0.046578266,0.014533677,-0.012489919,0.024477387,0.037698824,0.032022193,-0.029397074,-0.034629721,0.030912321,-0.004547934,-0.013042966,0.018153492,0.039741479,0.016789077,0.095340192,0.087591603,0.052654818,0.065045327,0.082941413,0.044132151,0.009437204,0.009009196,-0.06721057,-0.044346564,-0.029368389,0.000649725,-0.048354071,-0.000659547,-0.027578009,0.000887389,0.002015408,0.015503949,0.008927026,-0.030494988,-0.017760511,-0.013318733,0.021268493,-0.031711455,0.0256193,-0.007901905,-0.006884851,0.07584919,0.054968622,0.016935201,0.001642997,0.056880169,0.028937405,0.003193795,-0.012753886,-0.08922451,-0.118151769,-0.103517808,0.02098136,-0.032072619,-0.012102512,0.002859841,-0.038744472,0.011380501,-0.00712967,0.017836932,-0.011606229,-0.044338677,0.020308558,0.023506779,0.025567757,0.006267544,-0.014261865,-0.04448035,0.024030911,0.100049742,0.07446643,0.083101891,0.025102016,0.057301275,0.019159064,0.024880983,-0.072228208,-0.156281248,-0.084327675,-0.017379561,-0.010893678,-0.028442973,-0.008200248,-0.017519355,-0.058657058,-0.00729472,-0.070456654,-0.039516591,0.018902276,-0.084269889,-0.025292836,0.016664496,0.02982484,-0.003179841,-0.04504915,-0.011318319,0.009331228,0.013016659,0.079915643,0.046063438,0.0131634,0.055605981,0.041097287,-0.01058985,-0.041770238,-0.162408322,-0.060631532,-0.043719988,-0.007710717,-0.127802238,-0.049005989,0.030498846,-0.068851717,-0.008904368,-0.081353128,-0.004967448,0.059737459,0.004593426,-0.009646218,-0.025418073,0.007560229,-0.028438039,-0.029255411,-0.01571032,-0.045146205,0.02525112,0.015151575,0.034296859,0.012285073,0.051272567,0.028901998,0.039308924,-0.137120292,-0.121173128,-0.151980579,-0.097049758,-0.037892804,-0.031582423,-0.061875999,0.071824454,0.051885195,0.008016073,-0.015540062,0.031904247,0.063534297,0.000789811,0.012751603,-0.035269395,-0.009295492,-0.023981679,-0.029457938,0.01298409,-0.04413433,0.029980594,0.008387783,-0.004843395,0.043084871,0.057027396,0.091547154,0.071810424,-0.054201636,-0.09244664,-0.055813938,0.003496116,-0.033304028,-0.034730859,0.072298795,0.071735859,-0.003812674,0.008652115,0.065291479,0.095819928,0.052231416,0.003771705,0.030614238,0.002242635,0.0160516,-0.008935252,0.020416386,-0.015345877,-0.012205336,-0.021131556,0.006575587,0.001404702,0.015587169,0.054210465,0.120199427,0.117047675,-0.032168377,-0.009920903,-0.014650358,-0.040295061,-0.067298725,-0.003651186,0.055565737,0.060244225,-0.019966593,-0.013453763,0.014915345,0.010337835,0.015845882,0.062468395,0.034297626,-0.011500697,-0.029994352,0.022192998,0.020009903,0.011929068,-0.009175975,0.001702888,-0.012340031,0.003945028,0.014592175,0.058096852,0.09399347,0.056605626,0.012279185,0.03351941,-0.006527598,-0.008560248,0.03069298,0.017588802,0.035341211,0.067976892,-0.025457356,-0.016633475,-0.03266196,-0.026414311,0.015080089,0.034439348,0.003910244,-0.008086781,-0.003221956,-0.014190192,0.02387582,0.025940323,-0.013341276,-0.028424162,0.051507086,0.078041106,0.026203332,0.081129849,0.102401614,0.112676851,0.089360893,0.003308424,-0.011194545,0.076350085,0.144109294,0.122099847,0.0004194,0.043483127,-0.011594249,0.034381501,-0.003543707,0.046628688,0.048267536,0.038394492,0.052210413,-0.017793171,-0.027747512,0.019533105,0.038726389,-0.017927548,-0.002211188,0.010680598,0.033415426,0.027717028,0.059465524,0.127819151,0.17183736,0.153652087,0.08205156,0.040350817,0.005773847,0.083672196,0.088564545,0.055253845,0.038864169,0.04146884,0.049767729,0.056818519,0.034651756,0.031392977,0.004364834,0.070398353,0.003352015,-0.01317247,0.000126622,-0.022737009,0.001948147,-0.000550657,-0.004015695,0.051868673,0.066872604,0.067837685,0.078075387,0.068002135,0.122698255,0.089398943,0.121652707,0.125729278,0.066829659,0.043100212,0.036411047,0.018341824,0.064586096,0.0097148,0.066910371,-0.019648071,0.005895004,0.095179781,0.078328736,0.035871834,0.01304833,-0.010090316,0.034752741,-0.016528795,-0.011738922,-0.026130904,0.039654106,-0.005268303,0.009617768,0.066481374,0.052243315,0.025719199,0.116502494,0.097414248,0.043965302,0.038788073,0.092650607,0.062321562,0.008966965,0.030720308,0.062768966,0.024102967,0.024431497,0.041497283,0.049786951,0.06944719,0.018918803,-0.019821387,0.011612804,0.034354061,-0.014803648,0.032938011,0.035563618,-0.005682992,0.005991339,0.026217034,-0.021791968,0.012814092,0.00255068,-0.037730869,0.031809326,0.039124124,0.089341208,-0.002918881,0.036512055,0.114085846,0.01895362,-0.033528771,0.035290658,-0.00066829,0.009588612,0.057423543,0.044617269,-0.001874388,-0.002180488,0.024274269,-0.012605678,-0.025091479,0.001889346,-0.011595554,0.033272091,0.008538379,0.013480159,-0.022497503,-0.072180033,-0.04489959,-0.088852644,-0.027075483,-0.086768545,-0.025622062,0.015552985,0.019885696,0.097289205,0.084256127,0.048391052,0.121874981,0.033967827,0.042737946,0.049439382,0.009498049,0.043520514,0.040432744,0.004183213,-0.012987648,0.003218845,-0.022490595,0.030013595,-0.022826103,0.002105091,0.03405349,-0.009708544,-0.060745656,-0.063906953,-0.082337163,-0.06141939,-0.084380321,-0.003232161,0.014663735,0.020087888,0.049570519,0.031540807,0.077763632,0.065494299,0.000717341,0.03476914,0.076696888,0.02436005,0.06429816,0.09149038,0.03347009,-0.002648284,0.019539639,0.00106319,0.030088291,0.001697268,0.009625908,0.015788816,-0.022573473,-0.040477633,-0.083560809,-0.09409827,-0.069400638,0.00693585,-0.061583959,-0.101295628,-0.077091068,-0.023354273,0.021359449,0.060569379,0.056023452,0.031785481,-0.018921461,0.114956565,0.072836138,0.087592468,0.06304609,0.090466507,-0.005162424,0.015770778,0.029142359,0.007709879,0.01735222,-0.014666328,0.004414313,-0.02281897,-0.001190162,-0.047515083,-0.085910618,-0.135890901,-0.114846319,-0.096620224,-0.063805424,-0.125824764,0.003944548,0.031342808,0.069157317,0.079680882,0.069382034,0.060590453,-0.008089707,0.057459719,0.075758457,0.028272733,0.027889563,0.015098258,-0.024417374,-7.80E-05,-0.011770144,-0.000557987,0.029932294,0.014275216,-0.003983978,-0.012673089,0.001506403,-0.007025559,-0.01829708,-0.013100081,-0.057006679,-0.120594241,-0.09125299,-0.063779548,-0.036179401,-0.061965596,-0.028236039,0.011403268,0.032336507,-0.012071809,-0.041018289,-0.033219896,-0.042697128,-0.054784555,-0.009656207,0.015695039,0.007025559,0.006171056,-0.020160489,-0.020470219,-0.018477969,-0.030429147,-0.027261207,-0.001515992,-0.032236755,-0.027762242,-0.002705432,-0.014790068,0.016040277,-0.042656284,-0.073692776,-0.049601551,-0.070114546,-0.027838618,-0.082688883,-0.094490975,-0.087678097,-0.067662798,-0.031768005,-0.034140542,-0.02521723,-0.061758872,-0.011102383,0.001827774,0.000582005,-0.007864173,-0.019500028,0.010728475,0.012973595,0.025121372,-0.013685869,-0.031856768,0.011380374,0.025913268,-0.022253364,-0.013217355,-0.003276574,0.026244294,0.02131635,-0.017227441,-0.022276446,-0.027570749,-0.025406003,-0.014330627,0.021428667,-0.030032828,-0.011973384,-0.009564922,0.008542546,0.031004941,-0.027385052,0.008610777,0.032218613,0.005574282,0.031144004,-0.003193028,0.015418075
0.008850411,-0.012228345,0.001944862,0.008632708,-0.007051511,-0.007784538,0.013918255,0.022608876,0.023490075,-0.002799947,-0.035545275,-0.022216462,0.030304434,-0.02012491,-0.023495978,-0.010005562,0.008171801,-0.023452688,-0.015336642,-0.011108475,-0.003893752,-0.033644572,-0.011144107,0.006726805,0.007098768,0.004824769,0.02389412,-0.009491168,-0.022970051,0.029977914,-0.002991766,-0.034273226,-0.022933625,-0.022543099,0.018059213,0.006145892,0.007670246,0.009187194,0.027984785,0.017443702,-0.028363556,0.023875706,-0.023043543,-0.013451647,-0.033323918,0.01084083,-0.022753123,-0.009984883,-0.012634716,-0.029916059,-0.019537048,-0.005596153,0.012552921,0.032461625,-0.005667571,0.000354268,-0.010405056,-0.007561488,0.009763023,0.031206727,-0.000545794,-0.020113278,0.023097077,0.022756426,-0.019851282,-0.018344905,-6.05E-06,0.024530971,0.015830142,0.016389482,0.02501931,-0.029975168,0.026466688,-0.019788695,0.002648817,-0.017650696,-0.017327692,0.0095251,0.008947076,0.002907809,0.011480318,-0.016782023,-0.026475161,0.027246188,0.027401697,-0.029419968,0.0122778,0.035155635,0.016238248,-0.045009829,-0.030281892,-0.019292761,-0.02143345,0.001522897,-0.034056693,-0.004562445,0.035292465,0.039444353,0.026683319,0.014296351,0.046975758,0.037200667,0.010228249,-0.007892195,-0.019175081,0.022118269,0.008759466,0.017266717,-0.035038587,0.034179188,0.009764212,-0.032148231,-0.010359816,0.01697392,0.008597066,0.011398194,-0.002788965,0.002170027,-0.010102596,0.019597359,0.018384026,-0.00198375,0.005447631,0.01793367,0.011505547,0.069551885,0.045527522,0.079388097,0.054846644,0.057469383,-0.010964229,0.020299893,0.019922694,-0.036159839,0.029617306,-0.026519692,-0.008354132,0.016977113,0.024824999,-0.033789586,-0.001136214,-0.025223281,-0.011463971,0.021699749,0.001061355,-0.062285986,-0.045825906,-0.000400563,-0.007795811,-0.001066798,-0.004481045,0.042813931,-0.013632105,0.068268701,0.031005403,-0.010482671,-0.032581802,0.045457803,0.083294079,0.061824929,-0.000882513,-0.014304775,0.012382519,-0.020994807,-0.031614412,-0.017781831,0.00138299,0.030997803,0.00200054,0.001194705,0.003547748,-0.034717966,-0.02940187,0.001952611,-0.029577712,-0.01898485,-0.015572017,-0.063326053,-0.040598314,0.025673022,0.006545022,0.038068645,-0.003018438,-0.069901168,-0.059729658,0.013606366,0.065828994,0.06263496,0.062833488,0.054613274,0.042860612,0.015733752,-0.037234161,-0.044627704,-0.004118184,0.033842962,0.003081122,0.033997439,-0.030231228,0.028819671,-0.028113084,-0.023370747,0.03882258,0.005954516,-0.039223254,-0.00745303,0.062560886,0.10307835,0.059027538,0.01065609,-0.043815576,-0.050157603,-0.015455326,0.011673291,0.10935282,0.105326757,0.064772002,-0.004721524,0.015786733,0.010663182,0.009685374,-0.0185728,-0.031465724,-0.019842898,0.007189279,-0.02089775,-0.0220418,-0.027564835,-0.001623236,0.024273315,0.018932957,0.002369663,-0.022534806,-0.007170734,0.069335237,0.109141305,0.084411785,0.000615626,-0.010582156,-0.018269526,0.021292083,-0.031688333,0.009230022,0.032104149,0.056936175,0.015005874,-0.018928306,0.032342289,-0.028658226,0.013893933,0.029302636,-0.012125384,0.004562602,0.009632504,-0.021942686,0.028621759,0.00906803,-0.025873937,-0.014865433,-0.03407713,0.024677657,0.065691285,0.092410162,0.141657293,0.068175979,-0.033464611,-0.083490208,-0.074221574,-0.042056452,0.019606506,0.084474027,0.089749202,0.060434416,0.051395554,0.007184983,0.056116465,0.020038866,0.013701008,-0.009250731,-0.002998397,-0.018624729,0.008550165,0.007601955,0.019098395,0.03098028,0.056616206,0.011354307,0.037020959,0.028713984,0.075646959,0.157517061,0.174927056,0.033122573,-0.06797412,-0.131102607,-0.109094426,-0.022134395,0.028105278,0.094420202,0.016719066,0.035931055,0.055391558,0.088175632,0.033975836,0.043972705,-0.014385272,0.001844699,0.031949732,0.01294823,-0.013199649,0.021144031,-0.010627653,-0.001820386,0.040755928,0.037499145,0.062946953,0.040308435,0.091472909,0.170601889,0.114552833,-0.040924631,-0.162358001,-0.155587196,-0.110081278,-0.035178661,0.030454077,0.063420855,0.015982425,-0.003475168,0.059621517,0.07038676,0.07541845,0.030906865,-0.019269455,-0.003725738,0.009542799,0.018035984,0.027848104,0.037385914,-0.006615405,0.022046065,0.030286824,0.121012971,0.052547783,0.060697582,0.12418133,0.106774166,0.033327252,-0.111114599,-0.131713167,-0.132882595,-0.072792515,0.009398635,0.03689608,0.032627288,-0.047507856,-0.005764054,-0.032487862,0.036148775,0.097571336,0.083501503,0.022107694,-0.031380229,0.028764727,0.025118854,0.015819144,0.023544073,-0.016932137,-0.004531187,0.04204857,0.076527677,0.06748677,0.099488147,0.105631851,0.041959096,-0.056650229,-0.142848909,-0.096266508,-0.050726943,-0.063213423,-0.055137921,0.016654005,-0.070572503,-0.12048956,-0.043927599,-0.013279148,0.036319021,0.066877015,0.019273812,0.000737055,0.010358094,0.009290942,0.008752834,0.009540241,0.019547021,-0.021698007,0.039231502,0.097042046,0.058493111,0.0944051,0.02233528,-0.018189617,-0.019661544,-0.098455273,-0.07456433,-0.060001362,0.0187333,-0.038127862,-0.042562693,-0.016894694,-0.08113911,-0.059874397,-0.009638797,-0.029065127,-0.002051035,0.048699047,0.022490671,-0.017474607,0.031905189,-0.009148199,0.018016821,0.011757066,-0.018113524,-0.003914041,-0.011261476,0.067910738,0.056040794,0.088415891,-0.00454353,-0.01976335,-0.052110828,-0.097589917,-0.077535458,-0.057054542,-0.038787287,-0.074740767,-0.134864807,-0.094669625,-0.0713365,-0.070017025,-0.001608973,0.031171326,-0.01205638,0.054168332,0.035036147,-0.004795981,-0.025114253,0.025850033,-0.013885067,-0.008397344,-0.014150466,-0.006997465,0.03407114,0.099637337,0.063971378,0.047150675,-0.004609069,-0.032847349,-0.058887016,-0.05631933,-0.070788316,-0.066522956,-0.104220815,-0.122686446,-0.081853025,-0.075549021,-0.055652943,-0.024277685,0.062868439,0.059367374,0.031781431,-0.020187009,-0.026630843,-0.01047139,-0.020505048,-0.027481433,-0.026700949,0.021695903,-0.017122975,0.018652266,0.029023908,0.100744821,0.025965748,-0.031840708,-0.061338335,-0.060448088,-0.032106955,-0.012240338,-0.066157475,-0.110628657,-0.134890676,-0.117611058,-0.06486591,-0.061341591,0.004764417,-0.017853608,0.064996198,0.040676691,0.026665734,-0.025684996,-0.01557382,0.025246631,0.01049359,0.032153569,-0.008248143,0.026705474,-0.01243336,0.012322783,0.025150241,-0.002465369,-0.039897673,-0.01666314,-0.069714844,-0.013119058,-0.002742661,0.015160911,-0.048554648,-0.11374975,-0.132920206,-0.100642502,-0.050215118,0.007769682,0.057479758,0.063484341,0.035103872,0.04600348,0.028217515,-0.021996245,-0.05300279,-0.041456047,-0.022399288,0.030281845,-0.028038872,-0.032157157,-0.031210957,0.000924028,0.006353922,0.022747811,-0.016601196,0.008051733,-0.07197392,-0.018614504,0.06564761,0.021902304,-0.021817498,-0.141063944,-0.104571149,-0.063072398,-0.046342447,0.030527845,0.047948193,0.06040854,0.069311418,0.034786414,0.008915095,-0.042210329,-0.028630849,0.014557255,0.024107335,0.020967251,-0.024499349,-0.007559845,0.006132762,0.003296594,0.009853818,-0.013433035,-0.040992919,-0.047917403,-0.022081068,-0.011638185,0.056515507,0.036760688,0.048673339,-0.006503103,-0.0929951,-0.040729884,0.012107664,0.036649995,-0.002527848,0.029267007,0.055780642,0.026608717,0.055191547,0.021585179,-0.03048435,0.008946957,-0.035671812,0.033552784,-0.018744856,-0.024799481,-0.031399798,0.017239287,0.011269928,-0.002866121,-0.005420274,0.010266489,-0.042740889,0.015680185,0.053999558,0.052215271,0.055101484,-0.01629224,-0.023712948,0.014654854,0.00206535,0.030236084,0.053716928,0.033326972,0.011806752,0.027548697,0.014054975,-0.023920298,-0.001413237,0.024053942,-0.029908875,0.027374927,-0.013613028,0.008805224,-0.032916851,-0.007266773,-0.016535316,0.020069966,0.0240341,0.043855999,0.028545262,0.020575941,-0.012254353,0.018114405,-0.019714976,0.022476828,0.029396521,0.048402335,0.064677157,0.072704464,0.075268537,0.031653874,-0.00874915,0.037118379,-0.011575083,0.028941492,-0.020007301,0.007831223,0.03576488,-0.025056202,0.022826109,-0.028514,0.002464373,0.004536875,-0.036806062,-0.026282249,0.04340547,0.039479233,0.058639549,0.027500382,0.029652487,0.014206681,0.032362819,-0.00438572,0.088926114,0.080074437,0.032662302,0.061888538,0.053046215,0.049385805,-0.039176498,-0.017677858,-0.003659911,-0.002761757,-0.02234189,0.011717633,-0.017247232,0.004589852,-0.030084314,0.006800272,-0.03197379,-0.00013206,0.027403746,0.001117959,-0.01380947,0.024747351,0.056290876,0.026273742,0.011226417,0.013236316,0.029652355,0.036454368,-0.008672863,0.021657227,-0.00053609,0.017470583,0.004880299,-0.022826446,-0.007397112,0.018143527,-0.036274958,-0.031763423,-0.009786817,0.004710605,0.006083706,-0.002554089,0.010024562,-0.018049581,0.004712725,-0.018713037,-0.00963356,-0.039158396,-0.032725044,0.028746862,0.002529902,-0.003895802,-0.056889519,-0.033909041,-0.040337164,-0.013304785,-0.005679743,0.016904939,-0.021139784,0.042006705,0.044915728,-0.013854795,0.015001989,0.030097878,-0.009963434,-0.03029003,0.005009459,0.035167947,0.007354244,-0.01746176,0.00073139,-0.013406899,-0.021325048,0.013115781,-0.034321882,-0.008522968,-0.009028718,-0.029367914,0.020898163,0.032993462,0.023930032,-0.01779105,-0.00751335,-0.032453611,-0.018149523,0.022841005,0.011829013,0.014721573,7.82E-05,0.038713627,-0.02273724,0.03332385,0.037778921,-0.0194405,0.034478538,0.023436444,0.024627205,0.010754958,-0.010266582,-0.026296735,-0.022170136,0.018082332,0.034109578,-0.020252327,0.0198736,-0.024565425,-0.026053937,0.019607812,-0.001529482,-0.023588428,0.017089285,-0.011506137,-0.008657701,-0.033041481,0.022534791,0.035617817,0.006706207,0.026080951,0.028075771,0.017784528,-0.003634461,0.01844389,0.028234895,0.012914415,-0.021444291,0.027190823
-0.025336884,0.024336841,0.032547947,0.034644362,-0.003499527,-0.026014078,0.028052915,-0.023453454,-0.009770142,-0.010684039,0.0210343,0.021435693,-0.01201364,0.007947381,0.030445719,-0.02062571,-0.00772059,0.017070673,-0.005735738,-0.014002902,0.022718426,-0.030028127,0.03028867,0.005635954,0.012552477,0.021216393,-0.020815238,-0.006640755,-0.001969449,-0.020553846,-0.000179671,0.030867901,-0.009406067,-0.023401743,0.017133797,0.010862917,-0.008998657,-0.001786292,-0.015101055,-0.004110993,-0.019679377,-0.035173506,0.019933082,-0.041567717,-0.024282131,0.011197072,-0.024180707,-0.017478185,0.016733304,-0.034419142,-0.018323833,-0.022127416,-0.007518666,0.029681411,-0.017050987,0.033879172,-0.019942075,0.03442518,0.024972698,0.02741964,0.026896965,-0.001605081,0.007770147,-0.007349391,-0.043729044,-0.011782314,-0.033905067,-0.03483944,-0.036750421,-0.046129003,-0.021154037,-0.047428884,-0.007775271,-0.024724286,-0.044912975,0.005395703,-0.000653074,-0.049571052,-0.033817567,-0.016572023,0.009221944,-0.010075849,-0.014638599,-0.010611998,-0.031413838,-0.033410735,0.030817814,0.004456239,-0.015058212,-0.014926342,-0.00213199,-0.031563047,-0.005446389,0.011612113,-0.018048005,-0.021590941,0.002107131,0.002731102,0.012788422,-0.01816247,0.021665333,-0.004654536,0.012578867,0.039245065,-0.00897577,0.046601165,-0.017019605,0.020892456,-0.007147264,0.004472921,0.023583565,0.035470869,-0.017428659,0.007596833,-0.033117354,-0.009706623,0.000427272,0.028248662,0.017483192,0.00772986,0.012701729,0.026932459,0.032598544,0.01196386,0.000556637,-0.024763472,0.032253768,0.010457144,0.023599681,0.025373515,0.027711589,0.027181419,0.050994013,0.035700466,0.000839739,0.014901426,0.059570711,0.000730694,-0.026083522,-0.016604155,-0.020571291,0.021361075,0.001814333,0.029079447,-0.009394835,0.021558998,-0.016782293,0.001213109,0.004061806,0.050559342,-0.007597798,0.088127889,0.075448908,0.013094623,-0.01156625,0.042541891,0.069819473,0.025137633,0.050235897,0.0064029,0.057793867,0.001807699,0.015359289,-0.009730023,0.035808858,0.037848551,0.006628381,0.007610318,0.018513285,-0.000884262,0.025242114,-0.009677327,0.045879524,0.009597353,0.01865015,0.044202525,0.029497782,0.073333435,0.046793323,0.074219383,0.063632295,0.060082112,0.065806001,0.036214989,0.083293051,0.070079759,0.048689511,0.049717586,0.027357409,0.033075869,-0.015075698,0.008221566,0.007371362,0.037327331,0.007548847,0.029496795,-0.014736095,-0.018347671,0.001763026,0.006516521,0.039792508,0.033982676,0.01924685,0.002714557,0.04725413,0.056448054,0.082749575,0.105324551,0.101107158,0.060600046,0.02817014,0.039489862,0.034389928,0.064933926,0.008066826,0.009792978,0.010746419,-0.004684792,0.025698183,0.027035696,0.013862826,0.047435924,-0.006454452,0.003347254,0.012298112,0.024381708,-0.019916423,0.033784889,0.005646074,0.023755452,0.055940297,0.014985239,-0.010235887,-0.003145237,0.065644361,0.098923691,0.041098949,0.023675408,0.015679564,0.01589358,-0.042757574,-0.050304599,0.015629506,-0.026656784,0.016299959,-0.017514661,0.048326198,0.020594947,0.003147127,-0.000922684,0.009507123,-0.03230625,0.020897232,-0.025081534,-0.029630356,-0.007202617,-0.01137445,0.057275936,-0.010917666,0.020125533,0.026226506,0.009330292,0.027483748,0.041288093,0.018532366,-0.06030073,-0.031779818,-0.075167023,-0.072998732,-0.09250249,-0.070420995,-0.023063976,0.011606507,-0.00510003,0.025124159,-0.009448504,-0.020989304,0.049877949,0.009217936,-8.62E-05,-0.005058608,0.018950665,-0.018624289,0.016278403,-0.006071902,0.03248455,0.011171559,0.014219498,-0.033502564,0.023079237,-0.01624351,-0.005709046,-0.056970149,-0.107112139,-0.033948939,-0.089505464,-0.094175972,-0.109770477,-0.082688808,-0.025861591,0.034838106,0.00897099,0.02842655,-0.041519403,0.023530403,0.028925154,0.036790188,-0.016760165,-0.004808887,-0.01670333,-0.025150321,-0.019741949,-0.001014973,0.026513454,-0.024488045,-0.049751852,0.006800119,-0.006177495,0.050570909,0.004227327,-0.022413736,-0.034769617,-0.023450965,0.038524996,-0.000206775,0.032494556,-0.058644149,-0.006618764,-0.014921762,-0.084927917,-0.03535755,-0.08398924,-0.063908495,-0.01976772,-0.008270024,-0.022614501,0.025276914,-0.033511639,0.02667895,-0.009379916,0.01865614,-0.028453389,-0.026616858,0.009621854,0.006016965,-0.024739375,0.034785561,-0.019588843,-0.08638677,-0.001236688,0.059383083,0.104616329,0.082062371,0.041792274,0.068792067,0.004062915,0.01647797,-0.038442265,-0.043132477,-0.117873393,-0.092925519,0.036179431,0.028850125,0.036237232,0.018518258,0.01693666,0.013462244,0.018094691,0.021510031,0.006059583,-0.000807338,0.00716984,-0.006622054,-0.04694023,0.023804022,0.009311403,0.031665783,0.011333619,0.033700455,0.088562071,0.117535144,0.045899834,0.07388255,0.064361773,0.066409178,0.009770657,-0.019169949,-0.070790902,-0.074462429,0.027154218,-0.000608372,0.029487487,-0.010878679,0.015106804,0.008609251,0.000912758,0.007189543,-0.021405822,-0.032408912,-0.016499776,-0.013131694,-0.008992282,-0.046211153,-0.010961127,0.010187722,-0.00753988,0.024045212,0.032496914,0.086232103,0.120517358,0.098530419,0.09341576,0.060441934,-0.006558236,0.029796662,-0.011286381,-0.012353628,-0.012051755,0.023117784,-0.007991017,0.013854031,-0.015965227,-0.029104996,0.025873931,0.045710698,0.019703628,0.081626661,-0.017345842,-0.01808087,-0.010505269,0.025829747,0.016071592,0.004105218,-0.009177763,-0.040537685,0.055270221,0.024966776,0.126198158,0.063798018,0.103034496,0.062629491,0.059666913,0.03765554,0.022172596,-0.031806156,-0.008432058,0.042511635,0.017397445,-0.026287867,0.013279757,-0.008432022,-0.00448694,0.060970016,0.018680464,0.079039335,0.013719684,0.017950872,-0.052064881,0.002439956,-0.026545141,0.043169986,0.008577049,-0.004803312,0.040396836,0.014663189,0.069134466,0.059109565,0.056099474,0.051049791,0.067386955,0.048939835,0.023477493,0.039270472,0.020054897,0.018896729,-0.025887104,-0.027931944,-0.01085917,-0.010000203,0.024184873,0.041472077,0.058986925,0.078161351,0.142662346,0.033259112,-0.016776429,-0.029614678,0.029225079,0.02469703,0.059285264,0.0213676,0.032594886,-0.003015873,0.081584536,0.052621242,0.070565611,0.098751716,0.055518325,0.021795282,-0.007427079,0.024607647,0.02091334,0.014073167,-0.015673989,-0.025545983,-0.026497271,0.024369987,0.02484405,0.061596896,0.079091817,0.121837519,0.129424855,0.059999403,0.068222694,0.038477611,0.066118024,0.051709205,0.069002494,0.056664381,0.004574582,-0.015817454,0.026989225,-0.001226232,0.040371273,0.103506915,0.049457233,0.048878461,0.012071533,-0.003303122,-0.021360967,0.035661645,-0.022417273,0.00235745,0.013537422,0.025828874,0.064603746,0.011173027,0.084006488,0.029772984,0.064480335,0.06285844,0.033383157,0.016106797,-0.029062275,0.013537444,-0.006161897,0.035987265,0.003386879,-0.001222052,0.013879937,-0.011802192,0.043877456,0.026662594,0.021191524,-0.03398196,-0.0101381,0.007281311,0.009436411,-0.017029302,-0.015300303,0.029261809,-0.022510616,0.013154115,0.024747813,0.030878771,0.019698901,-0.009223839,-0.035260063,-0.009607318,-0.000353106,-0.082293816,-0.092430286,-0.120854698,-0.06570369,-0.054675926,-0.037099373,-0.015944319,-0.025461448,-0.042887852,-0.018310921,-0.006063387,0.029591441,-0.038413323,0.013768982,-0.017863207,-0.008668228,0.000672746,-0.02031152,0.027534446,0.019550487,0.032686248,-0.001780862,0.008621724,-0.062127907,-0.062885366,-0.093142539,-0.025871042,0.000548324,-0.024957139,-0.046194017,-0.015204913,-0.050873972,-0.05291627,-0.019881392,-0.009559615,0.008358238,-0.007955688,0.055212826,0.029734707,0.045268081,0.002449009,-0.016052498,-0.004999257,0.0104638,0.031197073,0.001260923,0.019497609,-0.000289372,-0.018567024,-0.026272999,0.007091302,-0.035872404,-0.067945138,-0.029885983,-0.048041407,-0.086081855,-0.028444547,-0.011164244,0.018851699,-0.039721549,-0.035264716,0.008668082,-0.013590372,-0.05139637,-0.016718021,0.006772265,0.023808772,0.000538409,0.010193224,0.002193993,-0.011658355,-0.020290805,0.026972778,0.005860256,0.011240162,-0.011432061,-0.001472053,0.041750662,0.041999847,0.014942863,-0.015270657,-0.04363184,-0.035314996,-0.031365689,-0.039546903,-0.034935877,-0.080028683,-0.029889707,-0.017125323,-0.02713732,-0.045336045,-0.039499212,-0.007915554,0.004241913,0.011689238,0.002665188,0.052312106,-0.005685128,-0.016337764,0.010461892,-0.010247513,-0.011114981,0.03324775,-0.01310263,-0.017710475,0.018376194,0.005003367,0.031321917,0.07004106,0.032332275,0.031938411,-0.001877348,0.011658073,0.0417003,0.009227246,-0.003393754,0.015028383,-0.027316596,0.00985085,-0.018248137,-0.02137718,0.037481494,0.011852568,0.051570754,0.04909727,-0.023360172,0.002409633,-0.000660113,0.006119567,-0.032637049,0.0198378,0.006768342,0.027221458,0.016921733,0.000880807,0.040909342,0.025853489,0.064216755,0.066238068,0.066879988,0.078132294,0.089553997,0.039488189,0.037377544,0.061917644,0.039223485,0.018723266,0.013691168,0.023693135,0.021467842,0.047254439,0.00827634,0.033023845,-0.004802687,0.021477744,0.018947642,-0.0123981,0.020368379,0.016709436,-0.034474477,-0.007286455,-0.030622061,0.034624275,-0.022264227,-0.013870824,-0.001914168,-0.007084494,0.027038816,-0.017566234,0.039551023,0.043056492,0.039788943,0.012391734,0.011364453,-0.008038253,0.027962923,0.004202365,0.002181859,0.023777734,-0.031089967,-0.026857531,-0.011370134,-0.035143983,-0.028201655,0.014208108,-0.000320364,-0.021480639,0.024174068,0.019396681,0.017878763,-0.031269763,0.004416381,-0.018597556,-0.011325124,-0.013284615,0.028862834,0.009781469,0.027396532,-0.001249859,-0.028991977,0.006738657,-0.029487312,0.002665641,0.014479971,0.029239517,0.012167655,0.009402935,-0.021716779,-0.005110576,-0.016012644,0.00268399,-0.029105665,0.007950906,-0.020890266
