0.013147056,0.000736862,0.034502294,0.020235792,-0.034822036,-0.009661483,-0.022960946,-0.010842191,-0.031654261,-0.007623218,-0.001578785,0.01670453,0.043295767,-0.048170455,-0.086639829,-0.06529709,0.034684356,-0.028065015,0.035038989,0.013022814,0.024873581,0.001599301,0.026638798,-0.032841779,-0.034010373,0.002830684,-0.027276862,0.023351893,0.027817909,0.012824643,-0.024694737,0.017215699,0.081541523,0.197843984,0.101127423,0.088695943,0.293728858,0.480131507,0.467047155,0.140095979,0.25591749,0.474756956,0.120586731,-0.153244346,-0.089760743,0.192183182,0.323730826,0.363999933,0.42643854,0.172902986,0.063224681,-0.041740719,-0.016253676,0.016090248,-0.035165351,0.015173927,-0.00651589,-0.015143901,0.043495581,-0.062404014,0.132241666,0.169030502,0.285526216,0.388114691,0.241653234,-0.19450286,-0.285093218,-0.009405876,0.014571104,-0.31098932,0.105212651,0.04623957,0.03380445,0.278051436,-0.027101349,-0.190497115,-0.057065222,0.165972471,0.480404109,0.440407664,-0.184621677,-0.186523184,-0.001530696,0.013617225,-0.024613999,0.03253806,-0.389525384,-0.046605896,0.225445822,0.308199197,0.242779702,-0.205841795,-0.074925594,0.015106228,0.042008888,0.029337831,-0.121714354,0.077952966,0.171414569,0.122212566,0.132804707,0.211104527,0.047112633,-0.105397575,0.008861613,0.195556849,-0.119883962,0.043934725,0.058586098,-0.012618122,0.223373979,-0.027155932,-0.014065778,-0.031986229,-0.348074645,-0.241570503,0.339443833,0.198877096,-0.171556965,-0.164398775,-0.080605812,0.155486822,-0.040222846,0.089325838,0.236712575,0.00301814,-0.016067913,0.066358075,0.168340713,0.256545842,0.010459323,-0.201386884,-0.05008876,0.085929297,-0.197931811,0.227260455,0.258793682,-0.179158077,0.196849033,0.356263727,-0.017856726,-0.009367483,-0.168491513,-0.531095386,0.144134909,0.025002047,-0.029604014,0.105398372,0.444147795,0.475278288,0.268682748,0.182288349,0.13545616,-0.106035948,0.04024417,0.000105452,0.154908597,0.0915858,-0.105373532,-0.249550432,-0.123262681,0.140278041,0.148953646,0.214725405,0.221096978,0.060114682,0.433633536,0.395404965,0.001495473,-0.040377494,0.282089174,-0.070454776,0.39404279,0.583574176,0.075037256,0.15973267,0.419450492,0.246018529,0.038409159,0.028495649,0.062264595,-0.043511823,-0.04887934,-0.052061286,-0.112863213,-0.047880791,-0.156938687,-0.143905163,-0.157160148,0.07956671,0.209515244,0.098964237,0.486446649,0.355840564,0.487399489,0.320909858,-0.002287796,0.283917576,0.46754095,0.209511489,-0.091501266,0.286374301,0.054863721,0.254377604,0.295144379,0.213335067,0.19894588,0.172292516,0.019303508,-0.009308724,-0.242084131,-0.096744001,-0.183751494,-0.077852927,-0.028718501,-0.066292748,-0.048109859,-0.014368758,0.100114882,0.216000229,0.307474971,0.268291354,0.437948108,0.414524972,0.409862936,0.326473087,0.288892329,0.197369516,0.18288514,0.176075757,0.02639143,0.220530048,0.256451875,0.26094076,0.129260048,0.246578649,0.150248423,-0.087538034,-0.176782086,-0.117245756,-0.116876066,-0.116757154,0.105988428,-0.032293066,0.156052217,0.031450965,0.026553458,0.19333823,0.169065058,0.275024921,-0.011730673,0.073728606,0.153347641,0.322270602,0.371121973,0.13287954,0.164214149,0.200089887,-0.122929066,0.056569383,0.11034631,0.121416807,0.09788315,0.26418978,0.116055839,-0.212969467,-0.174055308,-0.158987433,-0.060311746,-0.02789234,-0.119391575,-0.055305481,0.189354718,0.185815692,0.01670821,0.21561487,0.323722899,0.358296096,-0.055585638,0.045076832,0.134039804,0.181168154,0.439009935,0.172553524,0.192918167,0.106933653,-0.056968246,-0.011741783,0.111640245,0.301221758,0.26795581,0.117861345,-0.074622154,-0.246519595,-0.23201932,-0.077316582,-0.0063224,-0.158400759,-0.107128963,-0.162430078,0.090709493,0.170181334,0.271999031,0.017282331,0.147862494,0.213662237,0.091370657,-0.21756351,0.123078592,0.691699922,0.388243556,0.133043736,-0.018626804,0.021629071,0.124275818,-0.028082367,0.116160758,0.296947062,0.276178002,0.043617439,-0.154875711,-0.29986462,-0.260748297,0.155448318,0.115752153,0.041508943,-0.02189401,-0.081714317,-0.10698121,-0.045533765,0.089844041,0.085723422,0.011968375,0.0189106,0.117589705,-0.255104065,0.189036727,0.387533277,0.392715931,0.156335607,-0.162264675,0.012583187,0.052376527,0.172426865,0.14063938,0.218456358,0.184234276,0.074177772,-0.253795117,-0.19181858,-0.139132246,0.149631158,0.199499503,0.091548987,0.031481724,-0.095144302,0.048433259,-0.033297762,0.0875891,0.044731524,0.083004236,0.041684639,-0.106068686,-0.166966811,-0.253262281,0.010126846,0.538254023,-0.09992145,-0.063736267,0.334148884,0.191194803,0.132947192,0.018369932,0.098438725,0.186410695,0.025391754,-0.143569261,-0.200521693,-0.037820384,0.092803501,0.001126662,-0.167363405,0.017812239,0.087784655,0.126447901,0.112017907,0.14910306,0.149981901,0.214677364,-0.218268827,-0.385272443,-0.298933178,0.170158535,0.076397657,0.52342087,-0.094316572,0.312050849,0.468796819,0.110373326,0.085498035,0.123684205,0.216954961,0.077324443,0.018074982,-0.046985727,-0.068491071,-0.075495698,-0.027082445,-0.078580849,-0.068785377,0.074697249,0.140781924,-0.016205687,0.012801432,0.097145222,0.372816831,0.271190464,-0.139184996,-0.630809367,-0.189672649,0.156541646,-0.013292653,-0.059514608,0.128853589,0.311065376,0.196125284,0.167939231,0.151112765,0.133744299,0.172376812,0.215884209,0.226226658,0.203547463,-0.027639851,0.0105229,0.097914331,-0.167820036,-0.091756433,0.025874032,0.042812567,-0.000520719,0.049065329,0.129429132,0.254181683,0.119861588,-0.030169256,-0.576827526,-0.240892872,0.11761421,0.01439224,-0.524793386,0.170002922,-0.021390047,-0.083819441,-0.037159629,0.099745072,0.315018207,0.192516521,0.139760911,0.260337085,0.227309778,0.093137711,0.032198071,0.200773075,0.00646223,-0.047823254,-0.06162364,0.086636961,0.075139277,0.154301628,0.145388529,0.18503654,-0.026855759,-0.187218964,-0.658430815,-0.139946893,0.027012292,-0.057331674,-0.21307154,-0.073430277,-0.037703283,-0.046261881,-0.154545531,-0.041484538,0.073540628,0.184906498,0.179259017,0.386156976,0.26410079,0.122311927,-0.058740433,-0.054127768,-0.116405286,-0.084444813,0.060513426,0.080939531,0.177791014,0.24215129,0.218673691,0.199271411,0.114671908,0.155070245,-0.166910797,-0.636019349,0.09142375,-0.271280825,0.023192044,-0.200301498,-0.132796153,-0.171986356,-0.343333453,-0.10268376,0.143045947,0.057196163,0.139046669,0.379016697,0.496039897,0.223121002,-0.067291826,-0.187589377,-0.167895511,-0.190594733,-0.093338683,-0.021602929,0.121805139,0.171140373,0.10381642,-0.128628969,-0.044740621,0.205878854,0.210783228,-0.423460543,-0.300404489,0.285599589,-0.053096559,-0.06755013,-0.233102411,-0.241319299,-0.485709578,-0.409412682,-0.167973995,-0.185810834,-0.026151383,0.258008301,0.367786676,0.134491429,-0.020547934,-0.20779258,-0.160209104,0.044738781,0.010918464,-0.064648211,0.094200954,0.111447476,-0.013575301,-0.400492072,0.019936608,-0.180411994,-0.039761592,-0.012885173,-0.019204106,0.157211185,-0.021053333,-0.446413338,-0.422147334,-0.434586614,-0.552453935,-0.376092523,-0.296664268,-0.180214301,-0.005426069,0.056678191,0.192874596,0.173241556,0.034239773,0.021332085,-0.03118436,0.089263648,-0.019980336,-0.108095497,0.051829148,-0.12343581,-0.032559671,-0.305335015,-0.219502673,-0.09459731,0.176275164,-0.233276039,-0.220436305,-0.159818634,-0.25288862,-0.19486545,-0.02684531,-0.413926244,-0.405775607,-0.265036166,-0.106031433,-0.144511834,-0.21071972,-0.12534301,-0.091172747,0.067655973,0.128028184,0.086674154,0.189567834,0.279371709,-0.02849477,-0.007146103,-0.159597471,-0.150372416,0.031022854,0.085185401,-0.082661837,-0.098562405,0.546658993,0.032900307,-0.216881379,-0.159588069,-0.216448322,0.026115518,0.091571368,-0.460971981,-0.466048539,-0.07800062,-0.044648394,-0.080446869,-0.238355473,-0.145687297,-0.039946359,0.007925387,0.191541091,0.315107435,0.330471575,0.135709301,-0.080728292,0.04719412,-0.245991737,-0.088924982,0.11811278,0.06199424,-0.292923391,-0.094908133,0.411947697,0.046763033,-0.009438604,0.034148943,-0.063200533,0.329345882,0.383284837,-0.134443298,-0.234156758,-0.290274799,-0.123512544,-0.092367195,-0.063443914,-0.110294618,-0.020137459,0.104781523,0.282955438,0.192857519,0.156149894,-0.043529447,0.071065374,0.003418742,-0.039157633,0.085413858,-0.103879318,0.017899109,-0.048991531,0.219871983,0.182327613,0.030891929,-0.0271562,-0.011877844,0.060860109,0.265378654,0.192600638,0.329474181,-0.035699137,-0.139089778,-0.119640321,-0.045790877,-0.031273056,-0.037782632,0.046007045,0.224515691,0.272418231,0.21388036,0.163554773,-0.082218088,0.030722423,0.204917446,0.063832797,-0.041881036,0.055410106,0.0192881,-0.04243654,-0.405819893,-0.348464012,0.004096866,0.027736161,-0.021959612,-0.183278903,0.242279202,0.175993994,-0.003817364,-0.029421197,-0.140226752,-0.242737636,-0.134862497,0.08167287,0.117056742,-0.089190744,-0.042024113,-0.118216008,0.130544186,0.199081749,0.222868338,0.089062296,0.025605749,-0.101690449,-0.082325183,0.313681185,0.334313393,0.429499567,-0.152258247,-0.097875878,0.035175059,-0.017110907,0.034508083,-0.018555719,-0.080343559,-0.351880193,-0.152162805,-0.209348783,-0.208279029,-0.059429195,-0.117846727,-0.029600281,0.194769874,-0.036010563,-0.091871604,-0.379211068,-0.137342587,0.003323285,0.076189794,-0.090513125,0.212026313,-0.18498005,-0.076976478,-0.064696826,-0.339752406,-0.255977124,0.016472362,0.000705473,-0.020610001,-0.007434467,0.032630656,-0.024999598,-0.014220051,-0.078594349,0.071446858,-0.184257954,-0.165120944,-0.163076565,0.017169302,0.066168964,0.033636797,-0.227150053,0.155786559,-0.182954073,-0.284049928,0.02588539,0.331319988,0.132816821,0.105542392,0.090395853,0.191187724,0.246656299,0.320615381,0.025496479,0.024545155,-0.004932778,-0.009626133
-0.014099389,-0.004969858,-0.026101774,-0.007817384,-0.023008263,0.017640777,-0.027059495,-0.020326551,-0.014033288,0.009958591,0.035237711,0.023324717,-0.083839297,-0.090677135,-0.013685651,-0.004021529,0.020351127,0.002734248,0.009714387,-0.02055935,0.021152738,-0.002414413,-0.02350935,0.003026448,0.029942606,-0.026906926,0.02927107,0.013885222,0.011530355,0.028196108,-0.013193928,-0.034507122,-0.012401053,-0.051368747,-0.127354339,-0.105707169,-0.206290677,-0.192103431,-0.292891771,0.16704388,0.08077807,0.009416074,0.212706357,0.019727217,-0.186676845,-0.361955673,-0.220734984,-0.299116611,-0.406219363,-0.206317112,-0.13174355,0.001236522,-0.024280775,0.02903707,0.002954494,-0.027257422,-0.005356096,0.029227633,-0.041491918,-0.145040318,-0.05144931,-0.204074144,-0.200882807,-0.154200912,-0.425365955,-0.354063511,-0.119014546,-0.385909557,-0.384911269,-0.232939169,-0.390672028,-0.212994248,-0.077694088,-0.302470326,-0.287159711,-0.087174527,-0.065659627,-0.072189063,-0.038068842,0.028480586,0.087751471,0.197393492,0.010239027,0.026992921,0.022691712,0.02475968,0.196878314,-0.231751338,-0.159974784,0.073976837,-0.297925532,-0.123501807,0.192417711,-0.132220283,0.116724625,-0.010538892,0.15606989,-0.050113536,-0.109747864,-0.080900006,-0.078996181,-0.295410901,-0.567431211,-0.462061584,-0.107770234,-0.19626683,-0.237632141,-0.091227159,0.167936102,0.030185519,-0.017501211,-0.029663147,0.015684023,-0.001705722,0.186053038,0.306898713,0.225336507,-0.199565336,-0.211323589,-0.024964124,0.020511428,0.184658051,0.215575114,0.174995422,0.137129545,0.006272627,0.042478051,0.140806228,0.054475423,0.060644403,0.03059867,-0.118928179,-0.113791451,-0.049626891,-0.031015795,-0.11133635,-0.113684662,-0.042615041,0.176060945,-0.022506913,-0.008750502,0.001052897,-0.240115672,0.180819258,-0.032509428,-0.062973179,0.069118261,0.113604128,-0.050671253,0.145021215,-0.034403943,0.204109073,0.259453982,0.149225608,0.12863192,0.069098294,0.08251293,0.042910345,0.116651557,-0.062694132,0.002935114,-0.079929091,-0.134624511,-0.227904633,-0.219708696,-0.12797229,0.180039749,0.122490115,0.006076511,0.008778492,0.300574601,-0.036686767,0.05264695,0.1504049,0.208572552,0.020536583,0.108178437,0.188987359,0.227175981,0.144563645,0.115954868,0.104920305,0.091226839,0.092392981,0.08648479,0.152704373,0.127378747,-0.048520248,-0.03219679,-0.105551988,-0.118132308,-0.057946552,-0.032012064,0.168165475,0.23060061,0.120792381,-0.022423539,0.02307678,-0.024285309,-0.116577066,0.082455181,0.184627861,0.172784075,0.049615607,0.152970836,0.124459542,0.188299552,0.059619468,0.047537033,0.063543826,0.027256273,0.063938931,0.036514014,0.014013147,-0.056309447,-0.097531475,-0.103213176,-0.282445878,-0.2306436,-0.099215731,-0.059052568,0.193259135,0.182249963,0.158736542,-0.139910579,-0.158226803,0.059453905,0.094832912,0.044870831,0.07749214,0.135281712,0.048205089,0.032685645,0.037260629,0.08573249,0.08310575,0.132159665,0.073716663,0.057229131,0.056344345,0.279073387,0.077163711,0.183746129,-0.032585219,0.012121785,-0.110915422,0.010414517,-0.007447782,0.116156399,0.242625892,0.252626002,0.501390874,0.14613378,0.014460357,0.119906791,0.007178798,0.06422887,0.157110572,0.219162822,-0.016311651,0.070629478,0.117517874,0.075919628,0.095937617,0.026004529,0.132756501,0.20912233,0.280528784,0.304440111,0.199948609,-0.020237328,-0.059635591,0.035009682,0.027961779,0.000162136,-0.136129349,0.094531454,0.474334151,0.47665596,-0.109835014,0.117394134,-0.262930632,-0.075248301,0.129708767,0.173546061,-0.018375481,0.029006587,-0.011733207,0.07877183,0.076543055,0.106238618,0.042664316,0.007961216,0.059167083,0.197592571,0.15864329,0.113255404,0.00511154,-0.082903735,-0.008259316,0.138491228,0.020344116,0.049578164,-0.088979013,0.071872905,0.259733289,0.50763464,0.091748387,-0.062148944,-0.567285597,0.197629437,0.092505008,0.310312629,0.014580851,0.041971423,-0.001119551,-0.039210498,0.05870004,0.047416545,0.096024685,0.183333784,0.247749835,0.168764591,0.072854765,-0.066896744,-0.01566441,-0.060639083,0.055296756,0.112326093,-0.104959294,0.040990051,0.046191338,0.203674689,0.304774344,0.588037729,0.14386864,-0.121091418,-0.311211765,0.075954236,0.189464852,0.318626821,0.18758449,0.093291871,0.118626513,-0.008335835,-0.052708376,0.116763614,0.155164063,0.197189659,0.23963128,0.204712838,0.005620637,-0.064099424,-0.032287788,0.024509145,0.227891445,0.18534933,-0.013917915,-0.0834767,-0.039051834,-0.327193677,-0.211246789,0.305091888,-0.143056482,-0.025053076,-0.184592664,-0.248726621,0.098373428,0.271841317,0.174860671,0.032591522,0.189449787,0.065810859,-0.013422172,0.022311136,0.204411328,0.253046513,0.198833257,0.041392263,-0.101898164,-0.063692264,0.005497345,0.059848979,0.203890324,0.225143626,-0.039146952,-0.1797636,-0.329019845,-0.153373793,-0.201670393,-0.044344377,-0.077404037,0.153522879,0.067537263,-0.225382611,-0.136753798,-0.000935208,-0.14853017,0.020778261,0.008275052,0.028990071,-0.050120339,-0.056880865,0.063711174,0.114072256,0.001367311,-0.086993642,-0.001281057,-0.124127239,0.014279258,0.043286897,0.014198869,0.058970988,-0.021059494,-0.214569286,-0.175813183,0.034715347,-0.036927488,0.004776158,-0.059127156,0.09984114,0.114202403,0.102600031,-0.100069053,0.093775325,0.005144169,-0.101645723,-0.176913396,-0.141547635,-0.043283138,-0.081164025,-0.029270377,-0.022680828,-0.127341762,-0.064111128,0.003231098,-0.126824617,-0.094543479,0.067786187,0.09768451,0.100452028,0.050855819,0.091161475,0.082820386,0.169874102,-0.001086284,0.41451335,-0.169856101,-0.117495954,0.111198604,-0.016562484,0.196394309,0.230965555,-0.165255234,-0.17033641,-0.187966347,-0.103994526,-0.084898114,-0.056438532,-0.224378183,-0.0731043,-0.02209343,-0.073017836,-0.052442804,-0.154431194,-0.02711639,0.19060348,0.212540239,0.153864563,0.001585542,0.126731396,0.090238869,0.123565465,-0.419812322,-0.541047752,-0.17552273,-0.010794735,0.127305925,-0.198251605,0.35829705,0.148737371,-0.120059513,-0.098756813,-0.069355689,-0.086736046,-0.020296825,-0.120284565,-0.096062474,-0.048532926,-0.076296128,-0.146698087,-0.040541247,0.059221733,0.143068269,0.17803058,0.24712202,0.044882022,-0.02053806,-0.054038577,-0.002832837,-0.005754202,-0.697575808,-0.361799151,-0.374527395,0.336470783,0.072222859,-0.02977539,0.274434954,0.101850428,-0.006008603,0.05169066,-0.029347213,0.054160058,-0.000168062,0.068109505,0.05354071,-0.208179384,-0.243101537,-0.18685253,-0.055007387,0.071473718,0.09707959,0.111913756,0.212993905,-0.025399597,-0.07752002,0.040442143,-0.072007611,0.00346622,-0.663566887,-0.033823397,-0.17017363,-0.086488873,0.129442573,0.136589542,0.184539512,0.072080791,0.079251945,0.100738451,0.016921297,0.040133268,-0.057492085,-0.08175265,-0.199169114,-0.185444802,-0.247788593,-0.274195045,-0.138019294,0.043876115,0.091918342,0.183578193,0.185405925,0.007653017,0.025312597,0.015880568,0.101596311,0.179572254,-0.40407604,-0.401609719,-0.301221848,0.00741563,0.068511568,-0.234527007,-0.063864961,0.104101643,0.091331705,0.177128941,0.063608095,0.119079188,-0.082377508,-0.156183407,-0.210752144,-0.359859079,-0.212199852,-0.177174076,-0.11701975,0.091490336,0.227677122,0.185409218,0.223225892,0.122882314,0.003180853,0.079768315,0.195785582,0.089221351,0.094659999,-0.500659764,0.073088326,-0.046801914,-0.002980876,-0.186382636,-0.277788162,0.213378415,-0.047857959,0.235350117,0.230890483,-0.057772849,-0.206938386,-0.17411679,-0.175359324,-0.230153456,-0.217289433,-0.163824692,0.003105981,0.109235071,0.115186006,0.039765704,0.067738995,0.108055986,0.052709658,-0.003959206,0.033540521,-0.001840054,-0.093118027,-0.334708393,-0.01541086,-0.044650827,-0.012434814,-0.09125714,0.00404526,0.201737747,-0.042718302,0.049955267,0.028851364,-0.140876681,-0.310532629,-0.213746116,-0.077061266,-0.093989633,-0.158031255,0.091945097,0.044750128,0.055130221,0.137822345,0.162519976,-0.005416525,-0.015080265,-0.15738222,0.161364898,0.220535904,0.112050153,-0.082059532,0.194076568,0.031551369,-0.020999169,-0.019951766,0.043383043,0.255428791,0.10392645,0.27217564,0.037746247,0.066204436,0.009740934,-0.076628163,0.048552886,0.057413679,0.000214222,0.145604342,0.079967208,0.03119342,-0.033460319,0.084145389,0.045911886,-0.229276687,-0.064501002,-0.144286156,0.11806795,0.185333729,0.349270165,0.054212965,0.167448342,0.030573446,-0.008639149,-0.022147235,-0.101270542,0.366604984,0.420310646,0.306741595,0.311050892,0.47816956,0.359586596,0.01708544,0.190186292,0.075849205,0.149273276,0.28348431,0.129779086,0.087662444,0.116789341,0.085692726,0.079454944,0.1052965,0.059856214,-0.021554304,0.155095458,0.374911696,-0.072170787,-0.439132899,-0.224145696,-0.00670835,0.015037324,-0.031072456,0.150990158,-0.07740657,-0.207256675,0.027141279,0.243318632,0.435159951,0.363909125,0.307256192,0.468135387,0.273215741,0.422172487,0.480155379,0.280981839,0.377699643,0.403678894,0.311849445,0.377527326,0.61750406,0.301019818,0.400805295,0.451235086,0.4304097,0.642484069,-0.018682295,-0.096809074,-0.022189729,0.001641028,0.002113938,0.022452518,0.15441443,-0.213307038,-0.061805069,-0.086005211,-0.030787453,0.085917182,0.092372753,0.468025208,0.53339988,0.434617966,0.552693903,0.620432854,0.331029624,0.40289095,0.531433761,0.380439401,0.210772336,0.583296895,0.228575259,0.214325577,0.412091702,0.001130189,-0.096342944,-0.008008795,0.025788251,-0.009067489,-0.003568761,-0.012572961,0.030955549,-0.311697692,-0.311573893,0.069642529,0.125876173,0.143052161,-0.094161652,-0.032132715,-0.009307178,0.272398263,0.016977903,0.400784165,0.403482348,0.08809597,-0.155711949,0.03035205,-0.146130294,-0.256653279,-0.301079512,-0.00123944,0.125957027,-0.032003522,0.020116191,-0.001854133,-0.026348561
-0.008572724,-0.001659848,-0.02863555,-0.019165257,-0.017396919,0.032823276,0.001153775,0.035305563,0.019929498,0.001061622,0.023005724,-0.001397647,0.034068309,0.029068258,0.049280431,0.075460561,0.011571411,-0.001292434,-0.027468091,-0.007606328,-6.39E-05,0.017916813,0.034463149,-0.033089668,0.022237688,-0.006830722,-0.005987564,0.009823672,-0.026833901,0.009739239,-0.016725093,-0.023073394,-0.088629685,-0.050491024,0.0526575,0.029642234,-0.005640161,-0.050157696,-0.144742429,0.167269498,0.171764717,-0.015447387,-0.124302663,0.378324062,0.425374925,0.246463835,-0.261499643,-0.316387564,-0.087637648,-0.126645625,-0.010765257,0.043624438,-0.02312034,0.022389486,-0.010792678,0.008115537,0.025387991,0.010092068,0.032803491,0.244316638,0.198480681,-0.167720258,-0.112108409,-0.038884223,-0.276626259,-0.010343269,0.247141987,0.143250436,-0.021546792,0.028156891,-0.316060752,-0.068027064,0.255597681,0.16986376,-0.090617515,-0.157659143,-0.155795231,-0.209360078,-0.284854621,0.05496829,0.133067384,0.203953683,0.034870934,0.005686764,-0.000394769,-0.034700334,0.336620837,0.213398993,0.255832076,0.095141165,-0.015930561,0.153102607,0.291691869,-0.132659689,0.044706639,0.078478754,0.244172677,-0.031836901,0.023061883,0.018780991,0.141248375,0.198301032,0.147478268,0.000908409,0.160517633,-0.19515422,-0.292858481,-0.209884137,0.067427121,0.063340195,0.001428469,0.009371608,0.02332386,0.029648306,0.306607455,0.437007934,-0.227195203,0.06472262,-0.022087514,-0.263645858,-0.078529745,-0.184940904,-0.051009957,0.076369479,0.006963987,-0.071070619,-0.080611624,0.027177149,0.012347111,-0.102671541,0.014662351,0.041803267,-0.189215258,-0.298525214,-0.292194575,-0.351762623,-0.435104072,-0.273559272,-0.005540501,-0.311846644,0.015157498,0.021064207,0.261870384,0.401558101,0.040087495,0.11595168,-0.126754031,-0.077398367,-0.373823255,-0.267425299,-0.225527197,-0.17236644,-0.167524502,-0.188652992,-0.159022525,0.041244753,0.015305651,-0.02807471,-0.019909557,-0.015608265,-0.043961782,-0.192421243,-0.021549044,-0.074906215,-0.381279945,-0.615039527,-0.188859031,-0.403606355,0.013929017,0.229525656,0.161157683,0.211929306,0.105559744,0.071507968,-0.019038072,-0.113250062,-0.153119385,-0.020415146,-0.031069415,-0.108698227,-0.152247131,-0.157578334,-0.099822208,-0.026110444,0.023783447,-0.01635919,0.027684154,-0.094716907,-0.018368283,-0.047893226,-0.039865565,-0.029775033,-0.018522387,-0.40026933,-0.030799137,-0.390938342,-0.001769768,0.418509305,-0.240072578,0.133792579,0.186345339,0.143220663,0.036861118,0.051754713,0.028526397,-0.042906437,0.022597734,0.000317231,0.006823455,-0.057045273,0.141870856,-0.049401715,-0.077142097,0.007031546,-0.033258498,0.038269192,-0.036013704,-0.202637509,0.087061569,0.038912915,-0.226764277,-0.26237753,-0.101119436,-0.050930612,0.43029961,0.277050406,-0.198915973,-0.026893398,-0.025660153,0.111501329,-0.034043744,-0.098957874,-0.093857951,-0.074950866,0.034738205,0.070518427,0.127297133,0.095736638,0.155025765,0.113773532,0.041705329,0.148946732,0.094855547,0.157268316,0.257736951,0.026390612,0.323116183,0.19253996,-0.082668707,-0.095103666,0.045916513,0.378754407,-0.007094237,0.138977289,-0.023437707,0.069036692,0.192612454,0.141019851,0.103544317,0.102604128,0.101220556,-0.034640279,-0.038363896,-0.005466842,0.106053054,0.085652091,0.090759918,0.151802585,0.266063988,0.228164583,0.174870655,0.121335417,0.090862282,-0.030903466,0.269029349,0.131797686,0.063875146,0.342974722,0.446831614,0.263438076,0.046102513,0.028936258,-0.084355339,0.250468582,0.132131413,0.032374546,0.104616903,0.100499019,0.07236658,-0.053614389,-0.066828325,-0.132122248,-0.124795072,0.049311314,0.046021968,0.215686172,0.301858276,0.289230019,0.128019929,0.064260006,0.165318057,0.039332889,0.181549013,0.189735681,0.202337608,0.274896115,0.428810805,0.084303357,-0.065523751,0.157198206,0.019452792,0.265728444,0.200070247,-0.118190892,0.005826076,-0.100116178,-0.155051455,-0.25679031,-0.216056406,-0.204408392,-0.390063375,-0.140093163,-0.000664869,0.074456841,0.107372671,0.150659934,0.083336756,0.043335613,0.137371093,0.037599348,0.216383293,0.206860393,0.086049952,0.232635483,0.083052233,0.310224682,-0.036155302,-0.067226671,-0.174166366,-0.183020085,-0.115863889,-0.145288005,-0.109689541,-0.250866294,-0.307532042,-0.25361678,-0.087539576,-0.223614648,-0.165672377,0.00846083,0.246479452,0.152826726,0.062489476,-0.053214468,-0.021614272,-0.05634423,0.061635066,-0.17700164,-0.114024028,-0.302083611,-0.696155787,-0.265924841,0.517830729,0.278632462,0.23424685,0.03297694,0.082850024,0.046453383,-0.26632154,-0.305264145,-0.143566698,-0.187716544,-0.167815581,-0.130285203,-0.158295751,-0.177127883,0.050857827,0.183304742,0.195050851,0.05201938,-0.022468695,0.028314777,-0.035117451,-0.035948802,-0.06542249,-0.086666569,-0.367257833,-0.291924566,-0.153661594,-0.413759083,-0.135149658,0.190486774,0.164750889,0.115124457,0.191293091,0.203096688,-0.006523687,-0.195453987,-0.038583532,-0.027910592,-0.142104357,-0.059463184,-0.061565209,-0.047839865,0.128429905,0.192419216,0.26193428,0.176221147,-0.013546944,-0.05163224,0.031748466,-0.018653005,-0.098135576,-0.045969505,-0.19023779,-0.037010655,0.241155833,-0.480996937,0.000648952,-0.105061211,0.155835837,0.203852966,0.40712446,0.051831849,0.298509419,0.280371159,0.165422276,-0.020243825,-0.095795453,-0.056120291,-0.080871306,0.093255058,0.217565969,0.183587119,0.183149278,0.048007037,-0.014666993,-0.091051325,0.103169732,0.025907706,-0.048213497,-0.035428658,0.018056616,0.03347645,0.404198229,-0.300822258,0.061378382,0.094327047,-0.048098836,0.211368471,-0.018959163,0.154024825,0.250166744,0.305282086,0.173792049,-0.017876433,-0.131354079,-0.019571686,-0.049802713,0.095017962,0.106567554,0.174574405,0.033710599,-0.045365304,-0.119479582,-0.027096041,0.230907351,0.173158184,0.05384443,0.052256525,0.138280585,0.008949537,0.417263895,-0.123593688,0.038898289,0.2033685,-0.00886932,0.226379931,-0.202712551,0.23439239,0.102121316,0.257564873,0.207817838,0.108866185,0.056480918,-0.074105315,-0.158599511,-0.118331879,-0.03880943,-0.071247615,-0.136566848,-0.04893202,-0.02642807,0.07553947,0.098298028,0.179852635,-0.041133448,-0.034153707,-0.083319761,-0.094981492,-0.005439142,-0.139411524,0.003674275,0.43198967,-0.039715763,0.202100426,-0.126703531,0.11943163,0.00308986,0.259797275,0.222047329,0.173835665,0.179907724,0.054035295,-0.007448539,-0.03135613,-0.0962907,-0.085872881,-0.104407489,0.089055605,0.149122044,0.152316868,0.062580876,0.044969615,-0.099325664,-0.067334592,-0.000444169,-0.155646384,0.000807721,0.111104444,-0.122334324,0.188797787,0.298249215,0.195170358,0.195372507,-0.03232763,0.099153236,0.134929195,0.205970079,0.160709426,0.170349762,0.125136182,0.013819193,0.059585739,0.040613744,0.089904726,-0.001491869,0.166093677,0.096249297,0.195432246,0.132854715,0.027720386,-0.038464505,-0.042646702,-0.032782272,-0.009558378,0.142943144,0.338170111,0.019217929,-0.075600348,0.009275489,-0.190775335,-0.165472791,0.026167765,0.149024487,0.144138262,0.18625018,0.169490546,0.146012083,0.176305279,0.066496909,0.106326327,0.018830759,0.126015499,0.079005986,0.067929327,0.108672716,0.203053251,0.219255358,0.035919592,0.04940705,0.011908365,0.007428446,-0.136523128,0.097810045,0.203503028,-0.109763123,0.153158292,0.149042472,0.078620844,-0.076584242,-0.128116801,-0.039157167,0.013124305,0.161384851,0.108699605,-0.055233281,-0.237400323,-0.097935237,-0.040126663,0.060058445,0.028927866,-0.010779693,-0.058287773,-0.004351061,0.055684742,0.175672904,0.065063231,0.048519127,0.025666414,-0.198934406,-0.180449128,0.032207537,0.401305556,0.43599984,-0.002434136,0.179007381,0.137093067,0.105731115,0.085336812,0.006041884,0.174077973,0.05162685,0.052826047,-0.085822612,-0.190516695,-0.223074213,-0.0689997,-0.093046464,-0.065041736,-0.094891138,-0.021012379,0.013101489,0.074727461,0.086729512,0.058245171,0.058719609,-0.18015863,-0.146736205,-0.148432434,-0.106195927,0.292316109,0.485075653,-0.012426548,0.031644765,-0.026792038,0.375401318,0.163441136,0.230883598,0.294984102,0.096887037,0.082589701,-0.102123529,0.011078115,-0.015373054,0.077202335,-0.057413064,0.019549033,-0.037001688,-0.019827992,-0.042111654,-0.073567517,-0.172450215,-0.178456336,-0.218859687,-0.237980574,-0.07347355,0.012675797,0.216755003,0.151692793,0.435355753,0.002951559,0.030715454,0.026899565,0.05071884,0.394809812,0.264955521,0.156304747,-0.075171508,-0.051039483,-0.003634231,0.100352831,0.024052327,-0.039229147,0.009390102,0.078448653,0.204727501,0.072828315,-0.012729747,0.106251441,-0.183259338,-0.324413568,-0.145305336,0.108310811,-0.036082823,-0.058358572,0.249652103,-0.069720425,0.18682678,-0.010782145,-0.011714289,0.03224783,-0.007792466,-0.090179957,-0.17422986,-0.22165361,-0.070884533,0.050520115,0.133231178,0.120307393,0.123216793,0.02410732,0.230344802,0.047571465,-0.224295661,-0.143547311,-0.119939625,-0.294681996,-0.264222264,-0.034459539,-0.057731036,-0.10830874,0.097805671,0.292809069,0.553555965,-0.117091469,0.077454194,-0.00304218,0.02175631,0.015865952,-0.034689665,0.002483814,-0.509667039,-0.417327136,-0.418390661,-0.263863623,-0.078910045,-0.16337733,0.152328327,0.08547771,-0.099910319,-0.241342291,-0.3626616,-0.061027553,-0.03812018,0.117012538,-0.028375277,0.009291945,-0.006798197,-0.264738858,-0.005205184,0.127969295,-0.152552024,-0.046634283,0.015230812,-0.017033821,-0.020019894,-0.03177879,0.014286384,0.003100425,0.267080188,0.298782915,-0.000703686,-0.14145124,-0.065806761,-0.216465041,-0.28397125,-0.269205749,-0.11841432,0.022281783,0.157362491,0.331679255,0.256066233,-0.024686364,-0.232274786,-0.384106606,-0.319568366,-0.241585538,-0.18850635,0.095608503,-0.014115496,0.029581513,0.008831058,-0.030163486
-0.014585985,0.000897013,-0.012415498,0.031525258,-0.002020601,0.026335202,-0.021888096,-0.004725592,-0.000797529,-0.008280035,-0.008481303,-0.016307879,0.04459076,0.095148221,0.249018416,0.083961867,-0.025094241,-0.001370776,0.011168361,0.007838491,0.000370353,0.018957347,-0.02311934,0.012073934,0.004644804,-0.007160941,0.020431422,0.013102107,0.017923325,0.013184443,0.019004326,0.028075587,0.020060863,0.028316619,0.017732209,0.03618953,0.164400071,0.1412687,-0.054824661,0.246444717,0.256738812,0.171982974,-0.186412156,0.500074148,0.392801762,0.347526878,-0.096425712,-0.011240249,0.033683505,0.003316419,0.039092042,0.017659593,-0.027841318,-0.012166347,-0.015521748,0.009384055,0.019432489,-0.019611189,-0.007734219,0.244861647,0.241678461,-0.07092876,-0.056168173,0.145951807,-0.043112915,-0.184081852,0.093076214,0.074964993,0.202045068,0.111301109,-0.125720933,-0.084488489,-0.025652213,-0.285195112,-0.252941906,-0.307085395,-0.404757738,-0.34831813,-0.233278662,0.00646037,0.068938933,0.002491294,0.017489672,-0.020999122,-0.004327111,-0.030670887,0.416987807,0.190574288,-0.205343708,0.025341233,-0.227943063,0.086988933,0.682826996,0.536961555,0.347329527,0.160086587,0.316525102,0.428718328,0.511629641,0.163443699,0.238975286,0.298451155,0.095396936,-0.015328529,0.139073446,-0.287290722,-0.249477491,-0.052952681,0.144076154,-0.053785142,-0.182881489,-0.012488894,0.026453737,-0.007040757,0.40154478,0.012672794,0.010757813,0.014210361,-0.194075152,0.011324182,0.130385026,0.088235788,0.005377693,0.116041832,0.146395892,0.206866518,0.347279519,0.434398055,0.382605731,0.229980737,-0.032548595,-0.067683741,0.091772467,-0.141934767,0.042531013,-0.228744656,-0.49037987,-0.365876257,0.118855707,0.030340392,0.00940894,-0.02985177,0.189350605,-0.29443723,0.194332615,0.251085341,-0.038291298,-0.085919783,0.205993772,0.159005493,0.102133393,0.019449413,0.017888509,0.238266587,0.213967353,0.345009804,0.276995927,0.156057954,0.21550867,0.254557669,0.052180286,-0.139022663,0.037728384,0.08719445,-0.342435032,-0.295211077,-0.20447287,-0.190686956,0.004133623,0.245416328,-0.035414655,0.353860497,0.297868192,0.316095144,-0.083876185,0.005506345,0.085315093,-0.03002915,0.149591178,0.055989962,-0.000906458,0.052379131,0.171989128,0.316761523,0.364649504,0.274725974,0.291292906,0.141213134,0.095490731,0.191282511,0.017237723,-0.179179862,-0.299260229,-0.413754553,-0.274554551,-0.219419345,0.015170791,0.498073637,0.006866923,0.296841472,-0.012662301,-0.100591421,-0.181689397,0.104213163,-0.005045651,-0.017268054,-0.122258805,-0.018493978,0.031564504,-0.066668622,-0.030459521,0.154368535,0.323413581,0.377099812,0.296291858,0.258662045,0.152721152,0.146246433,-0.057880368,-0.001130004,-0.244547725,-0.219170511,-0.023223715,-0.252243429,0.402666539,0.361168385,-0.04887196,-0.023782305,-0.294638515,-0.188829347,-0.101001449,0.045783926,0.027337557,-0.165380701,-0.138479158,-0.103779666,-0.245247781,-0.276017308,-0.056580611,0.073492885,0.267803848,0.309190869,0.292927861,0.307704777,0.252546161,0.171085566,0.106173731,-0.100405797,-0.384183377,-0.2641626,0.210665613,-0.233858839,0.110236034,0.441277266,-0.04491904,0.108938947,-0.076933354,-0.115625568,0.110395767,-0.093728177,-0.025617322,-0.10328269,-0.102282748,-0.198497787,-0.164252505,-0.198660806,-0.120519713,0.092800438,0.179305851,0.145637631,0.06127895,0.192055359,0.305700272,0.087118059,0.133049831,0.096389495,-0.241405278,-0.175135285,-0.310075194,0.178157866,0.06313277,0.282929271,0.112238593,-0.043707505,-0.25684306,-0.14369157,0.136560038,-0.162949026,-0.023339495,-0.105016813,-0.174458727,-0.116396792,-0.300045073,-0.209883586,-0.017447181,0.024375567,0.121982276,0.077206351,0.153485179,0.177898884,0.221175253,0.176145777,0.368698567,0.121522211,-0.525235355,-0.129910305,-0.159798175,0.22411485,0.089116335,0.304358065,0.244349405,-0.093792431,-0.302542448,-0.273158103,-0.272934943,-0.030813644,0.021549279,-0.10023459,-0.02188036,0.022450078,-0.172556132,-0.140835792,-0.052849066,-0.092384204,-0.073937178,0.043918524,0.098995015,0.103691563,0.327979267,0.215540946,0.33914578,0.1511769,-0.585322976,-0.188194007,-0.15484865,-0.080186911,0.045117177,-0.019150322,-0.032610524,-0.382578492,-0.192511722,-0.237842917,-0.134833336,-0.1917357,-0.000748612,-0.00374724,0.044866413,-0.036269329,-0.157987431,-0.322062522,-0.248543054,-0.075806938,-0.068635568,0.032452263,0.152497351,0.133150801,0.201124489,0.126095787,0.090789981,0.14282465,-0.526918232,-0.455068737,-0.482982218,0.083431035,0.08335951,-0.044814531,0.019897386,-0.220530808,-0.058014862,-0.055276953,-0.073196188,-0.169513389,0.018793089,-0.080824047,-0.010485811,-0.043980177,-0.140999779,-0.213213295,-0.111871317,-0.039774496,0.004855932,0.012872158,0.052589253,0.089544944,0.009418842,0.031047443,-0.065010615,-0.310739577,-0.595640481,-0.347425878,-0.194233209,0.03644076,-0.025589859,0.009250541,0.138130352,-0.267029256,-0.115083091,0.147426769,0.114577353,0.035157811,-0.046135578,-0.080225646,0.094113007,0.051835693,-0.059238616,-0.147464707,-0.009735776,0.125304073,-0.025384789,-0.033642471,0.083248638,0.12313579,0.056669455,0.076418787,0.056529537,-0.421243131,-0.453258246,-0.062448997,0.32603839,-0.075043581,-0.031833731,0.156220168,0.07323835,-0.198410884,-0.011233095,0.129560947,0.124811262,0.124204762,-0.083324224,-0.066765606,0.030458093,0.048125587,-0.122568451,-0.129384339,-0.120193504,0.068556502,0.038091421,-0.057403896,-0.01473188,-0.029180652,-0.057868071,-0.021411764,0.079867579,-0.203616321,-0.292106688,-0.104295164,0.364688039,0.102209538,0.084279217,0.201282173,-0.119072393,-0.296780974,0.019494688,0.007764352,0.087206222,0.02369168,0.025205443,0.097071677,0.028325398,-0.042587388,-0.046648309,-0.075027227,-0.186388105,-0.101287067,0.076052465,-0.000760082,-0.01568006,-0.055982824,-0.199992895,-0.082080424,-0.002030993,-0.158439711,-0.049325902,-0.281489909,0.072518721,0.11584229,-0.028522139,0.191117108,-0.284419328,-0.171127677,-0.074445911,-0.03723897,-0.062368218,-0.070026353,-0.065498851,-0.054160643,-0.079609767,-0.073813014,-0.077403478,-0.084581301,-0.11205665,-0.023978529,0.06986697,-0.025120424,-0.088314794,0.029351411,-0.293164492,-0.283819765,-0.23845847,-0.113794856,0.206693619,0.220199689,0.347023398,0.156445324,0.383308351,0.343434125,-0.114651926,-0.23728539,-0.191380888,-0.051027358,-0.055013333,-0.054156527,0.033511575,-0.029929312,0.051493652,0.013621124,-0.11219573,0.009802061,-0.117380328,-0.024203004,0.034112826,0.098369874,-0.006571371,-0.024437953,-0.1353551,-0.162938654,-0.032384537,-0.031705778,0.252484381,0.223945215,0.137768924,0.261451453,0.062603794,0.252081394,0.063191026,-0.363208979,-0.139058605,-0.107381076,-0.020607093,-0.018407339,0.100761883,0.108367808,0.033112589,-0.023016313,0.166869938,0.034568492,-0.069752246,-0.120123126,-0.16093564,0.055615798,-0.114091091,0.056521859,0.02219088,-0.16808027,-0.122650266,0.09820354,0.366819263,0.198685825,-0.061576337,0.094008461,-0.014484789,0.28485775,0.11998032,-0.001855095,0.046890441,0.102911241,0.089381412,-0.02579052,0.073789611,-0.00679697,-0.030402714,-0.019642543,0.043512207,0.077438802,0.171059966,-0.048660468,-0.092529662,0.000530455,-0.112365834,-0.005610936,-0.059047848,-0.052793112,-0.268150479,-0.186185658,0.262045354,0.191476911,0.095493771,0.154568925,0.206259668,0.127126649,0.401941717,-0.042760953,-0.072233498,-0.000248965,0.028946837,0.045038037,-0.02399089,-0.064939357,0.124064721,-0.045438692,0.080566093,0.082612164,0.098909386,-0.038233634,-0.024635017,-0.099462144,0.031294242,-0.017399451,-0.095552243,0.0167694,-0.215002164,0.027501309,0.35217914,0.200262278,0.301591188,-0.00827686,0.204372212,0.234960184,0.28884545,-0.139824897,-0.055232033,0.050340999,0.059679367,0.070139162,0.210288063,0.004841609,-0.020327374,-0.066220842,0.010772221,0.03718004,0.123911999,-0.043891851,0.039616134,-0.040140677,-0.004931159,-0.007888476,-0.254737943,-0.098989874,-0.057614092,0.114098944,0.022748366,0.032506552,0.018044874,0.015273071,-0.023749262,-0.013201723,0.059481472,-0.058130756,-0.021964828,0.054365799,-0.016299317,0.196131587,-0.067583948,0.073186673,0.099283546,0.07102561,-0.01001182,0.052112125,-0.090539269,-0.047948539,-0.041585416,0.061938237,0.061571695,-0.042224471,-0.317012995,-0.287731826,0.122609176,-0.106893435,0.052558955,-0.104542747,-0.12250977,-0.017357077,0.034400504,0.004440486,0.226325169,0.311939478,0.773727655,0.422379047,0.072303414,0.139274225,0.087824002,0.136914477,0.128506571,0.024913371,0.10290125,0.098487705,0.039069448,0.107061297,-0.056065653,0.022900954,-0.052035186,-0.138883024,-0.398983121,-0.296255469,-0.052984219,-0.194928825,0.214715853,-0.04031717,0.014763135,-0.027146822,0.021105826,0.020765364,-0.105210595,0.071554787,0.009336524,-0.082312942,-0.059987031,0.198570877,0.431633323,0.279767275,0.108819515,0.097934149,0.173356846,-0.083440885,-0.01987577,-0.097627692,-0.044280063,-0.367013574,-0.318257451,-0.098977163,0.225820363,0.105157904,-0.064702757,0.041141197,0.097836718,-0.073588908,-0.029011672,-0.029805282,-0.033536728,-0.02362125,-0.025535073,0.253364265,-0.25642854,-0.296449631,-0.097209901,0.316938758,0.48025316,0.403081387,0.54481107,0.120178901,-0.019817872,0.262638599,0.494126976,0.110710211,0.181617573,0.208295926,0.129083201,0.230659604,0.486863434,0.153918207,-0.143362984,-0.238113776,-0.231925294,0.065012224,-0.029584251,-0.03337089,-0.035611972,-0.014824526,0.02918892,-0.017219394,0.206653401,0.226955146,0.257338375,0.274932712,0.26754722,0.358221591,0.57250011,0.381888837,0.428046197,0.639167666,0.710440636,0.547671318,0.470360279,0.485387772,0.331637084,0.239904851,0.118040033,0.076973103,-0.077988043,0.013767573,0.023771964,-0.00494902,0.003475565,-0.009223597
-0.012558741,-0.006305747,0.00592225,-0.004931198,0.033520568,-0.024701461,0.019409519,-0.000288211,-0.024765775,-2.48E-05,0.021398585,0.025765602,0.044764142,0.053568721,0.097875684,0.031372949,-0.027256723,0.024940938,0.001724254,-0.01216206,-0.015933642,-0.024898062,-0.007506201,-0.012571758,-0.007790886,-0.018368632,0.030184966,0.021570742,0.026670504,0.013552435,0.015904117,0.01464431,-0.123746552,-0.009318843,0.155518264,0.147489399,0.188972354,0.059400324,-0.06371627,0.110344879,0.073808648,-0.161517888,-0.155222014,0.190388411,0.430114478,0.280025601,0.207273051,0.301656216,0.202316254,0.000995193,-0.061740376,0.033551272,0.021814588,0.034398969,-0.02966479,0.012220167,0.021899521,0.032697294,0.035371941,0.184843555,0.122872062,0.05729837,0.174237236,0.218065619,0.188621551,0.160828739,0.18470782,0.134306207,0.024083853,-0.364968568,-0.194660008,-0.104181506,-0.210654497,-0.066466242,0.233066857,-0.075792089,0.041057199,0.311542124,0.262778938,0.301860929,0.139900774,0.102320589,-0.00285846,0.021170121,-0.004809303,-0.005123029,0.000415821,0.198910505,-0.132589579,0.273478538,0.447836757,0.409643441,-0.042557858,-0.180979714,-0.193303183,0.075829469,-0.125892103,-0.110970132,-0.113618538,-0.086592764,-0.171848148,-0.317669302,-0.248110637,-0.346461326,-0.386998594,-0.417350978,-0.14377749,0.333612889,-0.166649327,-0.206529558,-0.193078548,0.014960438,0.019793525,0.044312779,0.138403535,-0.029751528,-0.220555902,0.157241046,0.114057004,-0.054768469,0.177862823,0.124160603,0.208696008,0.006339166,0.027943907,-0.005543192,0.067318343,0.028774474,0.150552988,0.089210592,-0.106285699,-0.146944299,-0.079375245,-0.372034758,-0.365290821,-0.49605906,-0.280406833,-0.330404699,0.133442178,-0.226711303,-0.024391532,0.031943265,0.435484141,-0.246471137,-0.124914281,-0.131367266,-0.085563168,0.002109805,-0.042511109,-0.076491706,-0.14677234,0.057204459,0.202873006,0.096718401,-0.025564358,-0.023834359,0.031100739,0.090662003,-0.064056017,0.023594625,0.185206354,0.080826879,-0.159861311,-0.2404145,-0.30034557,0.048816893,0.076716281,-0.2809605,0.003543548,0.093102999,-0.35587275,0.102637611,-0.002339699,-0.288277894,-0.024964254,-0.054877676,0.000618419,0.119060889,-0.038162827,0.036443338,0.134276286,0.040100846,-0.018828807,-0.014636212,0.174931958,0.132726848,0.042970765,0.067231409,0.09272328,0.085625127,-0.008483874,-0.188425213,-0.359049112,0.007667982,0.051316064,0.006235986,0.005108027,0.345842302,-0.070372581,0.419808567,0.295027763,-0.166839004,-0.010922863,-0.052196197,0.158324286,0.070734985,-0.016209899,-0.214458406,-0.084564723,-0.031849761,-0.130208611,0.058207139,-0.055643082,-0.083265692,-0.015847577,-0.012555707,-0.037048645,-0.15576303,-0.155536264,-0.158993751,-0.175757125,0.073229708,0.175309494,-0.030378483,0.164790645,0.090682708,-0.388267338,0.258704871,0.280199558,0.129854172,0.21647951,0.277723908,0.159796134,-0.036225688,0.06378337,-0.150475338,-0.083960764,0.072903797,-0.081113018,-0.072170854,-0.0775657,-0.092046805,0.050349213,0.139127776,0.052667115,-0.11667563,-0.041074675,-0.049826756,-0.112655148,0.266011387,0.529859245,0.220988333,0.070345394,0.13446334,-0.181315765,0.484404594,-0.01922033,0.336319476,0.302021772,0.103753805,0.047788601,0.134495988,0.078726299,-0.045572769,-0.048450727,0.050329905,0.022147065,0.098863751,0.138088867,0.118913725,0.1123752,0.180133983,0.131819978,0.104686514,0.195443168,0.302151918,0.068345867,0.21148327,0.329899162,-0.280646235,0.007439931,-0.012164946,-0.202560529,0.155059412,-0.186339676,0.121740229,0.365986079,0.099784203,0.034722563,0.096788257,0.150189877,0.053869963,0.006179434,-0.04901116,0.143588334,0.190125063,0.254161716,-0.028172761,0.051970709,0.136730582,0.210917488,0.128074005,0.261467248,0.240518123,-0.026679691,-0.103835016,0.021049604,0.069772922,0.030631045,0.009444363,0.171947449,0.249619186,0.140984237,0.343618721,0.301571548,0.275425464,0.145042375,0.209680825,0.130485386,0.125666037,0.058071863,0.031169722,0.265491515,0.277665108,0.148268923,0.063919052,-0.023895197,0.193909556,0.367416918,0.155036315,0.318386942,0.345569819,0.380349815,0.231848031,0.301302493,0.247597262,-0.0477475,-0.311314076,-0.00631916,0.182232156,0.316944212,0.393203378,0.289422005,0.293081075,0.118445121,0.1779719,-0.029293248,-0.112042822,-0.095132306,0.084886469,0.395254761,0.424883217,0.283637822,0.217985213,0.093202487,0.285544634,0.236886308,0.173787057,0.209780291,0.450049341,0.384597421,0.305615515,0.071573317,0.462564945,-0.084265903,-0.127281398,0.111835539,0.232499078,0.245786503,0.15357098,0.077134222,0.061751589,0.205497891,0.115125693,-0.079808645,-0.140014112,-0.20764263,0.224035636,0.367278904,0.413061321,0.347233355,0.192400664,0.212530151,0.236744106,0.185126781,0.052921131,0.12939164,0.123359114,0.059654545,0.192170665,0.425735533,0.332844585,-0.110044524,-0.034554251,-0.086034611,0.334415138,-0.063558035,-0.123340026,-0.02799556,-0.118151776,-0.066927239,-0.073284812,-0.059547562,0.000649977,0.041593034,0.302866817,0.308167815,0.291398138,0.270857304,0.129046455,0.206739932,0.212510169,-0.015664037,-0.00702962,-0.025814909,-0.079002589,-0.231294438,-0.294216722,0.239357546,0.298289597,-0.096801944,0.148597538,-0.411670804,0.351089805,-0.27414754,-0.228326008,-0.12746425,-0.256087661,-0.199989334,-0.269489795,-0.239686236,0.017235614,0.111556984,0.331489176,0.356821597,0.292174071,0.261041373,0.148886755,0.090501569,0.078188352,-0.055843569,-0.136950627,-0.088828012,-0.310272127,-0.159498781,-0.617418051,-0.10526751,0.355217785,0.115408108,0.195637703,-0.167196721,0.080517955,-0.088479742,-0.332093328,-0.285995543,-0.291261733,-0.26412946,-0.151600674,-0.067675479,0.082915559,0.197986946,0.190105423,0.248775721,0.181324184,0.194096342,0.077465385,0.069563627,-0.137726441,-0.180388212,-0.268188119,-0.176450819,-0.248958349,-0.213540196,-0.487245232,-0.150143787,0.365652591,-0.003351126,0.152718976,-0.296589494,0.164172143,-0.199000672,-0.290871024,-0.304740489,-0.233139604,-0.150201678,-0.226569265,-0.022895405,0.245705232,0.283711225,0.120416231,0.031911489,0.021572743,0.018875211,-0.080121361,-0.100625895,-0.015447683,-0.1487564,-0.09715008,-0.222188935,-0.150525585,-0.129015073,-0.344545245,-0.030783029,0.308211476,0.48276937,0.369986802,-0.101896226,0.08657635,-0.091779813,-0.098492898,-0.204265147,-0.112759404,-0.172055945,-0.108248986,0.183206484,0.26805529,0.173675999,0.11471764,-0.038953058,0.027855443,-0.15846628,-0.050173942,-0.059273332,-0.05197525,-0.083528273,-0.150865734,-0.064741172,-0.117214359,-0.249346584,0.089516379,0.403267503,0.10010843,-0.133811578,0.146520957,0.161489382,-0.140658095,-0.18518199,-0.171128079,-0.27154842,-0.153111115,-0.064218752,0.084510319,0.206456035,0.098638766,-0.020319238,0.133759931,-0.068611376,-0.069892481,-0.104529545,-0.017849065,-0.08522819,-0.013037124,-0.147987619,-0.236965761,-0.089173369,-0.132920519,-0.381666869,-0.226254046,0.439475149,0.058786429,-0.027445948,-0.165522203,-0.244209751,-0.12497507,-0.067150034,-0.267998129,-0.16872856,0.04659006,-0.033699524,-0.025673194,0.105058342,-0.09286572,-0.086080216,0.062045276,0.019672114,-0.106614918,-0.186307833,-0.171805486,-0.13971661,-0.163504645,-0.068893917,-0.154638618,-0.127582327,-0.114759743,-0.236052483,-0.232324928,0.333357781,-0.068096392,-0.114274167,0.150581419,-0.202903107,-0.201849267,-0.031314749,-0.28940329,0.01458659,0.164462447,0.158459976,0.0195406,0.032003339,-0.092934787,-0.048928156,0.079755969,-0.007936851,-0.091606818,-0.090386644,0.056429014,-0.116424814,-0.107292391,-0.156317666,-0.128033653,-0.089534134,-0.038586255,-0.289050072,-0.163076326,0.042081088,-0.022245308,-0.094210632,0.09922833,0.112154037,-0.063221075,0.058662698,-0.045432713,0.130857378,0.245966613,0.213099584,0.091042459,0.075956173,0.092385709,0.074912354,0.141423255,0.060730495,-0.0975274,-0.034719542,-0.110604778,-0.159809113,-0.251889795,-0.077265903,-0.053741422,0.217044428,0.071650609,-0.146732286,0.024241829,-0.3879067,-0.0300532,0.033534538,0.007927585,-0.097916842,-0.311431885,-0.223847717,-0.098585367,-0.076740816,0.156905666,0.147065416,0.101506397,0.043937266,-0.004997591,-0.003136196,0.129853889,-0.129559293,-0.103275374,-0.103840843,-0.071374729,0.076082103,-0.014878802,0.09738484,0.254055351,0.38993153,0.294903785,-0.126044005,-0.112876654,-0.425467104,0.009331651,0.032741319,0.011694692,-0.232506827,-0.209439382,-0.408922493,-0.344212383,0.029288489,-0.090698212,-0.130338386,-0.259737581,-0.022491634,0.040096793,-0.120394424,-0.021586219,-0.030261729,-0.117078803,0.034144927,-0.066822477,-0.025335964,0.326234877,0.31758517,0.093456261,0.072806053,0.270928383,-0.345309019,-0.165929317,-0.148374006,-0.006896062,0.031664606,-0.035169147,0.078412265,-0.308189124,-0.637301803,-0.247274697,-0.022688271,-0.03272412,-0.038719751,-0.148949906,0.088392839,-0.03146708,0.062690563,0.125922531,0.199104726,-0.003306355,0.147151455,0.346465707,0.151460424,0.176846772,0.002066684,-0.438495219,-0.549026787,-0.390005976,-0.454011947,-0.196192577,-0.093477763,0.014479227,-0.005419718,0.020928107,0.018077504,-0.07602293,-0.211750939,-0.153923675,-0.07134892,0.393646002,0.553163171,0.352681488,0.294654191,0.062594719,0.095679626,0.189424545,0.180129737,-0.091405742,0.170728907,0.362642318,0.250815213,-0.105624378,0.175792113,-0.147106946,-0.161206603,-0.009527346,0.003992071,-0.138484448,0.013429478,0.033164356,-0.010509014,0.002134938,0.00025811,-0.026634153,-0.133486733,-0.065274432,0.114582628,0.201466963,0.205276445,0.18600443,0.341155022,0.219932124,0.232815161,0.230683789,0.650199056,0.549346745,0.561675489,0.39082849,0.135771349,0.272377908,0.030565053,-0.117047429,-0.200860664,0.228270337,-0.013336863,-0.01933972,0.030468214,-0.00954557
0.018492211,0.025897529,0.034040611,0.004057873,-0.004291855,-0.027488876,-0.021363178,0.01576297,0.002430968,0.017154034,-0.016342474,0.027844992,0.020539306,0.09946467,0.233902127,0.108541779,0.027425643,-0.035602141,0.029945802,-0.0099985,0.033256855,-0.016275246,0.010350361,-0.018407321,-0.032927237,-0.032337099,-0.033806227,-0.005086269,-0.00762016,0.022719223,0.00450718,-0.030959841,-0.166184351,-0.201822594,-0.12841928,-0.157947481,-0.229346231,-0.376073629,-0.41852358,-0.032768417,-0.24148874,-0.380606472,-0.041573416,-0.018832395,0.076108813,-0.180160329,-0.20336473,-0.219029292,-0.423241317,-0.250858128,-0.27355656,-0.239361346,0.002194699,0.035079692,0.009856809,-0.001388397,-0.034890547,-0.005204154,0.001462343,0.110755652,-0.024531206,-0.124582507,-0.248197585,-0.315288037,-0.10358429,0.29568857,0.308064491,0.014347563,0.186620459,0.03267033,0.081132121,0.188563213,0.151942268,-0.105247587,-0.059917245,-0.197974175,-0.330319822,-0.262344569,-0.091481589,0.099260554,0.305500925,0.273507088,0.033307541,0.018339608,0.032008801,-0.027288899,0.240317121,-0.067712218,-0.495552778,-0.095317058,-0.266002357,0.121849947,-0.043805391,-0.03481641,-0.0544159,0.072121635,-0.004993574,-0.052199554,0.074720263,0.112700164,0.142777905,-0.032644413,-0.180980757,-0.068781622,-0.176505536,-0.446185499,-0.427901894,-0.405759633,0.154723018,-0.151568264,-0.188271344,-0.019894874,-0.010783924,0.036601532,0.284819812,-0.348346591,-0.104275018,-0.156976715,0.342887402,0.241836235,0.025253862,-0.114093885,-0.260206401,-0.12596184,-0.09045323,-0.111800186,-0.170988038,-0.140375823,-0.044221193,-0.067917541,-0.08794909,0.049650814,0.088228926,-0.050772868,-0.014096553,-0.32465902,-0.497787982,-0.558963716,-0.599603415,-0.169335082,0.025861528,-0.003585447,-0.024607483,-0.137524471,0.153825581,0.477219939,0.318200797,0.139083326,0.324778229,0.239374653,0.041940708,-0.206710726,-0.106331907,-0.118597269,-0.058694411,0.037360735,0.123128958,0.048492778,0.085286245,0.026025198,-0.065328002,-0.045396224,-0.076316722,-0.072411992,-0.222629517,-0.28452149,-0.375481933,-0.256082088,-0.018367806,0.351492703,-0.137297019,0.344382405,0.234466195,0.111431599,0.132164121,0.156014115,0.199605659,0.214362711,0.156676114,0.01055862,0.163820237,0.075276867,-0.009530235,-0.098848753,-0.027844371,0.032494463,-0.06210519,0.077327438,0.055509422,0.098330103,-0.048178669,-0.18112658,-0.43999368,-0.353048444,-0.063544333,0.121142946,0.062577516,0.477559805,0.246788993,0.322607398,0.241616666,0.082627058,0.217013061,0.133451268,0.024311589,0.261078477,0.214579225,0.215856031,0.149759874,0.220807865,-0.037334796,-0.107001819,-0.062650867,0.071184464,0.092731521,0.15799275,0.113707848,0.168623269,-0.012223191,-0.096659407,-0.267364264,-0.810653448,-0.013844737,0.126028687,0.150271371,0.480080307,0.028308759,-0.204513371,-0.102860242,-0.014854298,-0.045154337,0.113597088,0.158885762,0.256423712,0.249312609,0.220295444,0.310974061,0.102985546,0.093008421,-0.015702581,0.037897997,0.159332842,0.093425333,0.228084579,0.066882737,-0.065762579,0.046583515,-0.087656058,-0.578504503,-0.913161516,-0.063021868,-0.263920367,0.066873267,0.193209156,0.078521803,0.021488756,-0.136720166,-0.003033104,-0.028098699,0.01305032,0.12151064,0.129443631,0.073985152,0.090155669,0.206464007,-0.016336765,-0.144083485,-0.096262909,0.103589997,0.169249594,0.139409438,0.071405515,-0.111844055,-0.093555555,0.156071156,0.068465672,-0.467395157,-0.451123357,-0.033181917,0.106855452,0.084707908,0.111042708,0.327460796,-0.225294173,0.03575163,-0.071337007,-0.081882782,0.010713404,-0.107089423,-0.086178124,-0.132953748,-0.128359661,-0.256340384,-0.147714764,-0.164990216,-0.010433776,0.132355213,0.192888662,0.032395042,-0.030904133,-0.096152775,0.01284606,0.123997293,-0.139035806,-0.466428608,-0.23125264,-0.162412047,0.153021052,0.086896963,0.395880103,-0.09601637,-0.341000676,-0.135931686,-0.403382182,-0.279817849,-0.227165386,-0.288330227,-0.236426935,-0.289457947,-0.215096012,-0.253027171,-0.113241091,-0.087275483,0.06761393,0.0421535,0.068961598,0.006758648,-0.037634414,0.050153431,0.166415751,0.083061114,-0.163615614,-0.472645253,-0.492196858,-0.668409646,-0.028803959,0.0677118,-0.063778251,-0.215018049,-0.302736282,-0.395369679,-0.575364709,-0.569325984,-0.680234969,-0.465620577,-0.53593266,-0.265106082,-0.231045365,-0.013407568,0.052721445,-0.01097839,0.056181081,0.120044783,-0.090058483,-0.01448265,-0.200994313,-0.037023097,0.065722972,-0.011666031,-0.247633904,0.019965734,-0.092879802,-0.310069501,0.002258141,-0.03949507,-0.206814349,0.072051898,-0.325028419,-0.622360706,-0.679168642,-0.590559602,-0.699104607,-0.298396587,-0.204225838,-0.036253955,0.088076793,0.025871132,0.11704687,-0.003060615,-0.10128177,0.020389168,-0.059758909,-0.050768569,-0.151426479,-0.133311152,0.10198506,-0.142081693,-0.129733473,0.110618755,0.166514546,0.090069622,0.145807758,-0.036602493,-0.107131533,0.11168807,-0.252724439,-0.313165784,-0.400978446,-0.324269325,-0.029354898,0.005188601,0.196067587,0.193242386,0.306860417,0.294590235,-0.004414946,-0.126792207,-0.115973227,-0.086926498,0.044192836,0.030927371,0.040772937,-0.039564911,0.163420364,-0.006020263,0.049943954,0.142440304,0.005681219,0.427248329,0.278384238,-0.046334419,-0.055558905,-0.226571381,-0.211114332,-0.409366041,-0.20443058,-0.038277309,0.357843608,0.15191853,0.272387773,0.266643852,0.290858537,0.134286985,-0.03242125,-0.123658687,0.03261105,-0.128023148,0.085596271,0.071271278,0.08229696,-0.048206083,0.147715569,0.126992151,0.191750944,0.15359138,-0.136223674,0.546360016,0.21514535,0.01480306,-0.137665674,0.059007898,-0.385089785,-0.362140864,-0.047018386,0.070433229,0.369278133,0.193713918,0.250736147,0.250677615,0.181382403,0.139976889,0.026925651,-0.096805952,-0.042585779,-0.059299883,0.04385918,0.097138532,0.165554717,-0.056038499,0.129719272,0.010899893,0.072815977,0.217942506,0.033163674,0.462233096,0.269514382,0.008624822,-0.119500235,0.151972473,-0.17774041,-0.172494069,-0.088462532,-0.011906407,0.038351409,0.236045837,0.246636078,0.136953935,0.197703466,0.127450213,-0.057958845,-0.071758442,-0.168254942,-0.130284816,-0.004748889,0.170652673,0.113854527,-0.025103258,0.081882372,0.061429217,0.055972911,0.413261801,0.371408105,0.47555849,-0.206109151,0.179504052,-0.114417136,-0.104612127,0.239308953,-0.040751699,-0.106734149,-0.209889263,0.128472075,0.209937811,0.172948137,0.11491628,-0.006030907,0.118046649,-0.022738181,-0.133702144,-0.075190507,0.004256244,0.138929576,0.259989738,0.223344252,0.131979823,-0.03322573,-0.008355658,0.09847983,0.251781434,0.342445046,0.597036898,0.183703452,0.061391864,-0.159490079,0.098831318,0.10231977,0.141265586,-0.173483834,-0.114749037,-0.027812216,0.029194584,0.176305175,0.025251241,0.191350341,0.073658019,0.021682519,0.006756601,-0.075563647,-0.008555272,0.055323511,-0.114359424,0.049546488,0.102409542,-0.063658893,-0.007315463,0.023770457,0.015727529,0.119147331,0.706325054,0.337471485,-0.031622555,-0.193574905,0.067879282,0.293602556,-0.038333964,-0.224135682,-0.069765925,0.022106571,-0.084107243,-0.07887727,-0.020437488,0.108219862,0.11295668,0.050574351,0.026001111,-0.076494545,-0.16494149,-0.154863536,-0.188267097,-0.020104645,0.021811754,-0.026018618,-0.214083746,0.027002929,-0.092339046,-0.189924747,0.669966817,-0.059267823,0.133952156,0.379142702,0.292562515,0.172106996,-0.219951883,-0.052729521,-0.231095493,-0.151301563,-0.086842157,-0.102423422,0.010358166,0.077329896,0.162033185,0.156728894,0.001177774,-0.079870448,-0.057357728,-0.12927486,-0.206949323,-0.057561994,0.003260317,-0.035865624,-0.051759019,-0.042569883,-0.112390824,-0.211209193,0.495240867,0.042365134,0.120942384,0.212046564,0.261045873,-0.28255865,-0.192994922,0.046632539,-0.089796223,-0.008970344,-0.022881603,-0.069364682,-0.068747811,0.01523877,-0.009456631,0.149858654,0.004319676,0.07901758,0.064339198,-0.14445892,-0.262460262,-0.088348247,-0.119610995,-0.073657624,-0.113488808,-0.219462365,-0.156308487,-0.278719962,-0.134370148,0.032458354,-0.021458814,-0.031531867,-0.06882453,-0.436258137,-0.084142193,0.065992966,0.167230099,0.205042988,-0.183177069,-0.032384772,-0.017102487,0.10327296,-0.012429104,0.124511912,0.025633128,-0.020627787,0.028431032,-0.16262652,-0.118327454,-0.200868294,-0.238453001,-0.196744546,-0.276717067,-0.37447682,-0.150254145,-0.116286315,-0.190680683,-0.020798314,0.034651112,0.026169639,0.131273732,-0.213371024,0.182378381,0.210496873,0.093205094,-0.042286742,-0.050148688,-0.073114611,-0.088830374,0.010588223,-0.057932328,0.025353074,-0.078135349,-0.181897819,-0.07291241,0.00056475,-0.147153705,-0.166905344,-0.26126653,-0.270319402,-0.517067313,-0.534745634,0.247946143,0.212281659,0.181436151,0.023825537,0.018855486,-0.025994008,-0.265837103,0.364519775,0.261547506,-0.004631846,-0.012232343,-0.065906338,-0.061935645,0.021083428,0.050788041,0.135394648,0.061868191,-0.07886368,-0.07153368,0.083927073,0.177928656,-0.019827556,-0.316641718,-0.50474304,-0.378599465,-0.468187243,-0.668132603,-0.285495818,-0.124513723,-0.109257035,0.074045546,0.033924934,0.034490708,-0.017301641,-0.011059081,-0.072887354,-0.395985782,-0.548057795,-0.496649176,-0.097856507,0.189928353,0.132067725,-0.009841946,-0.161912784,-0.07056468,-0.101071976,0.096467823,0.45908159,0.248849854,-0.042036563,-0.210132748,-0.04671672,-0.488608718,-0.396598369,-0.067571409,-0.246370554,-0.226443827,0.111950062,0.017365221,0.006293409,-0.003837276,0.003359519,0.017569892,0.000303023,0.125895292,0.109794334,0.036256369,-0.09296748,-0.040754825,0.186192453,0.291713953,0.153061956,-0.239096105,-0.080265827,0.292552352,0.856217861,0.664851487,0.447240174,0.081031978,0.011735973,-0.089139484,-0.063651241,-0.067457087,0.047396369,0.011746433,-0.028687652,-0.016705016,-0.025181193
-0.010260276,0.026849631,0.018919215,0.007528171,-0.028155703,-0.018303225,0.033768121,-0.027594268,0.021538317,0.013508592,-0.006843643,-0.015460113,-0.048805702,-0.093843639,-0.119503669,-0.075556085,0.012216926,0.025883455,-0.021604666,-0.023947287,0.02089623,0.017303463,-0.025648335,-0.031070033,0.015784144,0.020962022,-0.005662553,-0.004239518,-0.006383691,0.011375204,-0.029648475,-0.018752018,-0.090099283,-0.112191416,-0.153411821,-0.158156157,-0.232007772,-0.201219633,-0.029138805,-0.313878536,-0.411736935,-0.285458028,0.122626893,-0.504023075,-0.452973098,-0.402494729,-0.252004325,-0.431227416,-0.473031491,-0.146409735,-0.09263102,-0.081928313,0.021060366,0.027265403,0.035132889,0.01655224,0.003601808,0.013765655,-0.021367531,-0.302081347,-0.234707206,-0.02435134,-0.084458329,-0.218131885,-0.140998736,-0.2722449,-0.37569204,-0.09717384,-0.090580627,-0.400775582,-0.259226263,-0.44095993,-0.327152908,-0.060248386,-0.319908261,-0.205965951,-0.116577342,0.032620002,-0.078479357,-0.351135492,-0.323764026,-0.172248691,-0.008898752,0.021518808,-0.004082415,-0.011895483,-0.327144951,-0.310280919,0.297362357,-0.003963114,0.15849942,0.24166216,0.01451812,-0.283419579,-0.109789751,0.007060076,0.084273361,-0.055973575,0.007191801,0.063548446,0.013233618,-0.016516579,0.141934931,0.094745912,0.198270261,0.310038656,0.091151215,-0.095419705,-0.037207872,0.258027136,0.430928141,0.024353765,0.002108328,-0.025847318,-0.340081245,0.150212318,0.127054289,-0.14341116,-0.016618997,0.034222584,-0.191543624,-0.082216755,-0.060505304,0.024595069,0.043556951,-0.043115504,0.05546283,0.170238525,0.051622454,0.054862339,0.143917292,0.112805821,0.093313575,0.26827544,0.181362525,0.331671715,0.456359774,0.746611714,0.452779323,0.252726823,-0.020678479,-0.019398579,-0.589755118,0.192828223,-0.127340943,-0.442663729,-0.212382346,-0.111902341,-0.122757189,0.042638343,0.131276771,0.213545442,0.210218653,0.08680585,0.078191444,0.027210508,0.177877635,0.153807923,0.072592072,-0.013209553,0.131999552,0.072253533,0.089092173,0.038795158,0.163951218,0.330518782,0.341038942,0.386553526,0.025282931,-0.335353106,0.407555491,-0.307585776,-0.132246777,-0.050075602,-0.155445904,-0.02404321,0.020044696,0.144533828,0.011889346,0.024338162,0.024297634,0.022046974,0.131523117,0.184219256,0.214518189,0.165614322,0.112132512,0.221320391,0.13941507,-0.013866499,-0.02034227,0.069556899,0.371790141,0.399119079,0.514162779,0.133973524,0.015579566,-0.550890744,0.271169513,-0.579021156,-0.444490701,0.116952173,-0.058228843,-0.075419486,0.162897438,-0.044735663,-0.001057921,0.151584476,-0.046561234,-0.041139748,0.158102676,0.167207286,0.15933463,0.115984812,0.028144844,0.131376654,0.114905074,0.134594664,0.166848004,-0.004829575,0.160384044,0.138009831,0.213506088,0.169518024,-0.458048671,-0.42617026,0.27954185,-0.160584137,-0.332632303,-0.044577032,-0.066727988,-0.102334552,0.091100641,0.071218736,-0.1015338,0.046617925,-0.073489927,-0.066955447,0.150763452,0.222508445,0.165186539,-0.029501179,-0.01014633,-0.051206067,-0.008420472,0.193626687,0.03067876,-0.002203729,0.284231424,0.15084216,0.1299126,0.099465527,-0.054616809,-0.198664591,0.042336609,-0.337699383,-0.316741586,-0.089707933,-0.171378419,-0.118226767,-0.023944618,-0.031379692,-0.087963074,0.080461338,-0.042184617,-0.043664292,0.104997464,0.079290628,-0.098469742,-0.204351828,-0.146869689,-0.155365556,-0.04931213,0.092807464,0.002008235,-0.170028552,0.194526106,0.465022624,0.137571663,-0.139560923,-0.069251709,-0.2061387,-0.231148884,-0.039897252,-0.074167855,0.019823773,-0.115870953,0.016219007,0.075867467,0.016304484,-0.003335526,-0.022810686,-0.003900006,-0.106567636,-0.10368257,-0.099293455,-0.259785712,-0.293897331,-0.219079867,-0.194106087,-0.163102299,-0.138780728,-0.310531586,-0.30703491,0.027445553,0.420212954,0.130709007,-0.19683668,-0.103168584,-0.541843653,-0.261798084,-0.327409327,-0.137348831,0.142703131,0.046714179,-0.128384814,0.070850097,0.061876871,0.099878214,-0.057856005,0.042677402,-0.074525796,-0.162161633,-0.12782836,-0.034596074,-0.151945189,-0.084887855,-0.160260379,-0.448584378,-0.295149028,-0.575066566,-0.669789672,-0.358480364,0.100272737,0.33452633,-0.193462178,-0.126572773,-0.114865839,0.053677071,-0.239397451,0.005746114,-0.02995006,0.010754599,-0.024497172,-0.010444847,0.027899196,0.207480744,0.172034323,0.031559676,0.033554059,-0.052254759,-0.024351612,-0.020414107,-0.044288754,-0.029219223,-0.024768412,-0.183224425,-0.181576416,-0.35632205,-0.473516613,-0.71000731,-0.547533214,0.125005484,-0.224789292,-0.154701009,-0.01483146,-0.274267793,-0.178654119,0.075619698,0.008827463,-0.11747063,0.070550308,-0.095243096,-0.00027631,0.234295323,0.182261959,0.212500229,0.136536375,0.06638094,0.123184778,0.063695222,0.056958757,-0.01459736,0.041785039,0.071677975,-0.127146617,-0.207434714,-0.297841817,-0.456810743,-0.522063136,-0.38965103,-0.105562553,0.086464152,0.033064965,-0.434246033,-0.151384071,0.176685438,-0.011100342,0.155408308,0.130340666,-0.054159783,0.033247862,-0.050234009,-0.003674331,0.09913788,0.121191718,0.144507378,0.081148408,0.151579857,0.092614621,-0.073918521,-0.136730745,0.040727992,-0.013279285,-0.143579811,-0.291111857,-0.180367917,-0.105031326,-0.451146036,-0.215404421,0.075996302,0.048960071,-0.014186993,0.023001509,0.27760452,0.156536937,0.178690091,0.011400714,0.029882129,0.07218352,0.105211489,0.004403336,0.084010303,0.007808986,-0.01951218,0.084924862,0.14405942,0.17505762,0.039957009,0.054413695,0.004006149,0.044916552,-0.08749935,0.106108978,-0.049468804,0.019732393,0.076181658,-0.148614123,-0.062700063,-0.02575654,0.037329648,0.24214676,0.192506,0.121632673,0.122859508,-0.036919959,0.039287996,-0.007409651,0.073794715,-0.0041913,0.021302193,0.057272218,0.009526518,0.116651177,0.122323558,0.158747211,0.15715073,0.146279842,0.138178751,-0.07304769,0.052787971,0.195712551,-0.06946972,0.024658332,-0.158918127,-0.173275158,0.025908515,-0.065130129,0.155380875,0.113367438,0.103031456,-0.032234006,0.232564032,0.093538947,0.078342758,0.202410489,0.09017323,-0.09147796,-0.182542741,-0.004647858,-0.034727436,0.118249238,0.121296912,0.263629794,0.262071162,0.145708337,0.066456899,-0.029839765,0.046785612,-0.05124031,-0.298259944,-0.225119963,-0.228854105,-0.452076852,-0.291486293,-0.401991308,0.062357739,0.163706362,0.110671371,8.51E-05,0.263086915,0.084175594,0.061250545,0.009469721,-0.023693163,-0.108881995,-0.12576139,0.081649758,0.177526712,0.181073919,0.267210871,0.11949268,0.044748001,0.09760268,0.048250683,-0.068690613,-0.121536203,-0.171670079,-0.161441118,-0.296115339,-0.417738885,-0.326770663,-0.264097482,-0.384175628,0.013176117,0.313020259,0.142628223,0.188066319,0.166285247,0.083360329,-0.017253499,-0.09439148,-0.114008226,-0.123799868,-0.071344286,-0.006668491,0.246774778,0.1579476,0.172381341,0.031164693,0.130272478,0.026837036,-0.018734731,0.013491517,-0.189702913,-0.171549618,-0.069919437,-0.099245884,-0.049629498,-0.081756741,-0.018082459,-0.226159871,-0.043868992,0.055302218,-0.008586387,0.203604266,0.072220825,-0.111130796,0.031227801,0.124184772,-0.055023093,-0.058233332,-0.055037934,0.07992354,0.086913593,0.127334371,0.187531978,0.050731469,-0.046858199,-0.073058344,-0.058325056,-0.160233214,-0.092782713,-0.096888877,0.046392139,0.370112747,-0.039775494,0.042813174,-0.131080911,-0.300504714,-0.35011977,-0.219843656,-0.114265092,-0.028681193,-0.048148245,-0.068097256,0.051161785,0.09063109,-0.128595904,0.003923595,0.085355677,0.074654408,0.132226586,0.084867708,0.064086974,-0.033691727,-0.05793279,-0.036183301,0.068294555,0.077508643,0.085110821,0.112662449,0.146819323,0.101776354,-0.42483747,0.026632907,-0.125292987,-0.128898636,-0.347460181,0.016328203,-0.166039795,-0.339618444,-0.216649711,-0.208872184,-0.121775739,-0.050668433,-0.004676838,0.087259859,0.132810384,0.056568094,0.113424227,0.025502063,-0.049934756,-0.009804996,0.034645885,0.04531597,0.015151944,0.126643762,0.07513319,0.38419953,0.377317041,0.01661622,0.140781343,-0.006031355,-0.026685039,-0.006204132,0.106422998,0.452352494,0.053823266,0.115097225,-0.023033015,-0.208651185,0.043868497,-0.051267672,0.033323724,0.066742286,0.107824691,0.016174378,0.085660808,-0.037631433,-0.036744494,-0.017591245,0.064186886,0.060040127,0.138734952,0.242694348,0.126501679,0.450717181,0.54505372,0.177013993,0.183139428,-0.032976326,0.030583385,0.032005977,-0.005717773,0.375979245,0.279856056,0.184134126,0.188565418,0.31186676,0.320985883,0.258993834,0.191329047,0.148431003,0.183880061,0.109714188,0.107848249,0.079061106,0.213462844,0.120676741,0.265514612,0.209520429,0.432632685,0.341945678,0.437435329,0.484325111,0.172165543,-0.234045208,-0.241106182,0.004607689,-0.019835677,0.0133937,0.22901237,0.193033919,0.131705225,0.295008093,0.207677454,0.188228339,0.104590572,0.213512242,0.338737249,0.344636172,0.145093352,0.302922696,0.181764185,0.394523233,0.331841826,0.336240858,0.419741452,0.422527581,0.512461543,0.572775364,0.681761444,0.775676847,0.529877245,0.196733862,-0.082650296,-0.010716038,-0.011164956,0.023923784,-0.029177399,0.077452697,0.538757265,0.52458328,0.40605858,0.035693176,-0.105233297,0.046936572,0.081258126,0.234736606,0.311016709,0.164297014,0.275304079,0.253102303,0.243997157,0.232766718,0.065509707,-0.090295099,0.197901249,0.152894065,0.003231515,0.197422788,0.058094531,-0.011493782,-0.013384866,0.001465295,0.004115906,-0.001214098,0.026305307,-0.012505895,-0.051706914,-0.054612529,0.133587435,0.141910762,0.092097193,-0.112720393,-0.100879252,0.05738955,0.129506603,-0.374422312,-0.447894931,-0.001170814,-0.264688045,-0.446759194,-0.203661159,-0.154502675,0.08376693,-0.292834163,-0.060153838,-0.198773161,0.016366858,0.027820665,-0.031486955,0.000585318
0.020724699,0.013756562,0.007393513,-0.034690462,0.007901385,0.017076164,-0.000535157,-0.02165038,-0.023407942,0.011937708,-0.014797939,0.00082159,0.009789124,-0.006906196,-0.065183684,-0.035802763,0.01621002,0.003539413,-0.019983437,-0.014589744,-0.006572179,0.026689403,-0.006166633,-0.032141235,0.027013686,-0.023686677,0.035308037,0.019486088,0.005042832,-0.005729709,-0.007878104,-0.006722271,-0.03989831,-0.046360321,-0.01566042,-0.002856615,-0.017265188,-0.051237945,-0.019101875,0.168413103,0.154933497,0.174482122,0.168587193,0.123159505,0.210116729,0.218121514,-0.311079085,-0.363271743,-0.1672557,-0.144637451,-0.10539858,-0.04749025,0.00478508,0.028668519,-0.024102783,0.028058726,0.014243677,-0.02382428,-0.040549383,-0.124550983,-0.033577133,-0.024127457,-0.040230997,0.136390835,0.09497153,-0.040448733,-0.107088983,-0.196734145,0.230543554,0.244692996,0.08847519,-0.476822585,-0.502374709,-0.688627899,-0.355126947,-0.226599261,-0.317896187,-0.4443973,-0.435628563,-0.577020586,0.02039385,0.18658796,-0.014824804,-0.034770038,-0.023101863,0.005119033,-0.399239361,-0.222174123,-0.114520758,-0.091021821,-0.173982039,-0.122717403,0.196342051,0.141287938,-0.608125985,-0.790103972,-0.43875584,0.134167537,0.156768098,-0.091569349,-0.027749479,0.180546954,-0.103574462,-0.363026977,-0.276150465,-0.095090069,-0.095891811,-0.090902314,0.031272661,0.220625207,-0.159129143,0.010624543,0.014768593,-0.012639762,-0.367984384,-0.215225801,-0.221502483,-0.176536575,-0.025740033,-0.043296933,-0.338003188,-0.229713067,-0.402111024,-0.284015566,-0.030461838,-0.186471969,-0.035112008,0.030995179,-0.083236068,-0.018904081,-0.066654637,-0.115704916,-0.12439657,-0.117391072,-0.171571195,-0.037996851,0.016308939,0.08378873,0.242247045,-0.189116627,-0.035288475,-0.008135783,-0.520488739,-0.265899807,-0.376733631,-0.334515661,-0.329941988,-0.342424244,-0.192901567,-0.029671811,-0.107185885,0.052072138,-0.023866337,0.043129694,-0.001734201,0.018286668,-0.05789033,0.044947326,-0.115650326,-0.118208028,-0.03512682,-0.056212988,-0.074492581,-0.495336711,-0.321870595,-0.258527726,-0.135186568,-0.213192493,0.024260011,-0.315520316,0.06329345,-0.434410512,-0.48517704,-0.281843156,-0.354528666,-0.273362458,-0.102779366,-0.081500031,-0.142887831,0.000388393,-0.059598289,0.001008147,0.107999332,0.219866097,0.163079336,0.196823403,0.098509572,0.110106669,0.129699931,0.011044551,0.124320269,-0.135767579,-0.194448441,0.032077726,-0.041216649,-0.201636493,-0.013312198,-0.608338833,-0.012992131,-0.506265581,-0.439174563,-0.298622966,-0.252306432,-0.319039971,-0.312280148,-0.14675115,0.018895132,0.091491386,0.069535188,0.138063326,0.003124152,0.23102966,0.27120176,0.168943748,0.185050979,-0.04050158,0.037895896,0.19791916,0.122206256,0.099236973,0.020243419,0.294387966,-0.022596749,-0.161932901,-0.136420414,-0.29529804,0.175431162,-0.086877272,-0.287033111,-0.345970213,-0.046316888,-0.086107932,-0.14406608,-0.172522694,0.006427856,0.186597273,0.234005705,0.157249272,0.0784088,0.111682609,0.306963563,0.154877141,0.182491034,0.034107361,0.116698399,0.132603705,0.023280187,0.259604245,0.462419778,0.251269221,0.330999196,0.175849095,-0.043336719,-0.192248628,0.011407102,-0.070251592,-0.15547283,-0.293169916,-0.087051004,-0.285710573,-0.241814449,-0.041263826,0.041216154,0.106870502,0.196583986,0.221115917,0.175281525,0.094169289,0.091730043,0.087672763,0.011709679,0.094482742,0.156244174,0.007555837,0.021025201,0.25531593,0.597494662,0.39461112,0.30263567,-0.344808698,-0.114706084,-0.09026514,0.067463532,-0.099559225,0.025009563,0.077627651,-0.102759399,-0.229301214,-0.219339058,-0.038242113,0.012836857,0.145353183,0.266403556,0.228723451,0.334867328,0.074872315,-0.064546555,-0.141230196,-0.064654216,-0.157275334,0.042633984,0.186155751,0.298734099,0.404412448,0.575264096,0.040438682,0.248988047,-0.112275839,-0.057068784,-0.287482083,0.219371989,-0.22768259,-0.092010908,0.151590273,0.02516048,-0.061149936,-0.08249297,0.051343787,-0.009039895,0.117698401,0.137682781,0.210525379,0.219822943,-0.037434727,-0.09350419,-0.193177268,-0.161218196,-0.200065717,-0.039234586,0.205547571,0.386260092,0.480449855,0.793763161,0.527647674,0.691940069,-0.072615698,-0.04503224,-0.067450337,0.12985678,0.011990987,0.297647148,0.234098569,0.250853986,0.087238289,-0.020579714,0.161608323,-0.127304614,0.053195409,0.014656519,0.162553906,0.021523278,-0.109580263,-0.187013775,-0.187614232,-0.302098155,-0.054819472,0.008064793,0.363497585,0.376138926,0.60033977,0.32042855,0.260333925,0.511171043,-0.362068594,-0.215796337,0.060458068,-0.407331079,0.056831762,0.40455395,0.184118092,0.061912861,0.164430201,-0.009586576,0.077957973,0.037940387,0.104470298,0.147638783,0.15450415,0.016661214,0.036054451,-0.169654816,-0.145558849,-0.226926669,-0.015014769,-0.019479964,0.142467931,0.369476497,0.253123641,0.18010436,0.270930022,0.330738574,0.2508865,0.034627959,-0.129380405,-0.470644832,-0.12564227,0.138774708,0.086356156,0.095624156,0.076596715,-0.040193882,-0.023286302,0.111060329,0.179514825,0.069919251,0.156844109,0.004410138,-0.007396908,-0.077200308,-0.004040959,-0.008275672,-0.008289004,0.035010166,-0.013727929,-0.119743451,-0.050156098,0.144059479,0.219576046,0.497314066,0.197277099,0.072030015,-0.09028928,-0.427060872,-0.022029536,0.124482863,0.150372669,0.071480699,0.16936028,0.143897876,0.144022092,0.239427656,0.109210707,-0.04185183,-0.086582012,-0.139385164,-0.166294783,-0.030770663,0.030870426,0.13598235,-0.038579341,-0.041409023,-0.178841263,-0.267046094,-0.160493836,0.041559301,0.137678891,-0.325789332,0.186656415,-0.072736703,-0.128820181,-0.534393072,-0.023064222,0.063465625,0.041897774,0.13155134,0.034989621,0.069118969,0.150332123,0.182467014,0.104893781,-0.046676621,-0.232709765,-0.243064836,-0.082564488,0.02727836,0.103599615,0.011501024,-0.102505341,-0.037151288,-0.06774345,-0.046794754,-0.190162629,-0.327609539,0.130433962,0.174892604,0.177539825,0.022449303,-0.184899136,-0.581010044,0.002348174,0.110450543,0.059343107,0.215665817,0.076833613,0.032182168,0.367310524,0.236391008,0.08217071,-0.001438401,-0.201735094,-0.163302004,0.184223458,0.101776235,0.085637175,-0.097384237,-0.137262315,-0.028617203,-0.06187702,-0.144904673,-0.336443424,0.034407556,0.142201006,0.48351568,0.534510314,-0.167542666,-0.484458327,-0.654482841,-0.32173422,-0.043153748,0.042564046,0.183443129,0.181073293,0.10947714,0.177212328,0.163677022,0.043810856,-0.087654792,-0.206739977,-0.060045809,0.101357006,0.047896735,-0.046993248,-0.12282192,-0.131447017,-0.106493853,-0.10516423,-0.018466035,0.018008014,0.184628904,-0.324946105,0.208387643,0.077883124,-0.177990913,-0.120641313,-0.360978663,-0.283883303,-0.193053529,0.099500246,0.022628088,0.043240987,0.076586001,0.063928239,0.107427292,-0.102354348,-0.145676896,-0.22763133,-0.086012535,0.013254613,0.030214161,0.042756181,-0.029536404,-0.033901341,-0.015535206,0.055594884,0.13967447,0.311183959,0.220377132,-0.142966434,0.318017304,0.094927885,0.034381662,0.240358129,0.108179092,-0.37139824,-0.272048891,0.130429417,0.045101106,-0.101331092,0.098052286,-0.011916447,0.119069561,-0.056025483,-0.180658206,-0.123190992,-0.195407704,-0.06408485,-0.131958544,0.005506495,-0.166408822,0.002372481,-0.061226714,0.112155557,0.200976029,0.219556406,0.201896027,0.362805516,-0.003277569,0.04422361,-0.02695661,-0.122942001,0.073362149,0.112012357,0.05124294,0.104530774,0.173722938,0.170910984,0.012649768,0.041526746,0.027730759,-0.000709903,-0.099187873,-0.093726121,-0.252548069,-0.219599515,-0.154573277,-0.182444066,-0.168797925,-0.039222255,-0.012533591,-0.079891756,-0.056432806,0.020210369,0.270437866,-0.073516436,-0.386557341,-0.020749711,-0.029940223,-0.080455609,-0.395682514,-0.023585645,0.093080185,0.04888875,0.333810329,0.220597848,0.125477582,0.164709836,0.113609567,0.149869263,0.129825294,0.020157468,-0.043822974,-0.197949067,-0.248695195,-0.129250675,-0.09110865,-0.144415751,-0.190850377,-0.409851372,-0.247616947,0.229716808,0.558401585,-0.025788233,-0.113246702,0.012214638,0.025747534,-0.001799978,-0.451050133,0.181989864,0.075626723,-0.032072894,0.022572592,-0.04392232,0.139956951,0.052207988,0.027994815,0.015446835,0.091275699,0.061298411,-0.020038029,-0.077128649,-0.114039168,-0.209625483,-0.201263577,-0.197712377,-0.202373698,-0.255988479,0.010179751,0.343615085,0.382609189,-0.024034435,-0.275932342,0.01834476,0.013170138,0.014887638,-0.367883146,-0.183545738,-0.193326056,-0.139334098,-0.228879347,-0.001986643,0.149790451,0.067695342,0.079659589,0.122581504,0.220772132,0.188361034,0.037808053,0.099436909,0.001455963,-0.056965008,0.117867842,-0.024064945,-0.060086969,-0.306358784,-0.14377138,0.327796668,0.074837275,-0.3592664,-0.230617374,-0.032174867,0.004415896,0.022234987,0.118981436,-0.002356196,-0.429164112,-0.319587052,-0.2175273,-0.199000254,-0.282223105,-0.140029669,0.00262907,0.04437685,-0.170051545,0.015877599,0.124309778,0.310162812,0.389959931,0.388955951,0.250402927,0.446300924,0.299929529,0.272837639,0.237052485,0.248206079,0.108115807,-0.015111385,-0.084184371,-0.028943654,-0.031116279,-0.008771747,-0.000388253,0.195743471,0.407295555,0.411223143,0.088113867,-0.105412543,-0.047950525,-0.06722603,-0.009584587,0.158205822,0.357213467,0.373373598,0.32173568,0.212004751,0.260378838,0.333714187,0.201776683,0.190715253,0.511207283,0.127232552,-0.099747874,0.331909508,0.282254606,-0.110474274,-0.009668376,0.011023778,-0.004262757,0.010250948,-0.004937543,-0.019002626,-0.269726843,-0.318131804,0.010990592,0.158750355,0.111531086,-0.01367339,0.24062708,0.222871974,0.312731922,-0.072312057,0.222826183,0.159800008,-0.052618489,-0.185954437,0.065863609,0.219517469,0.014680951,-0.315250993,-0.164123908,-0.272589028,-0.023192003,-0.012942659,0.032639947,-0.020605728
-0.00490935,-0.01060543,-0.000848066,0.025674794,-0.033948816,0.0070448,0.018763918,0.033024896,-0.026101906,-0.019814838,-0.007405125,0.027893301,-0.079002239,-0.185899615,-0.291155845,-0.161363363,-0.004549287,-0.025940444,-0.03205457,-0.028194182,-0.002351612,0.020390853,-0.031168701,0.028660055,0.009773791,-0.027981982,0.003648721,-0.028159615,0.012942612,0.026119556,0.029629033,0.020300467,0.1276723,0.091269873,-0.025399961,-0.035669733,-0.006071222,0.26018241,0.271179974,0.153199211,0.323486447,0.509837687,0.310338765,0.018814482,-0.297338784,-0.040657006,0.113325953,0.190432936,0.038464859,0.041323598,-0.039157413,-0.030930605,0.034884963,-0.006296724,0.020493835,0.022676669,-0.01398732,-0.014087107,0.002566215,-0.185800105,0.210765243,0.041863915,-0.062531516,-0.044914845,-0.226887777,-0.385985553,-0.417984784,-0.239285275,-0.116049089,0.308143258,0.254922301,0.093130447,0.086902194,0.09579318,0.114151567,0.330470085,0.198491678,0.16983211,0.260413826,-0.105717599,-0.235234082,-0.202282324,-0.024810597,-0.033496119,-0.023502786,0.017726328,-0.349867284,-0.236616373,0.121009439,0.226593643,-0.005834776,0.136862844,0.18369998,-0.192881525,-0.11067833,-0.042834751,0.053444333,0.225859031,0.383247972,0.165261716,0.085572705,0.135219187,0.051368579,0.00740307,0.331626564,0.304055452,0.037799552,0.279731274,0.09044715,0.230432197,0.280578226,-0.025272541,0.015617542,0.027789244,-0.170930788,0.300080717,0.364916831,0.182015851,-0.095108196,0.037666675,0.120836407,0.081606634,0.037707549,-0.075573802,0.065742992,0.124155439,0.121292226,0.243001789,0.121797748,0.012042268,0.047724131,0.054850295,0.044549089,0.220448747,0.151115909,0.213944331,0.379507959,0.647947371,0.576332986,0.029744303,0.003651433,0.000422943,-0.251805365,0.055891763,-0.040031254,0.268964112,0.219184935,0.234986201,0.228730336,0.212359324,0.06240217,0.040373147,0.134063154,0.124642067,0.13802439,0.059919853,0.024620291,0.080033734,0.039590862,0.084028274,0.003255444,-0.070288792,-0.166274905,-0.220334023,-0.051831223,0.442091018,0.394690335,0.206224129,0.025535874,-0.306624919,0.333628327,-0.156688839,-0.05611198,0.291538507,0.148693413,0.126866311,0.112418622,-0.057919528,-0.035018362,0.117032543,0.077973276,0.068031445,-0.031672388,0.019961083,0.023976114,0.074903749,0.123363584,0.158657014,0.219428182,0.1347159,-0.011846775,0.0959647,0.152086258,0.539006591,0.223925292,-0.034799531,0.041472897,-0.032128494,0.008879351,-0.150153369,-0.086017698,0.067494303,0.066178687,0.025127403,-0.135860384,0.016543077,0.04453117,0.079186372,0.04771119,0.031808108,-0.079170831,0.06246062,0.073472239,0.141605586,0.113208219,0.120899834,0.194860652,0.029297005,-0.06145468,0.249322951,0.134054869,0.271719992,0.23583971,-0.037106011,-0.381162792,-0.103653975,0.079978362,0.15667899,-0.017287277,0.06925416,0.105790921,0.092317574,0.039422181,0.045645535,-0.0005914,0.035059299,0.047493707,0.032978315,0.032371894,0.000119958,0.039634239,-0.034974776,0.204068884,-0.022662722,0.040289342,0.093495324,-0.037219316,-0.054654047,0.299944401,0.599236727,0.533690929,0.273623884,0.161969826,0.328950912,0.213439509,0.111035325,-0.026870418,0.05248512,0.113284864,0.070537105,0.042076852,0.115243286,0.065131061,-0.02113162,-0.016599899,0.043681249,0.070342377,-0.099046148,-0.102383517,0.028902683,-0.05468699,0.000268449,0.171802253,0.133618832,-0.054181088,-0.039647795,0.281883597,0.823947787,0.27728489,0.405335575,0.152084857,0.186668903,0.213522926,0.073680505,0.118305467,-0.034691382,-0.14045012,-0.039645337,0.066934757,-0.004899889,-0.012018609,-0.105827957,0.019944567,0.103275254,0.094611794,-0.061300557,-0.094665751,-0.107221447,0.046767622,0.050728548,0.14547275,0.030557206,0.078832507,0.021852013,0.368596524,0.670704901,0.067889556,0.50829196,0.062801152,-0.051026653,0.707774103,0.152874738,0.062370848,-0.04013161,-0.091026515,0.071770601,0.027096059,0.07983391,0.192019552,0.128082082,0.306731194,0.355609864,0.28739059,0.099067301,0.076603524,0.204770446,0.087139361,0.064649515,0.072494201,-0.073188163,0.066720173,0.048525028,0.270666599,0.104847275,0.437153876,0.188419342,0.161284164,0.214235634,0.657897949,0.408516943,0.123587951,0.160341993,0.118838124,0.320661604,0.246615395,0.201357394,0.244297162,0.238985896,0.111962847,0.22098884,0.185271099,0.177522629,0.154401049,0.151642993,0.196997449,0.094242208,-0.0018155,-0.04058034,0.111057587,0.262907952,0.001074565,-0.323352814,-0.036832858,0.130291,-0.024183305,-0.0320573,0.430944681,0.322232276,0.316266924,0.266776174,0.090442166,0.324520528,0.283940226,0.232852444,0.213815928,0.186234802,-0.040952809,-0.048923906,0.035923891,0.142105073,0.119440421,0.086339615,0.10610529,0.077705324,0.04380681,0.052637618,0.056214295,0.004009159,-0.094098583,-0.443172246,-0.328280479,-0.284350336,0.040040035,0.162737161,0.336090416,0.082481891,0.069931574,0.198302433,0.124621347,0.192086399,0.195193425,0.147244215,0.187762618,0.061152235,-0.043470193,-0.128073588,-0.047868103,0.01601262,0.030856714,0.147104383,0.007947079,0.081904806,0.084298953,0.073743261,-0.022039302,0.171265468,0.137635127,-0.107156962,-0.53839618,-0.309815645,0.120637752,0.094466895,0.301645249,0.010922984,-0.027522082,-0.018760137,0.065968253,0.028466759,0.128987953,0.066147149,0.127653986,0.013154686,-0.096516401,-0.158879235,-0.097191818,0.008826414,-0.042413756,0.141099021,0.089956306,-0.060928915,0.05889475,0.056814075,0.263579518,0.147401318,-0.055614956,0.032898813,-0.216137245,-0.395682007,0.049711525,0.128908604,0.124735557,0.052636556,0.100161292,-0.09958709,-0.009949953,0.081597537,0.158281714,-0.034440249,-0.134606093,-0.166772142,-0.098452933,-0.124559768,-0.098907113,0.042729277,-0.018851228,0.121326081,0.082491264,0.07513921,0.141340017,-0.052655961,0.058648881,0.058640137,0.039846808,-0.177714646,-0.462782949,-0.38109231,-0.018485313,0.196504131,0.017418092,-0.02807362,0.116183035,-0.018367505,-0.033797391,0.066544682,-0.026084047,0.000417209,-0.164503142,-0.152337506,-0.184291795,-0.117561661,-0.069074795,0.036749154,0.138072178,0.270062834,0.141862124,0.112040117,0.22359696,0.084416151,0.123607107,0.206457809,0.022088801,-0.368369699,-0.184943408,-0.720330417,0.356687188,0.06707681,0.156396583,-0.041167118,-0.035850946,-0.063524313,-0.04790619,-0.03780086,0.042413697,-0.011590414,-0.102793358,-0.138253793,-0.253370851,-0.092486918,0.016384384,0.089707062,0.184311002,0.08769916,0.057560582,0.084311649,0.134109989,0.077986494,-0.005420051,-0.02867808,-0.085211761,-0.305852562,-0.074720763,-0.44555518,-0.142377436,0.442018002,0.095674723,0.155112654,0.026306197,-0.061121263,0.001668608,-0.070695229,0.034732841,-0.002443577,-0.158472344,-0.236045077,-0.141484335,-0.155119374,0.082266971,0.01085192,-0.054646898,-0.016032534,0.065390751,0.097285718,0.039291903,0.096877545,-0.035482172,-0.174434558,-0.036188215,-0.192688406,-0.739748836,-0.325551867,-0.007803228,0.341920942,-0.239624396,-0.166956097,-0.08024016,-0.15811342,-0.103729084,-0.047699068,0.027782694,0.059822187,-0.046551321,-0.164523825,-0.107167996,0.04790771,0.115252681,0.042104252,-0.036450766,-0.019205851,-0.04666901,0.041372135,-0.000913247,-0.061799835,0.06057312,-0.026846956,-0.019996768,-0.151482299,-0.66061455,-0.026463786,-0.175189704,-0.007077927,-0.305960864,-0.370436013,0.033527978,-0.114071071,-0.035472702,0.036233734,0.035904858,-0.045819435,-0.070927732,0.029265005,0.045428053,0.095031217,0.1037746,0.047529999,6.20E-05,-0.116850026,-0.1613231,-0.021424921,0.051383764,0.072111093,0.002420072,-0.244915009,-0.373359025,-0.217508808,-0.429528981,-0.00676802,-0.164900124,-0.132009,-0.141810149,-0.217511699,-0.043208696,-0.296332687,-0.116707794,-0.067555346,-0.02877715,-0.099734344,0.023991885,0.124085106,0.087629274,0.049295504,0.132114142,0.075705804,0.018811993,-0.016123181,-0.004307075,0.020026751,0.021549897,0.037103005,0.085273415,-0.116056994,-0.409903765,-0.15488331,0.195183635,0.029167809,-0.003703035,0.006300591,0.137102827,0.12287005,-0.07205148,-0.08535628,-0.112955078,0.013429549,-0.026894579,-0.051653396,0.129117936,-0.023101825,0.007975051,-0.029827835,0.07896433,0.138386175,0.068357475,0.040455241,0.033873487,0.008606306,0.015593693,-0.208412752,-0.290360451,-0.277554631,-0.136511385,-0.070744246,0.177277848,-0.002211697,-0.013911499,-0.00181517,0.178125501,0.472553581,0.379017621,0.308080703,0.251731128,0.253532052,0.11088039,0.029217791,0.220094368,0.148622125,0.0069672,0.080383413,-0.053933252,0.009306699,0.030058822,-0.2481502,-0.207802966,-0.123984016,-0.168158934,-0.275229573,-0.155687332,0.123420663,-0.458742589,-0.293950319,-0.17362909,-0.008168617,0.003816564,0.035564687,0.080112755,0.152839079,0.397468895,0.432997167,0.066907734,0.227540836,0.414621741,0.458035499,0.294214129,0.269648105,0.226639062,0.292937487,0.14755176,0.076570988,0.223344699,-0.001624777,0.041327622,0.359776497,0.045258209,0.186895162,0.205229387,-0.225494146,-0.254582524,0.033318423,-0.048170842,0.033272069,0.030704629,-0.016799565,0.012381896,0.210244164,0.344070494,0.456713557,0.450590521,0.208820909,0.183023244,0.522079647,0.456397533,0.60239774,0.450478762,0.622618675,0.65733254,0.434841812,0.599233925,0.615538061,0.42629385,0.468224525,0.495131493,0.71332556,0.72050488,-0.040773667,-0.192273393,0.072827876,0.01604341,0.00763863,0.001383092,0.034737106,-0.00750288,-0.021804508,-0.21557951,-0.124676868,-0.125489682,-0.013027727,-0.01689242,0.119846888,0.074109703,0.068786278,0.346473277,0.545438707,0.648946106,0.284441978,0.175313205,0.549563885,0.553058565,0.573511124,0.30859828,0.443674386,0.480636805,0.255349398,-0.028340103,0.011351604,-0.008859077,-0.012364162
-0.006773174,-0.004355665,-0.025301684,-0.017221728,0.004959136,-0.020346588,0.031762246,0.010424912,-0.003725555,-0.01093526,0.020231869,-0.01379171,-0.005231018,0.015088054,0.043661028,0.049721722,-0.016961081,0.019975476,0.006427482,0.02888355,0.017212149,0.025926191,0.012805667,0.017221812,0.021395415,-0.033500206,-0.016835039,0.006440453,-0.024910158,-0.02794471,-0.01815825,0.009378243,0.01342708,-0.002465335,-0.055415791,0.003663587,-0.017189939,-0.049690649,-0.111601599,0.18162632,0.044084072,-0.020668605,-0.456423819,-0.294535667,0.161807105,0.168150738,-0.236320078,-0.423613846,-0.417951912,-0.189912975,-0.020944912,0.00431916,0.031498078,-0.00851294,-0.01592744,-0.009467512,-0.030577576,-0.004257675,-0.024173798,0.208963096,0.24840571,0.026413105,-0.145404056,-0.12369556,-0.010091729,0.215338901,0.095929481,-0.145708159,0.143774033,0.008664165,-0.100786515,-0.386977702,-0.224708125,-0.196387887,-0.212998793,-0.437145352,-0.302139789,-0.205762535,-0.522647977,-0.240247041,0.118496455,0.247213677,0.019164369,0.024153456,-0.012419676,-0.029735634,-0.35044542,0.030249374,-0.127788275,0.102932811,0.067666583,0.169949874,0.217801079,0.189048648,0.177127078,0.25319773,0.259456635,0.262986928,0.262918144,0.107475631,0.064344943,0.141759962,0.102212496,0.035654828,0.245389014,0.128054395,-0.201318055,-0.756952286,-0.032213196,0.095665522,0.110548645,-0.029205516,-0.016037205,-0.015277684,-0.316350251,-0.077451952,-0.108360067,0.166145489,0.433028191,0.334151268,0.26831761,0.386277527,0.176975355,0.335487008,0.255428731,0.253360897,0.092473693,0.054970354,0.039435502,0.07949432,0.017245572,0.101345666,0.025157988,-0.024859129,-0.01901483,-0.158191428,-0.098738857,-0.039271433,-0.012329087,0.328261793,0.00173042,0.025978044,-0.313667119,0.479909033,0.072448753,-0.092336744,0.263911694,0.407994986,0.223150954,0.053805392,0.228352755,0.380146384,0.254495829,0.06783589,0.002091884,-0.041993674,0.098156989,0.031217633,0.100863129,0.079774149,0.050745737,-0.027025284,0.100540601,0.03689383,-0.078627303,-0.362634748,0.178616971,0.034256164,0.004080568,0.33289966,0.200935543,0.39068976,0.095394269,0.051111076,0.15536429,0.219600245,-0.096805766,-0.049169783,0.148153901,0.156786844,0.180740029,0.179182306,0.194098666,0.058642488,0.048966724,0.00118624,0.09904854,0.036169026,-0.051414821,0.007704815,0.095407113,0.023306219,0.083964318,-0.253839254,0.400069088,0.044153418,0.008855712,0.374726653,0.121216327,0.25710386,0.326743811,0.50843215,0.383061916,0.235652342,0.025022507,-0.097675063,-0.032136377,0.124519326,-0.092577331,0.088423826,0.185807332,0.129416361,0.087989971,0.0242236,0.135966972,0.119453043,-0.032401733,0.012750432,0.142245427,0.063437238,0.063921861,-0.166709512,0.486230075,0.195086434,0.45349291,-0.028634597,-0.175293744,0.371423393,0.130575165,0.113603354,0.036406405,-0.114121817,-0.17006968,-0.289879233,-0.177580819,-0.372671813,-0.250522792,-0.240095347,0.035456069,0.279955149,0.224958897,0.155008897,0.027343759,0.076690994,0.182458803,0.067127861,0.003330429,0.042708885,-0.000576761,-0.02019256,0.225681111,-0.026795579,-0.005160312,-0.062843323,0.095972903,0.301135182,-0.087561585,-0.31716764,-0.295671493,-0.410066485,-0.597380042,-0.515283048,-0.417603791,-0.575918078,-0.426479548,-0.399110705,-0.28720659,-0.106476553,0.063758254,0.112641573,0.182843685,0.070932709,0.122713849,-0.043286879,-0.016708579,-0.00882471,0.056227352,0.45149532,0.277658522,-0.016936494,-0.003928235,-0.026044464,0.187127963,0.021577688,-0.418532133,-0.553251207,-0.481912792,-0.594194114,-0.604261696,-0.479297489,-0.532477796,-0.413772017,-0.230417773,-0.246743873,-0.304521054,-0.210364848,0.034339614,0.086372077,0.032757491,0.117908068,0.073695153,0.064570077,0.167812705,0.050496001,0.069988839,0.162454098,-0.015283098,-0.141034603,-0.010235487,-0.024727492,-0.216324449,-0.255319238,-0.482052684,-0.859321594,-0.561176598,-0.444336295,-0.346078038,-0.2919074,-0.308164656,-0.253606796,-0.049402442,0.008885669,-0.126748189,-0.308876991,-0.288301766,-0.242277578,-0.023023807,0.112254359,-0.011694588,0.036718484,0.130945981,-0.094049886,-0.253295749,-0.208564222,-0.312429458,-0.088721022,-0.046912517,-0.03752156,-0.126697198,-0.385581344,-0.505251527,-0.588431656,-0.195963979,-0.051438373,-0.022940965,0.126772225,0.102104329,0.105396256,0.290479243,0.229591504,0.059431929,-0.25928387,-0.420961708,-0.289778382,-0.072164252,-0.1275433,-0.040539932,-0.015252901,-0.047059912,-0.1708657,-0.109676294,0.052178767,-0.127821475,-0.145944148,0.026598141,-0.015077475,0.018594708,0.075102828,-0.214131013,-0.100451171,0.311535716,0.474553704,0.291622728,0.248034239,0.276465476,0.226994768,0.352909863,0.16004768,0.052594196,-0.165767238,-0.276797354,-0.322748035,-0.143780604,-0.105918437,-0.018191654,-0.025867591,0.026353942,-0.035039324,0.029098894,0.36706534,-0.118697658,0.0830779,0.167648941,0.02077977,-0.100567274,0.365801424,0.172254503,0.345102787,0.373076469,0.401016623,0.25266692,0.271887332,0.176799864,0.171013102,0.176096946,-0.06183479,-0.032251127,-0.170178875,-0.305391252,-0.23127301,-0.090975665,-0.192745656,-0.06254565,0.007052517,0.014759495,0.043471985,0.122916013,0.115889311,0.205239102,0.256374508,0.168458506,0.052482583,-0.187910646,0.224440813,0.339550257,0.284757286,0.073030151,0.051636394,-0.069813982,0.050687309,-0.098703176,-0.16213505,-0.014401377,-0.083282225,-0.159882724,-0.181012452,-0.058418635,-0.032470096,-0.012665251,-0.056879397,0.019476749,-0.056718912,-0.194201723,0.126501814,0.317941666,-0.051516864,0.549873531,0.163548976,-0.018448234,0.061745282,-0.074845634,0.189632267,0.153203219,0.136861876,-0.146618336,-0.047871295,-0.081151813,-0.064057492,-0.17665346,-0.177066654,-0.025019489,0.008956132,-0.098700866,0.053046335,0.08581271,0.236321449,0.121527292,0.003356937,0.178167894,0.225972727,0.019944271,0.022397663,0.09466137,-0.00124346,0.266125679,0.27945447,0.016247753,-0.039522115,0.068364337,0.268330693,0.148348033,0.062059391,-0.045967154,0.039911821,0.100201659,-0.098371416,-0.231947184,-0.092924334,-0.092583396,-0.073977754,-0.07302627,0.036174007,0.17049706,0.146427229,0.049921811,0.057141963,0.03671753,0.170412585,0.028938508,-0.199537128,-0.213531971,-0.19010517,-0.284006745,0.381929725,-0.503779173,-0.027016679,-0.02912279,0.185624078,0.201172203,0.028971609,0.086355343,0.186343506,0.237796053,0.002290047,-0.086587124,-0.12906836,-0.166533649,-0.118736513,-0.039297253,0.174305141,0.239056244,0.059152607,0.023295397,0.019231169,-0.08191555,-0.017540118,-0.051624112,-0.213403821,-0.14764528,0.101676658,-0.224198386,0.409119576,-0.187692761,-0.047897313,0.070709616,0.083927706,0.066795483,0.168404728,0.072160974,-0.018533587,0.138837561,0.044069748,0.021430731,0.055183999,0.114400819,0.182662651,0.192294881,0.257272512,0.089497991,0.102386266,0.079314902,-0.077023976,0.006084651,-0.063899755,-0.002664285,-0.148120925,-0.119428165,0.067992762,0.398497403,0.303037345,0.033804853,-0.039753243,0.330866039,0.336509764,0.016535589,0.12094295,0.052904934,0.072488315,0.224561423,0.218148947,0.119636811,0.141053587,0.078684822,0.17458795,0.086775213,0.099457569,0.051548183,0.092312083,0.01562078,-0.078943558,-0.04516479,0.003438597,-0.021341333,-0.013650938,-0.17759195,-0.191721603,0.306564748,-0.121026412,-0.103658944,0.138768241,0.676450074,0.321123749,-0.12983647,0.002294443,0.006533439,-0.008650778,0.019584531,0.001196986,0.118382938,0.13434355,0.06213342,0.10953062,0.06960167,0.051780041,0.045221239,0.076234452,0.010157883,0.048642434,0.105198264,0.246481016,0.309338689,0.191857085,-0.196011797,0.036636852,0.450107723,-0.005392805,-0.108139224,-0.035554036,0.534657717,0.466737717,-0.168125495,-0.041330289,-0.001785127,0.152431935,0.052688614,0.088316523,0.168462411,0.211620539,0.130970418,0.170564339,-0.007754879,0.138388947,0.134467199,0.063645512,0.001185644,0.15148063,0.101099372,0.073975511,0.293371201,0.311456919,-0.029144475,-0.016158624,-0.068478733,-0.025822867,-0.02435961,0.002346192,0.497861177,0.590084612,0.278358549,0.152750134,0.047728106,0.141994238,0.207499966,0.157687455,0.228031054,0.310703814,0.140591085,0.005070274,0.147531748,0.029461663,-0.03805602,-0.054986276,-0.168688804,0.077452779,0.079216115,0.149502501,0.266776681,0.495999753,0.000510724,-0.017801341,-0.219105035,0.000448581,-0.001208615,-0.007898543,0.126692548,0.259549081,0.044221327,-0.160453334,-0.217456952,0.082581244,0.252277404,0.306291431,0.028216507,-0.067765847,0.067090854,0.011971372,0.171750933,0.192919001,-0.034428168,0.005993987,0.077490538,-0.141715482,0.104199603,0.186051577,0.031757146,-0.154760972,0.148409888,0.186938733,0.028273737,0.000333231,-0.034020171,0.002026074,0.109130852,0.034259964,-0.016568856,-0.120275781,-0.321411639,-0.347299397,-0.394311249,-0.173666343,-0.131313518,-0.132716522,-0.408603966,-0.209475905,-0.215697691,-0.405060738,-0.44390732,-0.503045559,-0.182180226,0.129979759,0.262829542,0.11841999,0.082599163,-0.017674671,0.125766292,0.019582242,0.044568587,0.010164052,-0.009288197,-0.006274564,0.013269573,0.024969395,-0.327670187,-0.30250293,-0.385809809,-0.419120967,-0.415159643,-0.402730167,-0.246289834,-0.295679182,-0.023713507,0.055625476,-0.249618784,-0.420229942,-0.190201491,-0.341744453,-0.270818174,-0.094720714,-0.012614505,-0.209033847,-0.205194339,-0.029674226,-0.053024493,0.018978685,0.034775618,-0.024685316,0.0114117,-0.004939245,0.007103611,0.02694973,0.005767391,0.003423246,-0.044669759,0.034920342,-0.031669594,-0.038829304,-0.008285589,-0.032175023,-0.001996137,-0.07677269,-0.114958726,-0.07001318,-0.10985294,-0.085051179,-0.056880798,-0.038256217,-0.063598521,-0.078543276,-0.067246623,-0.067517862,-0.00036962,0.017323408,-0.02282523,-0.017170336
